
        <?xml version="1.0"?>
        <MethodSetup Method="BDT::bdt">
        <GeneralInfo>
        <Info name="TMVA Release" value=""/>
        <Info name="ROOT Release" value=""/>
        <Info name="Creator" value="mlglue"/>
        <Info name="Date" value=""/>
        <Info name="Host" value=""/>
        <Info name="Dir" value=""/>
        <Info name="Training events" value="-1"/>
        <Info name="TrainingTime" value="-1"/>
        <Info name="AnalysisType" value="Classification"/>
        </GeneralInfo>
        <Options>
        <Option name="NTrees" modified="Yes">400</Option>
        <Option name="MaxDepth" modified="Yes">2</Option>
        <Option name="BoostType" modified="Yes">Grad</Option>
        <Option name="Shrinkage" modified="Yes">0.01</Option>
        <Option name="UseNvars" modified="Yes">7</Option>
        </Options>

        <Variables NVar="7">
        <Variable VarIndex="0" Expression="l1PFTauPt" Label="l1PFTauPt" Title="l1PFTauPt" Unit="" Internal="l1PFTauPt" Type="F" Min="0.0000000000000000000000000000000000000000000000000000000000000000E+00" Max="0.0000000000000000000000000000000000000000000000000000000000000000E+00"/>
<Variable VarIndex="1" Expression="l1PFTauIso" Label="l1PFTauIso" Title="l1PFTauIso" Unit="" Internal="l1PFTauIso" Type="F" Min="0.0000000000000000000000000000000000000000000000000000000000000000E+00" Max="0.0000000000000000000000000000000000000000000000000000000000000000E+00"/>
<Variable VarIndex="2" Expression="l1PFTauNeutralIso" Label="l1PFTauNeutralIso" Title="l1PFTauNeutralIso" Unit="" Internal="l1PFTauNeutralIso" Type="F" Min="0.0000000000000000000000000000000000000000000000000000000000000000E+00" Max="0.0000000000000000000000000000000000000000000000000000000000000000E+00"/>
<Variable VarIndex="3" Expression="l1PFTauStripPt" Label="l1PFTauStripPt" Title="l1PFTauStripPt" Unit="" Internal="l1PFTauStripPt" Type="F" Min="0.0000000000000000000000000000000000000000000000000000000000000000E+00" Max="0.0000000000000000000000000000000000000000000000000000000000000000E+00"/>
<Variable VarIndex="4" Expression="l1PFTauLeadTrackPt" Label="l1PFTauLeadTrackPt" Title="l1PFTauLeadTrackPt" Unit="" Internal="l1PFTauLeadTrackPt" Type="F" Min="0.0000000000000000000000000000000000000000000000000000000000000000E+00" Max="0.0000000000000000000000000000000000000000000000000000000000000000E+00"/>
<Variable VarIndex="5" Expression="l1PFTaudz" Label="l1PFTaudz" Title="l1PFTaudz" Unit="" Internal="l1PFTaudz" Type="F" Min="0.0000000000000000000000000000000000000000000000000000000000000000E+00" Max="0.0000000000000000000000000000000000000000000000000000000000000000E+00"/>
<Variable VarIndex="6" Expression="l1PFTauSignalTrackMass" Label="l1PFTauSignalTrackMass" Title="l1PFTauSignalTrackMass" Unit="" Internal="l1PFTauSignalTrackMass" Type="F" Min="0.0000000000000000000000000000000000000000000000000000000000000000E+00" Max="0.0000000000000000000000000000000000000000000000000000000000000000E+00"/>

        </Variables>

        <Classes NClass="2">
        <Class Name="Background" Index="0"/>
<Class Name="Signal" Index="1"/>

        </Classes>

        <Targets NTrgt="0">
        
        </Targets>

        <Transformations NTransformations="0"/>
        <MVAPdfs/>
        <Weights NTrees="400" AnalysisType="1">
        <BinaryTree type="DecisionTree" boostWeight="0.0" itree="0">
    <Node pos="c" depth="1" NCoef="0"     IVar="0" Cut="     2.424900E+01" cType="1"     res="     0.000000E+00" rms="0.0"     purity="0.00000000E+00" nType="0">
        <Node pos="l" depth="2" NCoef="0"     IVar="4" Cut="     1.164950E+01" cType="1"     res="     0.000000E+00" rms="0.0"     purity="0.00000000E+00" nType="0">
            <Node pos="l" depth="3" NCoef="0"     IVar="-1" Cut="     0.000000E+00" cType="1"     res="    -1.818850E-02" rms="0.0e-00"     purity="0.00000000E+00" nType="-99">
            </Node>
            <Node pos="r" depth="3" NCoef="0"     IVar="-1" Cut="     0.000000E+00" cType="1"     res="    -3.730670E-03" rms="0.0e-00"     purity="0.00000000E+00" nType="-99">
            </Node>
        </Node>
        <Node pos="r" depth="2" NCoef="0"     IVar="1" Cut="     4.375000E+00" cType="1"     res="     0.000000E+00" rms="0.0"     purity="0.00000000E+00" nType="0">
            <Node pos="l" depth="3" NCoef="0"     IVar="-1" Cut="     0.000000E+00" cType="1"     res="     1.800050E-02" rms="0.0e-00"     purity="0.00000000E+00" nType="-99">
            </Node>
            <Node pos="r" depth="3" NCoef="0"     IVar="-1" Cut="     0.000000E+00" cType="1"     res="    -3.380070E-03" rms="0.0e-00"     purity="0.00000000E+00" nType="-99">
            </Node>
        </Node>
    </Node>
</BinaryTree>
<BinaryTree type="DecisionTree" boostWeight="0.0" itree="1">
    <Node pos="c" depth="1" NCoef="0"     IVar="0" Cut="     2.424900E+01" cType="1"     res="     0.000000E+00" rms="0.0"     purity="0.00000000E+00" nType="0">
        <Node pos="l" depth="2" NCoef="0"     IVar="4" Cut="     1.164950E+01" cType="1"     res="     0.000000E+00" rms="0.0"     purity="0.00000000E+00" nType="0">
            <Node pos="l" depth="3" NCoef="0"     IVar="-1" Cut="     0.000000E+00" cType="1"     res="    -1.800810E-02" rms="0.0e-00"     purity="0.00000000E+00" nType="-99">
            </Node>
            <Node pos="r" depth="3" NCoef="0"     IVar="-1" Cut="     0.000000E+00" cType="1"     res="    -3.693420E-03" rms="0.0e-00"     purity="0.00000000E+00" nType="-99">
            </Node>
        </Node>
        <Node pos="r" depth="2" NCoef="0"     IVar="1" Cut="     4.375000E+00" cType="1"     res="     0.000000E+00" rms="0.0"     purity="0.00000000E+00" nType="0">
            <Node pos="l" depth="3" NCoef="0"     IVar="-1" Cut="     0.000000E+00" cType="1"     res="     1.782190E-02" rms="0.0e-00"     purity="0.00000000E+00" nType="-99">
            </Node>
            <Node pos="r" depth="3" NCoef="0"     IVar="-1" Cut="     0.000000E+00" cType="1"     res="    -3.346290E-03" rms="0.0e-00"     purity="0.00000000E+00" nType="-99">
            </Node>
        </Node>
    </Node>
</BinaryTree>
<BinaryTree type="DecisionTree" boostWeight="0.0" itree="2">
    <Node pos="c" depth="1" NCoef="0"     IVar="0" Cut="     2.424900E+01" cType="1"     res="     0.000000E+00" rms="0.0"     purity="0.00000000E+00" nType="0">
        <Node pos="l" depth="2" NCoef="0"     IVar="4" Cut="     1.164950E+01" cType="1"     res="     0.000000E+00" rms="0.0"     purity="0.00000000E+00" nType="0">
            <Node pos="l" depth="3" NCoef="0"     IVar="-1" Cut="     0.000000E+00" cType="1"     res="    -1.783250E-02" rms="0.0e-00"     purity="0.00000000E+00" nType="-99">
            </Node>
            <Node pos="r" depth="3" NCoef="0"     IVar="-1" Cut="     0.000000E+00" cType="1"     res="    -3.656560E-03" rms="0.0e-00"     purity="0.00000000E+00" nType="-99">
            </Node>
        </Node>
        <Node pos="r" depth="2" NCoef="0"     IVar="1" Cut="     4.375000E+00" cType="1"     res="     0.000000E+00" rms="0.0"     purity="0.00000000E+00" nType="0">
            <Node pos="l" depth="3" NCoef="0"     IVar="-1" Cut="     0.000000E+00" cType="1"     res="     1.764800E-02" rms="0.0e-00"     purity="0.00000000E+00" nType="-99">
            </Node>
            <Node pos="r" depth="3" NCoef="0"     IVar="-1" Cut="     0.000000E+00" cType="1"     res="    -3.312870E-03" rms="0.0e-00"     purity="0.00000000E+00" nType="-99">
            </Node>
        </Node>
    </Node>
</BinaryTree>
<BinaryTree type="DecisionTree" boostWeight="0.0" itree="3">
    <Node pos="c" depth="1" NCoef="0"     IVar="0" Cut="     2.424900E+01" cType="1"     res="     0.000000E+00" rms="0.0"     purity="0.00000000E+00" nType="0">
        <Node pos="l" depth="2" NCoef="0"     IVar="4" Cut="     1.312390E+01" cType="1"     res="     0.000000E+00" rms="0.0"     purity="0.00000000E+00" nType="0">
            <Node pos="l" depth="3" NCoef="0"     IVar="-1" Cut="     0.000000E+00" cType="1"     res="    -1.744340E-02" rms="0.0e-00"     purity="0.00000000E+00" nType="-99">
            </Node>
            <Node pos="r" depth="3" NCoef="0"     IVar="-1" Cut="     0.000000E+00" cType="1"     res="    -5.694830E-04" rms="0.0e-00"     purity="0.00000000E+00" nType="-99">
            </Node>
        </Node>
        <Node pos="r" depth="2" NCoef="0"     IVar="1" Cut="     4.375000E+00" cType="1"     res="     0.000000E+00" rms="0.0"     purity="0.00000000E+00" nType="0">
            <Node pos="l" depth="3" NCoef="0"     IVar="-1" Cut="     0.000000E+00" cType="1"     res="     1.747840E-02" rms="0.0e-00"     purity="0.00000000E+00" nType="-99">
            </Node>
            <Node pos="r" depth="3" NCoef="0"     IVar="-1" Cut="     0.000000E+00" cType="1"     res="    -3.279800E-03" rms="0.0e-00"     purity="0.00000000E+00" nType="-99">
            </Node>
        </Node>
    </Node>
</BinaryTree>
<BinaryTree type="DecisionTree" boostWeight="0.0" itree="4">
    <Node pos="c" depth="1" NCoef="0"     IVar="0" Cut="     2.349590E+01" cType="1"     res="     0.000000E+00" rms="0.0"     purity="0.00000000E+00" nType="0">
        <Node pos="l" depth="2" NCoef="0"     IVar="4" Cut="     1.162960E+01" cType="1"     res="     0.000000E+00" rms="0.0"     purity="0.00000000E+00" nType="0">
            <Node pos="l" depth="3" NCoef="0"     IVar="-1" Cut="     0.000000E+00" cType="1"     res="    -1.753360E-02" rms="0.0e-00"     purity="0.00000000E+00" nType="-99">
            </Node>
            <Node pos="r" depth="3" NCoef="0"     IVar="-1" Cut="     0.000000E+00" cType="1"     res="    -3.973260E-03" rms="0.0e-00"     purity="0.00000000E+00" nType="-99">
            </Node>
        </Node>
        <Node pos="r" depth="2" NCoef="0"     IVar="1" Cut="     4.375000E+00" cType="1"     res="     0.000000E+00" rms="0.0"     purity="0.00000000E+00" nType="0">
            <Node pos="l" depth="3" NCoef="0"     IVar="-1" Cut="     0.000000E+00" cType="1"     res="     1.724340E-02" rms="0.0e-00"     purity="0.00000000E+00" nType="-99">
            </Node>
            <Node pos="r" depth="3" NCoef="0"     IVar="-1" Cut="     0.000000E+00" cType="1"     res="    -3.375600E-03" rms="0.0e-00"     purity="0.00000000E+00" nType="-99">
            </Node>
        </Node>
    </Node>
</BinaryTree>
<BinaryTree type="DecisionTree" boostWeight="0.0" itree="5">
    <Node pos="c" depth="1" NCoef="0"     IVar="0" Cut="     2.424900E+01" cType="1"     res="     0.000000E+00" rms="0.0"     purity="0.00000000E+00" nType="0">
        <Node pos="l" depth="2" NCoef="0"     IVar="4" Cut="     1.312390E+01" cType="1"     res="     0.000000E+00" rms="0.0"     purity="0.00000000E+00" nType="0">
            <Node pos="l" depth="3" NCoef="0"     IVar="-1" Cut="     0.000000E+00" cType="1"     res="    -1.711960E-02" rms="0.0e-00"     purity="0.00000000E+00" nType="-99">
            </Node>
            <Node pos="r" depth="3" NCoef="0"     IVar="-1" Cut="     0.000000E+00" cType="1"     res="    -5.360520E-04" rms="0.0e-00"     purity="0.00000000E+00" nType="-99">
            </Node>
        </Node>
        <Node pos="r" depth="2" NCoef="0"     IVar="1" Cut="     4.375000E+00" cType="1"     res="     0.000000E+00" rms="0.0"     purity="0.00000000E+00" nType="0">
            <Node pos="l" depth="3" NCoef="0"     IVar="-1" Cut="     0.000000E+00" cType="1"     res="     1.715250E-02" rms="0.0e-00"     purity="0.00000000E+00" nType="-99">
            </Node>
            <Node pos="r" depth="3" NCoef="0"     IVar="-1" Cut="     0.000000E+00" cType="1"     res="    -3.213420E-03" rms="0.0e-00"     purity="0.00000000E+00" nType="-99">
            </Node>
        </Node>
    </Node>
</BinaryTree>
<BinaryTree type="DecisionTree" boostWeight="0.0" itree="6">
    <Node pos="c" depth="1" NCoef="0"     IVar="0" Cut="     2.424900E+01" cType="1"     res="     0.000000E+00" rms="0.0"     purity="0.00000000E+00" nType="0">
        <Node pos="l" depth="2" NCoef="0"     IVar="4" Cut="     1.164950E+01" cType="1"     res="     0.000000E+00" rms="0.0"     purity="0.00000000E+00" nType="0">
            <Node pos="l" depth="3" NCoef="0"     IVar="-1" Cut="     0.000000E+00" cType="1"     res="    -1.717750E-02" rms="0.0e-00"     purity="0.00000000E+00" nType="-99">
            </Node>
            <Node pos="r" depth="3" NCoef="0"     IVar="-1" Cut="     0.000000E+00" cType="1"     res="    -3.470640E-03" rms="0.0e-00"     purity="0.00000000E+00" nType="-99">
            </Node>
        </Node>
        <Node pos="r" depth="2" NCoef="0"     IVar="1" Cut="     4.375000E+00" cType="1"     res="     0.000000E+00" rms="0.0"     purity="0.00000000E+00" nType="0">
            <Node pos="l" depth="3" NCoef="0"     IVar="-1" Cut="     0.000000E+00" cType="1"     res="     1.699520E-02" rms="0.0e-00"     purity="0.00000000E+00" nType="-99">
            </Node>
            <Node pos="r" depth="3" NCoef="0"     IVar="-1" Cut="     0.000000E+00" cType="1"     res="    -3.181390E-03" rms="0.0e-00"     purity="0.00000000E+00" nType="-99">
            </Node>
        </Node>
    </Node>
</BinaryTree>
<BinaryTree type="DecisionTree" boostWeight="0.0" itree="7">
    <Node pos="c" depth="1" NCoef="0"     IVar="0" Cut="     2.349590E+01" cType="1"     res="     0.000000E+00" rms="0.0"     purity="0.00000000E+00" nType="0">
        <Node pos="l" depth="2" NCoef="0"     IVar="4" Cut="     1.162960E+01" cType="1"     res="     0.000000E+00" rms="0.0"     purity="0.00000000E+00" nType="0">
            <Node pos="l" depth="3" NCoef="0"     IVar="-1" Cut="     0.000000E+00" cType="1"     res="    -1.705890E-02" rms="0.0e-00"     purity="0.00000000E+00" nType="-99">
            </Node>
            <Node pos="r" depth="3" NCoef="0"     IVar="-1" Cut="     0.000000E+00" cType="1"     res="    -3.836890E-03" rms="0.0e-00"     purity="0.00000000E+00" nType="-99">
            </Node>
        </Node>
        <Node pos="r" depth="2" NCoef="0"     IVar="1" Cut="     4.375000E+00" cType="1"     res="     0.000000E+00" rms="0.0"     purity="0.00000000E+00" nType="0">
            <Node pos="l" depth="3" NCoef="0"     IVar="-1" Cut="     0.000000E+00" cType="1"     res="     1.677420E-02" rms="0.0e-00"     purity="0.00000000E+00" nType="-99">
            </Node>
            <Node pos="r" depth="3" NCoef="0"     IVar="-1" Cut="     0.000000E+00" cType="1"     res="    -3.276720E-03" rms="0.0e-00"     purity="0.00000000E+00" nType="-99">
            </Node>
        </Node>
    </Node>
</BinaryTree>
<BinaryTree type="DecisionTree" boostWeight="0.0" itree="8">
    <Node pos="c" depth="1" NCoef="0"     IVar="0" Cut="     2.424900E+01" cType="1"     res="     0.000000E+00" rms="0.0"     purity="0.00000000E+00" nType="0">
        <Node pos="l" depth="2" NCoef="0"     IVar="4" Cut="     1.312390E+01" cType="1"     res="     0.000000E+00" rms="0.0"     purity="0.00000000E+00" nType="0">
            <Node pos="l" depth="3" NCoef="0"     IVar="-1" Cut="     0.000000E+00" cType="1"     res="    -1.666300E-02" rms="0.0e-00"     purity="0.00000000E+00" nType="-99">
            </Node>
            <Node pos="r" depth="3" NCoef="0"     IVar="-1" Cut="     0.000000E+00" cType="1"     res="    -4.693440E-04" rms="0.0e-00"     purity="0.00000000E+00" nType="-99">
            </Node>
        </Node>
        <Node pos="r" depth="2" NCoef="0"     IVar="1" Cut="     4.375000E+00" cType="1"     res="     0.000000E+00" rms="0.0"     purity="0.00000000E+00" nType="0">
            <Node pos="l" depth="3" NCoef="0"     IVar="-1" Cut="     0.000000E+00" cType="1"     res="     1.669220E-02" rms="0.0e-00"     purity="0.00000000E+00" nType="-99">
            </Node>
            <Node pos="r" depth="3" NCoef="0"     IVar="-1" Cut="     0.000000E+00" cType="1"     res="    -3.117080E-03" rms="0.0e-00"     purity="0.00000000E+00" nType="-99">
            </Node>
        </Node>
    </Node>
</BinaryTree>
<BinaryTree type="DecisionTree" boostWeight="0.0" itree="9">
    <Node pos="c" depth="1" NCoef="0"     IVar="0" Cut="     2.523700E+01" cType="1"     res="     0.000000E+00" rms="0.0"     purity="0.00000000E+00" nType="0">
        <Node pos="l" depth="2" NCoef="0"     IVar="4" Cut="     1.320820E+01" cType="1"     res="     0.000000E+00" rms="0.0"     purity="0.00000000E+00" nType="0">
            <Node pos="l" depth="3" NCoef="0"     IVar="-1" Cut="     0.000000E+00" cType="1"     res="    -1.646620E-02" rms="0.0e-00"     purity="0.00000000E+00" nType="-99">
            </Node>
            <Node pos="r" depth="3" NCoef="0"     IVar="-1" Cut="     0.000000E+00" cType="1"     res="     7.480360E-05" rms="0.0e-00"     purity="0.00000000E+00" nType="-99">
            </Node>
        </Node>
        <Node pos="r" depth="2" NCoef="0"     IVar="1" Cut="     7.375000E+00" cType="1"     res="     0.000000E+00" rms="0.0"     purity="0.00000000E+00" nType="0">
            <Node pos="l" depth="3" NCoef="0"     IVar="-1" Cut="     0.000000E+00" cType="1"     res="     1.594030E-02" rms="0.0e-00"     purity="0.00000000E+00" nType="-99">
            </Node>
            <Node pos="r" depth="3" NCoef="0"     IVar="-1" Cut="     0.000000E+00" cType="1"     res="    -6.989010E-03" rms="0.0e-00"     purity="0.00000000E+00" nType="-99">
            </Node>
        </Node>
    </Node>
</BinaryTree>
<BinaryTree type="DecisionTree" boostWeight="0.0" itree="10">
    <Node pos="c" depth="1" NCoef="0"     IVar="0" Cut="     2.349590E+01" cType="1"     res="     0.000000E+00" rms="0.0"     purity="0.00000000E+00" nType="0">
        <Node pos="l" depth="2" NCoef="0"     IVar="4" Cut="     1.069670E+01" cType="1"     res="     0.000000E+00" rms="0.0"     purity="0.00000000E+00" nType="0">
            <Node pos="l" depth="3" NCoef="0"     IVar="-1" Cut="     0.000000E+00" cType="1"     res="    -1.678220E-02" rms="0.0e-00"     purity="0.00000000E+00" nType="-99">
            </Node>
            <Node pos="r" depth="3" NCoef="0"     IVar="-1" Cut="     0.000000E+00" cType="1"     res="    -5.297470E-03" rms="0.0e-00"     purity="0.00000000E+00" nType="-99">
            </Node>
        </Node>
        <Node pos="r" depth="2" NCoef="0"     IVar="1" Cut="     4.375000E+00" cType="1"     res="     0.000000E+00" rms="0.0"     purity="0.00000000E+00" nType="0">
            <Node pos="l" depth="3" NCoef="0"     IVar="-1" Cut="     0.000000E+00" cType="1"     res="     1.634370E-02" rms="0.0e-00"     purity="0.00000000E+00" nType="-99">
            </Node>
            <Node pos="r" depth="3" NCoef="0"     IVar="-1" Cut="     0.000000E+00" cType="1"     res="    -3.212530E-03" rms="0.0e-00"     purity="0.00000000E+00" nType="-99">
            </Node>
        </Node>
    </Node>
</BinaryTree>
<BinaryTree type="DecisionTree" boostWeight="0.0" itree="11">
    <Node pos="c" depth="1" NCoef="0"     IVar="0" Cut="     2.524190E+01" cType="1"     res="     0.000000E+00" rms="0.0"     purity="0.00000000E+00" nType="0">
        <Node pos="l" depth="2" NCoef="0"     IVar="4" Cut="     1.165370E+01" cType="1"     res="     0.000000E+00" rms="0.0"     purity="0.00000000E+00" nType="0">
            <Node pos="l" depth="3" NCoef="0"     IVar="-1" Cut="     0.000000E+00" cType="1"     res="    -1.641670E-02" rms="0.0e-00"     purity="0.00000000E+00" nType="-99">
            </Node>
            <Node pos="r" depth="3" NCoef="0"     IVar="-1" Cut="     0.000000E+00" cType="1"     res="    -2.878810E-03" rms="0.0e-00"     purity="0.00000000E+00" nType="-99">
            </Node>
        </Node>
        <Node pos="r" depth="2" NCoef="0"     IVar="1" Cut="     4.375000E+00" cType="1"     res="     0.000000E+00" rms="0.0"     purity="0.00000000E+00" nType="0">
            <Node pos="l" depth="3" NCoef="0"     IVar="-1" Cut="     0.000000E+00" cType="1"     res="     1.634800E-02" rms="0.0e-00"     purity="0.00000000E+00" nType="-99">
            </Node>
            <Node pos="r" depth="3" NCoef="0"     IVar="-1" Cut="     0.000000E+00" cType="1"     res="    -2.951220E-03" rms="0.0e-00"     purity="0.00000000E+00" nType="-99">
            </Node>
        </Node>
    </Node>
</BinaryTree>
<BinaryTree type="DecisionTree" boostWeight="0.0" itree="12">
    <Node pos="c" depth="1" NCoef="0"     IVar="0" Cut="     2.524190E+01" cType="1"     res="     0.000000E+00" rms="0.0"     purity="0.00000000E+00" nType="0">
        <Node pos="l" depth="2" NCoef="0"     IVar="4" Cut="     1.320820E+01" cType="1"     res="     0.000000E+00" rms="0.0"     purity="0.00000000E+00" nType="0">
            <Node pos="l" depth="3" NCoef="0"     IVar="-1" Cut="     0.000000E+00" cType="1"     res="    -1.605240E-02" rms="0.0e-00"     purity="0.00000000E+00" nType="-99">
            </Node>
            <Node pos="r" depth="3" NCoef="0"     IVar="-1" Cut="     0.000000E+00" cType="1"     res="     1.462840E-04" rms="0.0e-00"     purity="0.00000000E+00" nType="-99">
            </Node>
        </Node>
        <Node pos="r" depth="2" NCoef="0"     IVar="1" Cut="     7.375000E+00" cType="1"     res="     0.000000E+00" rms="0.0"     purity="0.00000000E+00" nType="0">
            <Node pos="l" depth="3" NCoef="0"     IVar="-1" Cut="     0.000000E+00" cType="1"     res="     1.554580E-02" rms="0.0e-00"     purity="0.00000000E+00" nType="-99">
            </Node>
            <Node pos="r" depth="3" NCoef="0"     IVar="-1" Cut="     0.000000E+00" cType="1"     res="    -6.860950E-03" rms="0.0e-00"     purity="0.00000000E+00" nType="-99">
            </Node>
        </Node>
    </Node>
</BinaryTree>
<BinaryTree type="DecisionTree" boostWeight="0.0" itree="13">
    <Node pos="c" depth="1" NCoef="0"     IVar="0" Cut="     2.349590E+01" cType="1"     res="     0.000000E+00" rms="0.0"     purity="0.00000000E+00" nType="0">
        <Node pos="l" depth="2" NCoef="0"     IVar="4" Cut="     1.069670E+01" cType="1"     res="     0.000000E+00" rms="0.0"     purity="0.00000000E+00" nType="0">
            <Node pos="l" depth="3" NCoef="0"     IVar="-1" Cut="     0.000000E+00" cType="1"     res="    -1.637020E-02" rms="0.0e-00"     purity="0.00000000E+00" nType="-99">
            </Node>
            <Node pos="r" depth="3" NCoef="0"     IVar="-1" Cut="     0.000000E+00" cType="1"     res="    -5.108660E-03" rms="0.0e-00"     purity="0.00000000E+00" nType="-99">
            </Node>
        </Node>
        <Node pos="r" depth="2" NCoef="0"     IVar="1" Cut="     4.375000E+00" cType="1"     res="     0.000000E+00" rms="0.0"     purity="0.00000000E+00" nType="0">
            <Node pos="l" depth="3" NCoef="0"     IVar="-1" Cut="     0.000000E+00" cType="1"     res="     1.594180E-02" rms="0.0e-00"     purity="0.00000000E+00" nType="-99">
            </Node>
            <Node pos="r" depth="3" NCoef="0"     IVar="-1" Cut="     0.000000E+00" cType="1"     res="    -3.149900E-03" rms="0.0e-00"     purity="0.00000000E+00" nType="-99">
            </Node>
        </Node>
    </Node>
</BinaryTree>
<BinaryTree type="DecisionTree" boostWeight="0.0" itree="14">
    <Node pos="c" depth="1" NCoef="0"     IVar="0" Cut="     2.524190E+01" cType="1"     res="     0.000000E+00" rms="0.0"     purity="0.00000000E+00" nType="0">
        <Node pos="l" depth="2" NCoef="0"     IVar="4" Cut="     1.320820E+01" cType="1"     res="     0.000000E+00" rms="0.0"     purity="0.00000000E+00" nType="0">
            <Node pos="l" depth="3" NCoef="0"     IVar="-1" Cut="     0.000000E+00" cType="1"     res="    -1.579160E-02" rms="0.0e-00"     purity="0.00000000E+00" nType="-99">
            </Node>
            <Node pos="r" depth="3" NCoef="0"     IVar="-1" Cut="     0.000000E+00" cType="1"     res="     1.725360E-04" rms="0.0e-00"     purity="0.00000000E+00" nType="-99">
            </Node>
        </Node>
        <Node pos="r" depth="2" NCoef="0"     IVar="1" Cut="     7.375000E+00" cType="1"     res="     0.000000E+00" rms="0.0"     purity="0.00000000E+00" nType="0">
            <Node pos="l" depth="3" NCoef="0"     IVar="-1" Cut="     0.000000E+00" cType="1"     res="     1.529280E-02" rms="0.0e-00"     purity="0.00000000E+00" nType="-99">
            </Node>
            <Node pos="r" depth="3" NCoef="0"     IVar="-1" Cut="     0.000000E+00" cType="1"     res="    -6.762530E-03" rms="0.0e-00"     purity="0.00000000E+00" nType="-99">
            </Node>
        </Node>
    </Node>
</BinaryTree>
<BinaryTree type="DecisionTree" boostWeight="0.0" itree="15">
    <Node pos="c" depth="1" NCoef="0"     IVar="0" Cut="     2.249660E+01" cType="1"     res="     0.000000E+00" rms="0.0"     purity="0.00000000E+00" nType="0">
        <Node pos="l" depth="2" NCoef="0"     IVar="4" Cut="     1.075550E+01" cType="1"     res="     0.000000E+00" rms="0.0"     purity="0.00000000E+00" nType="0">
            <Node pos="l" depth="3" NCoef="0"     IVar="-1" Cut="     0.000000E+00" cType="1"     res="    -1.613720E-02" rms="0.0e-00"     purity="0.00000000E+00" nType="-99">
            </Node>
            <Node pos="r" depth="3" NCoef="0"     IVar="-1" Cut="     0.000000E+00" cType="1"     res="    -5.331370E-03" rms="0.0e-00"     purity="0.00000000E+00" nType="-99">
            </Node>
        </Node>
        <Node pos="r" depth="2" NCoef="0"     IVar="1" Cut="     4.125000E+00" cType="1"     res="     0.000000E+00" rms="0.0"     purity="0.00000000E+00" nType="0">
            <Node pos="l" depth="3" NCoef="0"     IVar="-1" Cut="     0.000000E+00" cType="1"     res="     1.569200E-02" rms="0.0e-00"     purity="0.00000000E+00" nType="-99">
            </Node>
            <Node pos="r" depth="3" NCoef="0"     IVar="-1" Cut="     0.000000E+00" cType="1"     res="    -2.935470E-03" rms="0.0e-00"     purity="0.00000000E+00" nType="-99">
            </Node>
        </Node>
    </Node>
</BinaryTree>
<BinaryTree type="DecisionTree" boostWeight="0.0" itree="16">
    <Node pos="c" depth="1" NCoef="0"     IVar="0" Cut="     2.524420E+01" cType="1"     res="     0.000000E+00" rms="0.0"     purity="0.00000000E+00" nType="0">
        <Node pos="l" depth="2" NCoef="0"     IVar="4" Cut="     1.164950E+01" cType="1"     res="     0.000000E+00" rms="0.0"     purity="0.00000000E+00" nType="0">
            <Node pos="l" depth="3" NCoef="0"     IVar="-1" Cut="     0.000000E+00" cType="1"     res="    -1.576530E-02" rms="0.0e-00"     purity="0.00000000E+00" nType="-99">
            </Node>
            <Node pos="r" depth="3" NCoef="0"     IVar="-1" Cut="     0.000000E+00" cType="1"     res="    -2.702140E-03" rms="0.0e-00"     purity="0.00000000E+00" nType="-99">
            </Node>
        </Node>
        <Node pos="r" depth="2" NCoef="0"     IVar="1" Cut="     7.375000E+00" cType="1"     res="     0.000000E+00" rms="0.0"     purity="0.00000000E+00" nType="0">
            <Node pos="l" depth="3" NCoef="0"     IVar="-1" Cut="     0.000000E+00" cType="1"     res="     1.505190E-02" rms="0.0e-00"     purity="0.00000000E+00" nType="-99">
            </Node>
            <Node pos="r" depth="3" NCoef="0"     IVar="-1" Cut="     0.000000E+00" cType="1"     res="    -6.666190E-03" rms="0.0e-00"     purity="0.00000000E+00" nType="-99">
            </Node>
        </Node>
    </Node>
</BinaryTree>
<BinaryTree type="DecisionTree" boostWeight="0.0" itree="17">
    <Node pos="c" depth="1" NCoef="0"     IVar="0" Cut="     2.524190E+01" cType="1"     res="     0.000000E+00" rms="0.0"     purity="0.00000000E+00" nType="0">
        <Node pos="l" depth="2" NCoef="0"     IVar="4" Cut="     1.320820E+01" cType="1"     res="     0.000000E+00" rms="0.0"     purity="0.00000000E+00" nType="0">
            <Node pos="l" depth="3" NCoef="0"     IVar="-1" Cut="     0.000000E+00" cType="1"     res="    -1.542110E-02" rms="0.0e-00"     purity="0.00000000E+00" nType="-99">
            </Node>
            <Node pos="r" depth="3" NCoef="0"     IVar="-1" Cut="     0.000000E+00" cType="1"     res="     2.142740E-04" rms="0.0e-00"     purity="0.00000000E+00" nType="-99">
            </Node>
        </Node>
        <Node pos="r" depth="2" NCoef="0"     IVar="1" Cut="     4.375000E+00" cType="1"     res="     0.000000E+00" rms="0.0"     purity="0.00000000E+00" nType="0">
            <Node pos="l" depth="3" NCoef="0"     IVar="-1" Cut="     0.000000E+00" cType="1"     res="     1.558550E-02" rms="0.0e-00"     purity="0.00000000E+00" nType="-99">
            </Node>
            <Node pos="r" depth="3" NCoef="0"     IVar="-1" Cut="     0.000000E+00" cType="1"     res="    -2.867940E-03" rms="0.0e-00"     purity="0.00000000E+00" nType="-99">
            </Node>
        </Node>
    </Node>
</BinaryTree>
<BinaryTree type="DecisionTree" boostWeight="0.0" itree="18">
    <Node pos="c" depth="1" NCoef="0"     IVar="0" Cut="     2.249660E+01" cType="1"     res="     0.000000E+00" rms="0.0"     purity="0.00000000E+00" nType="0">
        <Node pos="l" depth="2" NCoef="0"     IVar="4" Cut="     1.075550E+01" cType="1"     res="     0.000000E+00" rms="0.0"     purity="0.00000000E+00" nType="0">
            <Node pos="l" depth="3" NCoef="0"     IVar="-1" Cut="     0.000000E+00" cType="1"     res="    -1.576840E-02" rms="0.0e-00"     purity="0.00000000E+00" nType="-99">
            </Node>
            <Node pos="r" depth="3" NCoef="0"     IVar="-1" Cut="     0.000000E+00" cType="1"     res="    -5.150900E-03" rms="0.0e-00"     purity="0.00000000E+00" nType="-99">
            </Node>
        </Node>
        <Node pos="r" depth="2" NCoef="0"     IVar="1" Cut="     2.875000E+00" cType="1"     res="     0.000000E+00" rms="0.0"     purity="0.00000000E+00" nType="0">
            <Node pos="l" depth="3" NCoef="0"     IVar="-1" Cut="     0.000000E+00" cType="1"     res="     1.583320E-02" rms="0.0e-00"     purity="0.00000000E+00" nType="-99">
            </Node>
            <Node pos="r" depth="3" NCoef="0"     IVar="-1" Cut="     0.000000E+00" cType="1"     res="    -1.077720E-03" rms="0.0e-00"     purity="0.00000000E+00" nType="-99">
            </Node>
        </Node>
    </Node>
</BinaryTree>
<BinaryTree type="DecisionTree" boostWeight="0.0" itree="19">
    <Node pos="c" depth="1" NCoef="0"     IVar="0" Cut="     2.524420E+01" cType="1"     res="     0.000000E+00" rms="0.0"     purity="0.00000000E+00" nType="0">
        <Node pos="l" depth="2" NCoef="0"     IVar="4" Cut="     1.164950E+01" cType="1"     res="     0.000000E+00" rms="0.0"     purity="0.00000000E+00" nType="0">
            <Node pos="l" depth="3" NCoef="0"     IVar="-1" Cut="     0.000000E+00" cType="1"     res="    -1.540620E-02" rms="0.0e-00"     purity="0.00000000E+00" nType="-99">
            </Node>
            <Node pos="r" depth="3" NCoef="0"     IVar="-1" Cut="     0.000000E+00" cType="1"     res="    -2.603780E-03" rms="0.0e-00"     purity="0.00000000E+00" nType="-99">
            </Node>
        </Node>
        <Node pos="r" depth="2" NCoef="0"     IVar="1" Cut="     7.375000E+00" cType="1"     res="     0.000000E+00" rms="0.0"     purity="0.00000000E+00" nType="0">
            <Node pos="l" depth="3" NCoef="0"     IVar="-1" Cut="     0.000000E+00" cType="1"     res="     1.471050E-02" rms="0.0e-00"     purity="0.00000000E+00" nType="-99">
            </Node>
            <Node pos="r" depth="3" NCoef="0"     IVar="-1" Cut="     0.000000E+00" cType="1"     res="    -6.562500E-03" rms="0.0e-00"     purity="0.00000000E+00" nType="-99">
            </Node>
        </Node>
    </Node>
</BinaryTree>
<BinaryTree type="DecisionTree" boostWeight="0.0" itree="20">
    <Node pos="c" depth="1" NCoef="0"     IVar="0" Cut="     2.249660E+01" cType="1"     res="     0.000000E+00" rms="0.0"     purity="0.00000000E+00" nType="0">
        <Node pos="l" depth="2" NCoef="0"     IVar="4" Cut="     1.075550E+01" cType="1"     res="     0.000000E+00" rms="0.0"     purity="0.00000000E+00" nType="0">
            <Node pos="l" depth="3" NCoef="0"     IVar="-1" Cut="     0.000000E+00" cType="1"     res="    -1.553360E-02" rms="0.0e-00"     purity="0.00000000E+00" nType="-99">
            </Node>
            <Node pos="r" depth="3" NCoef="0"     IVar="-1" Cut="     0.000000E+00" cType="1"     res="    -5.048340E-03" rms="0.0e-00"     purity="0.00000000E+00" nType="-99">
            </Node>
        </Node>
        <Node pos="r" depth="2" NCoef="0"     IVar="1" Cut="     2.875000E+00" cType="1"     res="     0.000000E+00" rms="0.0"     purity="0.00000000E+00" nType="0">
            <Node pos="l" depth="3" NCoef="0"     IVar="-1" Cut="     0.000000E+00" cType="1"     res="     1.560490E-02" rms="0.0e-00"     purity="0.00000000E+00" nType="-99">
            </Node>
            <Node pos="r" depth="3" NCoef="0"     IVar="-1" Cut="     0.000000E+00" cType="1"     res="    -1.096650E-03" rms="0.0e-00"     purity="0.00000000E+00" nType="-99">
            </Node>
        </Node>
    </Node>
</BinaryTree>
<BinaryTree type="DecisionTree" boostWeight="0.0" itree="21">
    <Node pos="c" depth="1" NCoef="0"     IVar="0" Cut="     2.524420E+01" cType="1"     res="     0.000000E+00" rms="0.0"     purity="0.00000000E+00" nType="0">
        <Node pos="l" depth="2" NCoef="0"     IVar="4" Cut="     1.320820E+01" cType="1"     res="     0.000000E+00" rms="0.0"     purity="0.00000000E+00" nType="0">
            <Node pos="l" depth="3" NCoef="0"     IVar="-1" Cut="     0.000000E+00" cType="1"     res="    -1.496240E-02" rms="0.0e-00"     purity="0.00000000E+00" nType="-99">
            </Node>
            <Node pos="r" depth="3" NCoef="0"     IVar="-1" Cut="     0.000000E+00" cType="1"     res="     2.662530E-04" rms="0.0e-00"     purity="0.00000000E+00" nType="-99">
            </Node>
        </Node>
        <Node pos="r" depth="2" NCoef="0"     IVar="1" Cut="     7.375000E+00" cType="1"     res="     0.000000E+00" rms="0.0"     purity="0.00000000E+00" nType="0">
            <Node pos="l" depth="3" NCoef="0"     IVar="-1" Cut="     0.000000E+00" cType="1"     res="     1.449280E-02" rms="0.0e-00"     purity="0.00000000E+00" nType="-99">
            </Node>
            <Node pos="r" depth="3" NCoef="0"     IVar="-1" Cut="     0.000000E+00" cType="1"     res="    -6.487880E-03" rms="0.0e-00"     purity="0.00000000E+00" nType="-99">
            </Node>
        </Node>
    </Node>
</BinaryTree>
<BinaryTree type="DecisionTree" boostWeight="0.0" itree="22">
    <Node pos="c" depth="1" NCoef="0"     IVar="0" Cut="     2.524420E+01" cType="1"     res="     0.000000E+00" rms="0.0"     purity="0.00000000E+00" nType="0">
        <Node pos="l" depth="2" NCoef="0"     IVar="4" Cut="     1.165370E+01" cType="1"     res="     0.000000E+00" rms="0.0"     purity="0.00000000E+00" nType="0">
            <Node pos="l" depth="3" NCoef="0"     IVar="-1" Cut="     0.000000E+00" cType="1"     res="    -1.506780E-02" rms="0.0e-00"     purity="0.00000000E+00" nType="-99">
            </Node>
            <Node pos="r" depth="3" NCoef="0"     IVar="-1" Cut="     0.000000E+00" cType="1"     res="    -2.501530E-03" rms="0.0e-00"     purity="0.00000000E+00" nType="-99">
            </Node>
        </Node>
        <Node pos="r" depth="2" NCoef="0"     IVar="1" Cut="     4.125000E+00" cType="1"     res="     0.000000E+00" rms="0.0"     purity="0.00000000E+00" nType="0">
            <Node pos="l" depth="3" NCoef="0"     IVar="-1" Cut="     0.000000E+00" cType="1"     res="     1.509930E-02" rms="0.0e-00"     purity="0.00000000E+00" nType="-99">
            </Node>
            <Node pos="r" depth="3" NCoef="0"     IVar="-1" Cut="     0.000000E+00" cType="1"     res="    -2.482290E-03" rms="0.0e-00"     purity="0.00000000E+00" nType="-99">
            </Node>
        </Node>
    </Node>
</BinaryTree>
<BinaryTree type="DecisionTree" boostWeight="0.0" itree="23">
    <Node pos="c" depth="1" NCoef="0"     IVar="0" Cut="     2.249660E+01" cType="1"     res="     0.000000E+00" rms="0.0"     purity="0.00000000E+00" nType="0">
        <Node pos="l" depth="2" NCoef="0"     IVar="4" Cut="     1.075550E+01" cType="1"     res="     0.000000E+00" rms="0.0"     purity="0.00000000E+00" nType="0">
            <Node pos="l" depth="3" NCoef="0"     IVar="-1" Cut="     0.000000E+00" cType="1"     res="    -1.520130E-02" rms="0.0e-00"     purity="0.00000000E+00" nType="-99">
            </Node>
            <Node pos="r" depth="3" NCoef="0"     IVar="-1" Cut="     0.000000E+00" cType="1"     res="    -4.877600E-03" rms="0.0e-00"     purity="0.00000000E+00" nType="-99">
            </Node>
        </Node>
        <Node pos="r" depth="2" NCoef="0"     IVar="1" Cut="     2.875000E+00" cType="1"     res="     0.000000E+00" rms="0.0"     purity="0.00000000E+00" nType="0">
            <Node pos="l" depth="3" NCoef="0"     IVar="-1" Cut="     0.000000E+00" cType="1"     res="     1.527960E-02" rms="0.0e-00"     purity="0.00000000E+00" nType="-99">
            </Node>
            <Node pos="r" depth="3" NCoef="0"     IVar="-1" Cut="     0.000000E+00" cType="1"     res="    -1.120360E-03" rms="0.0e-00"     purity="0.00000000E+00" nType="-99">
            </Node>
        </Node>
    </Node>
</BinaryTree>
<BinaryTree type="DecisionTree" boostWeight="0.0" itree="24">
    <Node pos="c" depth="1" NCoef="0"     IVar="0" Cut="     2.624480E+01" cType="1"     res="     0.000000E+00" rms="0.0"     purity="0.00000000E+00" nType="0">
        <Node pos="l" depth="2" NCoef="0"     IVar="4" Cut="     1.320830E+01" cType="1"     res="     0.000000E+00" rms="0.0"     purity="0.00000000E+00" nType="0">
            <Node pos="l" depth="3" NCoef="0"     IVar="-1" Cut="     0.000000E+00" cType="1"     res="    -1.461240E-02" rms="0.0e-00"     purity="0.00000000E+00" nType="-99">
            </Node>
            <Node pos="r" depth="3" NCoef="0"     IVar="-1" Cut="     0.000000E+00" cType="1"     res="     5.650220E-04" rms="0.0e-00"     purity="0.00000000E+00" nType="-99">
            </Node>
        </Node>
        <Node pos="r" depth="2" NCoef="0"     IVar="1" Cut="     7.375000E+00" cType="1"     res="     0.000000E+00" rms="0.0"     purity="0.00000000E+00" nType="0">
            <Node pos="l" depth="3" NCoef="0"     IVar="-1" Cut="     0.000000E+00" cType="1"     res="     1.426960E-02" rms="0.0e-00"     purity="0.00000000E+00" nType="-99">
            </Node>
            <Node pos="r" depth="3" NCoef="0"     IVar="-1" Cut="     0.000000E+00" cType="1"     res="    -6.305890E-03" rms="0.0e-00"     purity="0.00000000E+00" nType="-99">
            </Node>
        </Node>
    </Node>
</BinaryTree>
<BinaryTree type="DecisionTree" boostWeight="0.0" itree="25">
    <Node pos="c" depth="1" NCoef="0"     IVar="0" Cut="     2.249660E+01" cType="1"     res="     0.000000E+00" rms="0.0"     purity="0.00000000E+00" nType="0">
        <Node pos="l" depth="2" NCoef="0"     IVar="4" Cut="     1.075550E+01" cType="1"     res="     0.000000E+00" rms="0.0"     purity="0.00000000E+00" nType="0">
            <Node pos="l" depth="3" NCoef="0"     IVar="-1" Cut="     0.000000E+00" cType="1"     res="    -1.499070E-02" rms="0.0e-00"     purity="0.00000000E+00" nType="-99">
            </Node>
            <Node pos="r" depth="3" NCoef="0"     IVar="-1" Cut="     0.000000E+00" cType="1"     res="    -4.763320E-03" rms="0.0e-00"     purity="0.00000000E+00" nType="-99">
            </Node>
        </Node>
        <Node pos="r" depth="2" NCoef="0"     IVar="1" Cut="     2.875000E+00" cType="1"     res="     0.000000E+00" rms="0.0"     purity="0.00000000E+00" nType="0">
            <Node pos="l" depth="3" NCoef="0"     IVar="-1" Cut="     0.000000E+00" cType="1"     res="     1.507310E-02" rms="0.0e-00"     purity="0.00000000E+00" nType="-99">
            </Node>
            <Node pos="r" depth="3" NCoef="0"     IVar="-1" Cut="     0.000000E+00" cType="1"     res="    -1.136830E-03" rms="0.0e-00"     purity="0.00000000E+00" nType="-99">
            </Node>
        </Node>
    </Node>
</BinaryTree>
<BinaryTree type="DecisionTree" boostWeight="0.0" itree="26">
    <Node pos="c" depth="1" NCoef="0"     IVar="0" Cut="     2.624480E+01" cType="1"     res="     0.000000E+00" rms="0.0"     purity="0.00000000E+00" nType="0">
        <Node pos="l" depth="2" NCoef="0"     IVar="4" Cut="     1.320830E+01" cType="1"     res="     0.000000E+00" rms="0.0"     purity="0.00000000E+00" nType="0">
            <Node pos="l" depth="3" NCoef="0"     IVar="-1" Cut="     0.000000E+00" cType="1"     res="    -1.440840E-02" rms="0.0e-00"     purity="0.00000000E+00" nType="-99">
            </Node>
            <Node pos="r" depth="3" NCoef="0"     IVar="-1" Cut="     0.000000E+00" cType="1"     res="     5.654550E-04" rms="0.0e-00"     purity="0.00000000E+00" nType="-99">
            </Node>
        </Node>
        <Node pos="r" depth="2" NCoef="0"     IVar="1" Cut="     7.375000E+00" cType="1"     res="     0.000000E+00" rms="0.0"     purity="0.00000000E+00" nType="0">
            <Node pos="l" depth="3" NCoef="0"     IVar="-1" Cut="     0.000000E+00" cType="1"     res="     1.407070E-02" rms="0.0e-00"     purity="0.00000000E+00" nType="-99">
            </Node>
            <Node pos="r" depth="3" NCoef="0"     IVar="-1" Cut="     0.000000E+00" cType="1"     res="    -6.233700E-03" rms="0.0e-00"     purity="0.00000000E+00" nType="-99">
            </Node>
        </Node>
    </Node>
</BinaryTree>
<BinaryTree type="DecisionTree" boostWeight="0.0" itree="27">
    <Node pos="c" depth="1" NCoef="0"     IVar="0" Cut="     2.199920E+01" cType="1"     res="     0.000000E+00" rms="0.0"     purity="0.00000000E+00" nType="0">
        <Node pos="l" depth="2" NCoef="0"     IVar="4" Cut="     1.045600E+01" cType="1"     res="     0.000000E+00" rms="0.0"     purity="0.00000000E+00" nType="0">
            <Node pos="l" depth="3" NCoef="0"     IVar="-1" Cut="     0.000000E+00" cType="1"     res="    -1.485640E-02" rms="0.0e-00"     purity="0.00000000E+00" nType="-99">
            </Node>
            <Node pos="r" depth="3" NCoef="0"     IVar="-1" Cut="     0.000000E+00" cType="1"     res="    -5.295800E-03" rms="0.0e-00"     purity="0.00000000E+00" nType="-99">
            </Node>
        </Node>
        <Node pos="r" depth="2" NCoef="0"     IVar="1" Cut="     2.875000E+00" cType="1"     res="     0.000000E+00" rms="0.0"     purity="0.00000000E+00" nType="0">
            <Node pos="l" depth="3" NCoef="0"     IVar="-1" Cut="     0.000000E+00" cType="1"     res="     1.484610E-02" rms="0.0e-00"     purity="0.00000000E+00" nType="-99">
            </Node>
            <Node pos="r" depth="3" NCoef="0"     IVar="-1" Cut="     0.000000E+00" cType="1"     res="    -1.224680E-03" rms="0.0e-00"     purity="0.00000000E+00" nType="-99">
            </Node>
        </Node>
    </Node>
</BinaryTree>
<BinaryTree type="DecisionTree" boostWeight="0.0" itree="28">
    <Node pos="c" depth="1" NCoef="0"     IVar="0" Cut="     2.624480E+01" cType="1"     res="     0.000000E+00" rms="0.0"     purity="0.00000000E+00" nType="0">
        <Node pos="l" depth="2" NCoef="0"     IVar="4" Cut="     1.320830E+01" cType="1"     res="     0.000000E+00" rms="0.0"     purity="0.00000000E+00" nType="0">
            <Node pos="l" depth="3" NCoef="0"     IVar="-1" Cut="     0.000000E+00" cType="1"     res="    -1.421200E-02" rms="0.0e-00"     purity="0.00000000E+00" nType="-99">
            </Node>
            <Node pos="r" depth="3" NCoef="0"     IVar="-1" Cut="     0.000000E+00" cType="1"     res="     5.652200E-04" rms="0.0e-00"     purity="0.00000000E+00" nType="-99">
            </Node>
        </Node>
        <Node pos="r" depth="2" NCoef="0"     IVar="1" Cut="     7.375000E+00" cType="1"     res="     0.000000E+00" rms="0.0"     purity="0.00000000E+00" nType="0">
            <Node pos="l" depth="3" NCoef="0"     IVar="-1" Cut="     0.000000E+00" cType="1"     res="     1.387880E-02" rms="0.0e-00"     purity="0.00000000E+00" nType="-99">
            </Node>
            <Node pos="r" depth="3" NCoef="0"     IVar="-1" Cut="     0.000000E+00" cType="1"     res="    -6.161520E-03" rms="0.0e-00"     purity="0.00000000E+00" nType="-99">
            </Node>
        </Node>
    </Node>
</BinaryTree>
<BinaryTree type="DecisionTree" boostWeight="0.0" itree="29">
    <Node pos="c" depth="1" NCoef="0"     IVar="0" Cut="     2.674390E+01" cType="1"     res="     0.000000E+00" rms="0.0"     purity="0.00000000E+00" nType="0">
        <Node pos="l" depth="2" NCoef="0"     IVar="4" Cut="     1.165550E+01" cType="1"     res="     0.000000E+00" rms="0.0"     purity="0.00000000E+00" nType="0">
            <Node pos="l" depth="3" NCoef="0"     IVar="-1" Cut="     0.000000E+00" cType="1"     res="    -1.432560E-02" rms="0.0e-00"     purity="0.00000000E+00" nType="-99">
            </Node>
            <Node pos="r" depth="3" NCoef="0"     IVar="-1" Cut="     0.000000E+00" cType="1"     res="    -1.900260E-03" rms="0.0e-00"     purity="0.00000000E+00" nType="-99">
            </Node>
        </Node>
        <Node pos="r" depth="2" NCoef="0"     IVar="1" Cut="     7.375000E+00" cType="1"     res="     0.000000E+00" rms="0.0"     purity="0.00000000E+00" nType="0">
            <Node pos="l" depth="3" NCoef="0"     IVar="-1" Cut="     0.000000E+00" cType="1"     res="     1.382200E-02" rms="0.0e-00"     purity="0.00000000E+00" nType="-99">
            </Node>
            <Node pos="r" depth="3" NCoef="0"     IVar="-1" Cut="     0.000000E+00" cType="1"     res="    -6.068060E-03" rms="0.0e-00"     purity="0.00000000E+00" nType="-99">
            </Node>
        </Node>
    </Node>
</BinaryTree>
<BinaryTree type="DecisionTree" boostWeight="0.0" itree="30">
    <Node pos="c" depth="1" NCoef="0"     IVar="0" Cut="     2.199920E+01" cType="1"     res="     0.000000E+00" rms="0.0"     purity="0.00000000E+00" nType="0">
        <Node pos="l" depth="2" NCoef="0"     IVar="4" Cut="     1.045600E+01" cType="1"     res="     0.000000E+00" rms="0.0"     purity="0.00000000E+00" nType="0">
            <Node pos="l" depth="3" NCoef="0"     IVar="-1" Cut="     0.000000E+00" cType="1"     res="    -1.456670E-02" rms="0.0e-00"     purity="0.00000000E+00" nType="-99">
            </Node>
            <Node pos="r" depth="3" NCoef="0"     IVar="-1" Cut="     0.000000E+00" cType="1"     res="    -5.123270E-03" rms="0.0e-00"     purity="0.00000000E+00" nType="-99">
            </Node>
        </Node>
        <Node pos="r" depth="2" NCoef="0"     IVar="1" Cut="     2.875000E+00" cType="1"     res="     0.000000E+00" rms="0.0"     purity="0.00000000E+00" nType="0">
            <Node pos="l" depth="3" NCoef="0"     IVar="-1" Cut="     0.000000E+00" cType="1"     res="     1.456760E-02" rms="0.0e-00"     purity="0.00000000E+00" nType="-99">
            </Node>
            <Node pos="r" depth="3" NCoef="0"     IVar="-1" Cut="     0.000000E+00" cType="1"     res="    -1.264810E-03" rms="0.0e-00"     purity="0.00000000E+00" nType="-99">
            </Node>
        </Node>
    </Node>
</BinaryTree>
<BinaryTree type="DecisionTree" boostWeight="0.0" itree="31">
    <Node pos="c" depth="1" NCoef="0"     IVar="0" Cut="     2.674390E+01" cType="1"     res="     0.000000E+00" rms="0.0"     purity="0.00000000E+00" nType="0">
        <Node pos="l" depth="2" NCoef="0"     IVar="4" Cut="     1.320830E+01" cType="1"     res="     0.000000E+00" rms="0.0"     purity="0.00000000E+00" nType="0">
            <Node pos="l" depth="3" NCoef="0"     IVar="-1" Cut="     0.000000E+00" cType="1"     res="    -1.391580E-02" rms="0.0e-00"     purity="0.00000000E+00" nType="-99">
            </Node>
            <Node pos="r" depth="3" NCoef="0"     IVar="-1" Cut="     0.000000E+00" cType="1"     res="     6.738030E-04" rms="0.0e-00"     purity="0.00000000E+00" nType="-99">
            </Node>
        </Node>
        <Node pos="r" depth="2" NCoef="0"     IVar="1" Cut="     7.375000E+00" cType="1"     res="     0.000000E+00" rms="0.0"     purity="0.00000000E+00" nType="0">
            <Node pos="l" depth="3" NCoef="0"     IVar="-1" Cut="     0.000000E+00" cType="1"     res="     1.363960E-02" rms="0.0e-00"     purity="0.00000000E+00" nType="-99">
            </Node>
            <Node pos="r" depth="3" NCoef="0"     IVar="-1" Cut="     0.000000E+00" cType="1"     res="    -5.997320E-03" rms="0.0e-00"     purity="0.00000000E+00" nType="-99">
            </Node>
        </Node>
    </Node>
</BinaryTree>
<BinaryTree type="DecisionTree" boostWeight="0.0" itree="32">
    <Node pos="c" depth="1" NCoef="0"     IVar="0" Cut="     2.099390E+01" cType="1"     res="     0.000000E+00" rms="0.0"     purity="0.00000000E+00" nType="0">
        <Node pos="l" depth="2" NCoef="0"     IVar="4" Cut="     1.022790E+01" cType="1"     res="     0.000000E+00" rms="0.0"     purity="0.00000000E+00" nType="0">
            <Node pos="l" depth="3" NCoef="0"     IVar="-1" Cut="     0.000000E+00" cType="1"     res="    -1.446240E-02" rms="0.0e-00"     purity="0.00000000E+00" nType="-99">
            </Node>
            <Node pos="r" depth="3" NCoef="0"     IVar="-1" Cut="     0.000000E+00" cType="1"     res="    -5.803430E-03" rms="0.0e-00"     purity="0.00000000E+00" nType="-99">
            </Node>
        </Node>
        <Node pos="r" depth="2" NCoef="0"     IVar="1" Cut="     2.875000E+00" cType="1"     res="     0.000000E+00" rms="0.0"     purity="0.00000000E+00" nType="0">
            <Node pos="l" depth="3" NCoef="0"     IVar="-1" Cut="     0.000000E+00" cType="1"     res="     1.432180E-02" rms="0.0e-00"     purity="0.00000000E+00" nType="-99">
            </Node>
            <Node pos="r" depth="3" NCoef="0"     IVar="-1" Cut="     0.000000E+00" cType="1"     res="    -1.454810E-03" rms="0.0e-00"     purity="0.00000000E+00" nType="-99">
            </Node>
        </Node>
    </Node>
</BinaryTree>
<BinaryTree type="DecisionTree" boostWeight="0.0" itree="33">
    <Node pos="c" depth="1" NCoef="0"     IVar="0" Cut="     2.674390E+01" cType="1"     res="     0.000000E+00" rms="0.0"     purity="0.00000000E+00" nType="0">
        <Node pos="l" depth="2" NCoef="0"     IVar="4" Cut="     1.164950E+01" cType="1"     res="     0.000000E+00" rms="0.0"     purity="0.00000000E+00" nType="0">
            <Node pos="l" depth="3" NCoef="0"     IVar="-1" Cut="     0.000000E+00" cType="1"     res="    -1.395990E-02" rms="0.0e-00"     purity="0.00000000E+00" nType="-99">
            </Node>
            <Node pos="r" depth="3" NCoef="0"     IVar="-1" Cut="     0.000000E+00" cType="1"     res="    -1.837040E-03" rms="0.0e-00"     purity="0.00000000E+00" nType="-99">
            </Node>
        </Node>
        <Node pos="r" depth="2" NCoef="0"     IVar="1" Cut="     4.375000E+00" cType="1"     res="     0.000000E+00" rms="0.0"     purity="0.00000000E+00" nType="0">
            <Node pos="l" depth="3" NCoef="0"     IVar="-1" Cut="     0.000000E+00" cType="1"     res="     1.406890E-02" rms="0.0e-00"     purity="0.00000000E+00" nType="-99">
            </Node>
            <Node pos="r" depth="3" NCoef="0"     IVar="-1" Cut="     0.000000E+00" cType="1"     res="    -2.572630E-03" rms="0.0e-00"     purity="0.00000000E+00" nType="-99">
            </Node>
        </Node>
    </Node>
</BinaryTree>
<BinaryTree type="DecisionTree" boostWeight="0.0" itree="34">
    <Node pos="c" depth="1" NCoef="0"     IVar="0" Cut="     2.724960E+01" cType="1"     res="     0.000000E+00" rms="0.0"     purity="0.00000000E+00" nType="0">
        <Node pos="l" depth="2" NCoef="0"     IVar="4" Cut="     1.308200E+01" cType="1"     res="     0.000000E+00" rms="0.0"     purity="0.00000000E+00" nType="0">
            <Node pos="l" depth="3" NCoef="0"     IVar="-1" Cut="     0.000000E+00" cType="1"     res="    -1.365110E-02" rms="0.0e-00"     purity="0.00000000E+00" nType="-99">
            </Node>
            <Node pos="r" depth="3" NCoef="0"     IVar="-1" Cut="     0.000000E+00" cType="1"     res="     4.751270E-04" rms="0.0e-00"     purity="0.00000000E+00" nType="-99">
            </Node>
        </Node>
        <Node pos="r" depth="2" NCoef="0"     IVar="1" Cut="     7.375000E+00" cType="1"     res="     0.000000E+00" rms="0.0"     purity="0.00000000E+00" nType="0">
            <Node pos="l" depth="3" NCoef="0"     IVar="-1" Cut="     0.000000E+00" cType="1"     res="     1.342120E-02" rms="0.0e-00"     purity="0.00000000E+00" nType="-99">
            </Node>
            <Node pos="r" depth="3" NCoef="0"     IVar="-1" Cut="     0.000000E+00" cType="1"     res="    -5.861450E-03" rms="0.0e-00"     purity="0.00000000E+00" nType="-99">
            </Node>
        </Node>
    </Node>
</BinaryTree>
<BinaryTree type="DecisionTree" boostWeight="0.0" itree="35">
    <Node pos="c" depth="1" NCoef="0"     IVar="0" Cut="     2.099390E+01" cType="1"     res="     0.000000E+00" rms="0.0"     purity="0.00000000E+00" nType="0">
        <Node pos="l" depth="2" NCoef="0"     IVar="4" Cut="     1.022790E+01" cType="1"     res="     0.000000E+00" rms="0.0"     purity="0.00000000E+00" nType="0">
            <Node pos="l" depth="3" NCoef="0"     IVar="-1" Cut="     0.000000E+00" cType="1"     res="    -1.419810E-02" rms="0.0e-00"     purity="0.00000000E+00" nType="-99">
            </Node>
            <Node pos="r" depth="3" NCoef="0"     IVar="-1" Cut="     0.000000E+00" cType="1"     res="    -5.625660E-03" rms="0.0e-00"     purity="0.00000000E+00" nType="-99">
            </Node>
        </Node>
        <Node pos="r" depth="2" NCoef="0"     IVar="1" Cut="     2.875000E+00" cType="1"     res="     0.000000E+00" rms="0.0"     purity="0.00000000E+00" nType="0">
            <Node pos="l" depth="3" NCoef="0"     IVar="-1" Cut="     0.000000E+00" cType="1"     res="     1.406550E-02" rms="0.0e-00"     purity="0.00000000E+00" nType="-99">
            </Node>
            <Node pos="r" depth="3" NCoef="0"     IVar="-1" Cut="     0.000000E+00" cType="1"     res="    -1.468580E-03" rms="0.0e-00"     purity="0.00000000E+00" nType="-99">
            </Node>
        </Node>
    </Node>
</BinaryTree>
<BinaryTree type="DecisionTree" boostWeight="0.0" itree="36">
    <Node pos="c" depth="1" NCoef="0"     IVar="0" Cut="     2.724960E+01" cType="1"     res="     0.000000E+00" rms="0.0"     purity="0.00000000E+00" nType="0">
        <Node pos="l" depth="2" NCoef="0"     IVar="4" Cut="     1.165550E+01" cType="1"     res="     0.000000E+00" rms="0.0"     purity="0.00000000E+00" nType="0">
            <Node pos="l" depth="3" NCoef="0"     IVar="-1" Cut="     0.000000E+00" cType="1"     res="    -1.368700E-02" rms="0.0e-00"     purity="0.00000000E+00" nType="-99">
            </Node>
            <Node pos="r" depth="3" NCoef="0"     IVar="-1" Cut="     0.000000E+00" cType="1"     res="    -1.675790E-03" rms="0.0e-00"     purity="0.00000000E+00" nType="-99">
            </Node>
        </Node>
        <Node pos="r" depth="2" NCoef="0"     IVar="1" Cut="     2.875000E+00" cType="1"     res="     0.000000E+00" rms="0.0"     purity="0.00000000E+00" nType="0">
            <Node pos="l" depth="3" NCoef="0"     IVar="-1" Cut="     0.000000E+00" cType="1"     res="     1.435350E-02" rms="0.0e-00"     purity="0.00000000E+00" nType="-99">
            </Node>
            <Node pos="r" depth="3" NCoef="0"     IVar="-1" Cut="     0.000000E+00" cType="1"     res="    -5.870210E-04" rms="0.0e-00"     purity="0.00000000E+00" nType="-99">
            </Node>
        </Node>
    </Node>
</BinaryTree>
<BinaryTree type="DecisionTree" boostWeight="0.0" itree="37">
    <Node pos="c" depth="1" NCoef="0"     IVar="0" Cut="     2.099390E+01" cType="1"     res="     0.000000E+00" rms="0.0"     purity="0.00000000E+00" nType="0">
        <Node pos="l" depth="2" NCoef="0"     IVar="4" Cut="     1.022790E+01" cType="1"     res="     0.000000E+00" rms="0.0"     purity="0.00000000E+00" nType="0">
            <Node pos="l" depth="3" NCoef="0"     IVar="-1" Cut="     0.000000E+00" cType="1"     res="    -1.402770E-02" rms="0.0e-00"     purity="0.00000000E+00" nType="-99">
            </Node>
            <Node pos="r" depth="3" NCoef="0"     IVar="-1" Cut="     0.000000E+00" cType="1"     res="    -5.520930E-03" rms="0.0e-00"     purity="0.00000000E+00" nType="-99">
            </Node>
        </Node>
        <Node pos="r" depth="2" NCoef="0"     IVar="1" Cut="     2.875000E+00" cType="1"     res="     0.000000E+00" rms="0.0"     purity="0.00000000E+00" nType="0">
            <Node pos="l" depth="3" NCoef="0"     IVar="-1" Cut="     0.000000E+00" cType="1"     res="     1.389380E-02" rms="0.0e-00"     purity="0.00000000E+00" nType="-99">
            </Node>
            <Node pos="r" depth="3" NCoef="0"     IVar="-1" Cut="     0.000000E+00" cType="1"     res="    -1.442820E-03" rms="0.0e-00"     purity="0.00000000E+00" nType="-99">
            </Node>
        </Node>
    </Node>
</BinaryTree>
<BinaryTree type="DecisionTree" boostWeight="0.0" itree="38">
    <Node pos="c" depth="1" NCoef="0"     IVar="0" Cut="     2.724960E+01" cType="1"     res="     0.000000E+00" rms="0.0"     purity="0.00000000E+00" nType="0">
        <Node pos="l" depth="2" NCoef="0"     IVar="4" Cut="     1.320830E+01" cType="1"     res="     0.000000E+00" rms="0.0"     purity="0.00000000E+00" nType="0">
            <Node pos="l" depth="3" NCoef="0"     IVar="-1" Cut="     0.000000E+00" cType="1"     res="    -1.329870E-02" rms="0.0e-00"     purity="0.00000000E+00" nType="-99">
            </Node>
            <Node pos="r" depth="3" NCoef="0"     IVar="-1" Cut="     0.000000E+00" cType="1"     res="     7.132460E-04" rms="0.0e-00"     purity="0.00000000E+00" nType="-99">
            </Node>
        </Node>
        <Node pos="r" depth="2" NCoef="0"     IVar="1" Cut="     7.375000E+00" cType="1"     res="     0.000000E+00" rms="0.0"     purity="0.00000000E+00" nType="0">
            <Node pos="l" depth="3" NCoef="0"     IVar="-1" Cut="     0.000000E+00" cType="1"     res="     1.309900E-02" rms="0.0e-00"     purity="0.00000000E+00" nType="-99">
            </Node>
            <Node pos="r" depth="3" NCoef="0"     IVar="-1" Cut="     0.000000E+00" cType="1"     res="    -5.771540E-03" rms="0.0e-00"     purity="0.00000000E+00" nType="-99">
            </Node>
        </Node>
    </Node>
</BinaryTree>
<BinaryTree type="DecisionTree" boostWeight="0.0" itree="39">
    <Node pos="c" depth="1" NCoef="0"     IVar="0" Cut="     2.724960E+01" cType="1"     res="     0.000000E+00" rms="0.0"     purity="0.00000000E+00" nType="0">
        <Node pos="l" depth="2" NCoef="0"     IVar="0" Cut="     1.550000E+01" cType="1"     res="     0.000000E+00" rms="0.0"     purity="0.00000000E+00" nType="0">
            <Node pos="l" depth="3" NCoef="0"     IVar="-1" Cut="     0.000000E+00" cType="1"     res="    -1.370510E-02" rms="0.0e-00"     purity="0.00000000E+00" nType="-99">
            </Node>
            <Node pos="r" depth="3" NCoef="0"     IVar="-1" Cut="     0.000000E+00" cType="1"     res="    -3.475670E-03" rms="0.0e-00"     purity="0.00000000E+00" nType="-99">
            </Node>
        </Node>
        <Node pos="r" depth="2" NCoef="0"     IVar="1" Cut="     2.875000E+00" cType="1"     res="     0.000000E+00" rms="0.0"     purity="0.00000000E+00" nType="0">
            <Node pos="l" depth="3" NCoef="0"     IVar="-1" Cut="     0.000000E+00" cType="1"     res="     1.410580E-02" rms="0.0e-00"     purity="0.00000000E+00" nType="-99">
            </Node>
            <Node pos="r" depth="3" NCoef="0"     IVar="-1" Cut="     0.000000E+00" cType="1"     res="    -5.967690E-04" rms="0.0e-00"     purity="0.00000000E+00" nType="-99">
            </Node>
        </Node>
    </Node>
</BinaryTree>
<BinaryTree type="DecisionTree" boostWeight="0.0" itree="40">
    <Node pos="c" depth="1" NCoef="0"     IVar="0" Cut="     2.099390E+01" cType="1"     res="     0.000000E+00" rms="0.0"     purity="0.00000000E+00" nType="0">
        <Node pos="l" depth="2" NCoef="0"     IVar="4" Cut="     9.842560E+00" cType="1"     res="     0.000000E+00" rms="0.0"     purity="0.00000000E+00" nType="0">
            <Node pos="l" depth="3" NCoef="0"     IVar="-1" Cut="     0.000000E+00" cType="1"     res="    -1.384980E-02" rms="0.0e-00"     purity="0.00000000E+00" nType="-99">
            </Node>
            <Node pos="r" depth="3" NCoef="0"     IVar="-1" Cut="     0.000000E+00" cType="1"     res="    -5.804960E-03" rms="0.0e-00"     purity="0.00000000E+00" nType="-99">
            </Node>
        </Node>
        <Node pos="r" depth="2" NCoef="0"     IVar="1" Cut="     2.875000E+00" cType="1"     res="     0.000000E+00" rms="0.0"     purity="0.00000000E+00" nType="0">
            <Node pos="l" depth="3" NCoef="0"     IVar="-1" Cut="     0.000000E+00" cType="1"     res="     1.365470E-02" rms="0.0e-00"     purity="0.00000000E+00" nType="-99">
            </Node>
            <Node pos="r" depth="3" NCoef="0"     IVar="-1" Cut="     0.000000E+00" cType="1"     res="    -1.442530E-03" rms="0.0e-00"     purity="0.00000000E+00" nType="-99">
            </Node>
        </Node>
    </Node>
</BinaryTree>
<BinaryTree type="DecisionTree" boostWeight="0.0" itree="41">
    <Node pos="c" depth="1" NCoef="0"     IVar="0" Cut="     2.724960E+01" cType="1"     res="     0.000000E+00" rms="0.0"     purity="0.00000000E+00" nType="0">
        <Node pos="l" depth="2" NCoef="0"     IVar="4" Cut="     1.164950E+01" cType="1"     res="     0.000000E+00" rms="0.0"     purity="0.00000000E+00" nType="0">
            <Node pos="l" depth="3" NCoef="0"     IVar="-1" Cut="     0.000000E+00" cType="1"     res="    -1.328610E-02" rms="0.0e-00"     purity="0.00000000E+00" nType="-99">
            </Node>
            <Node pos="r" depth="3" NCoef="0"     IVar="-1" Cut="     0.000000E+00" cType="1"     res="    -1.565320E-03" rms="0.0e-00"     purity="0.00000000E+00" nType="-99">
            </Node>
        </Node>
        <Node pos="r" depth="2" NCoef="0"     IVar="1" Cut="     7.375000E+00" cType="1"     res="     0.000000E+00" rms="0.0"     purity="0.00000000E+00" nType="0">
            <Node pos="l" depth="3" NCoef="0"     IVar="-1" Cut="     0.000000E+00" cType="1"     res="     1.286680E-02" rms="0.0e-00"     purity="0.00000000E+00" nType="-99">
            </Node>
            <Node pos="r" depth="3" NCoef="0"     IVar="-1" Cut="     0.000000E+00" cType="1"     res="    -5.696660E-03" rms="0.0e-00"     purity="0.00000000E+00" nType="-99">
            </Node>
        </Node>
    </Node>
</BinaryTree>
<BinaryTree type="DecisionTree" boostWeight="0.0" itree="42">
    <Node pos="c" depth="1" NCoef="0"     IVar="0" Cut="     2.724960E+01" cType="1"     res="     0.000000E+00" rms="0.0"     purity="0.00000000E+00" nType="0">
        <Node pos="l" depth="2" NCoef="0"     IVar="0" Cut="     1.399550E+01" cType="1"     res="     0.000000E+00" rms="0.0"     purity="0.00000000E+00" nType="0">
            <Node pos="l" depth="3" NCoef="0"     IVar="-1" Cut="     0.000000E+00" cType="1"     res="    -1.367100E-02" rms="0.0e-00"     purity="0.00000000E+00" nType="-99">
            </Node>
            <Node pos="r" depth="3" NCoef="0"     IVar="-1" Cut="     0.000000E+00" cType="1"     res="    -4.384220E-03" rms="0.0e-00"     purity="0.00000000E+00" nType="-99">
            </Node>
        </Node>
        <Node pos="r" depth="2" NCoef="0"     IVar="1" Cut="     2.875000E+00" cType="1"     res="     0.000000E+00" rms="0.0"     purity="0.00000000E+00" nType="0">
            <Node pos="l" depth="3" NCoef="0"     IVar="-1" Cut="     0.000000E+00" cType="1"     res="     1.387040E-02" rms="0.0e-00"     purity="0.00000000E+00" nType="-99">
            </Node>
            <Node pos="r" depth="3" NCoef="0"     IVar="-1" Cut="     0.000000E+00" cType="1"     res="    -6.057370E-04" rms="0.0e-00"     purity="0.00000000E+00" nType="-99">
            </Node>
        </Node>
    </Node>
</BinaryTree>
<BinaryTree type="DecisionTree" boostWeight="0.0" itree="43">
    <Node pos="c" depth="1" NCoef="0"     IVar="0" Cut="     2.098750E+01" cType="1"     res="     0.000000E+00" rms="0.0"     purity="0.00000000E+00" nType="0">
        <Node pos="l" depth="2" NCoef="0"     IVar="4" Cut="     9.842560E+00" cType="1"     res="     0.000000E+00" rms="0.0"     purity="0.00000000E+00" nType="0">
            <Node pos="l" depth="3" NCoef="0"     IVar="-1" Cut="     0.000000E+00" cType="1"     res="    -1.362060E-02" rms="0.0e-00"     purity="0.00000000E+00" nType="-99">
            </Node>
            <Node pos="r" depth="3" NCoef="0"     IVar="-1" Cut="     0.000000E+00" cType="1"     res="    -5.639380E-03" rms="0.0e-00"     purity="0.00000000E+00" nType="-99">
            </Node>
        </Node>
        <Node pos="r" depth="2" NCoef="0"     IVar="1" Cut="     2.875000E+00" cType="1"     res="     0.000000E+00" rms="0.0"     purity="0.00000000E+00" nType="0">
            <Node pos="l" depth="3" NCoef="0"     IVar="-1" Cut="     0.000000E+00" cType="1"     res="     1.342430E-02" rms="0.0e-00"     purity="0.00000000E+00" nType="-99">
            </Node>
            <Node pos="r" depth="3" NCoef="0"     IVar="-1" Cut="     0.000000E+00" cType="1"     res="    -1.444010E-03" rms="0.0e-00"     purity="0.00000000E+00" nType="-99">
            </Node>
        </Node>
    </Node>
</BinaryTree>
<BinaryTree type="DecisionTree" boostWeight="0.0" itree="44">
    <Node pos="c" depth="1" NCoef="0"     IVar="0" Cut="     2.724960E+01" cType="1"     res="     0.000000E+00" rms="0.0"     purity="0.00000000E+00" nType="0">
        <Node pos="l" depth="2" NCoef="0"     IVar="0" Cut="     1.399550E+01" cType="1"     res="     0.000000E+00" rms="0.0"     purity="0.00000000E+00" nType="0">
            <Node pos="l" depth="3" NCoef="0"     IVar="-1" Cut="     0.000000E+00" cType="1"     res="    -1.351800E-02" rms="0.0e-00"     purity="0.00000000E+00" nType="-99">
            </Node>
            <Node pos="r" depth="3" NCoef="0"     IVar="-1" Cut="     0.000000E+00" cType="1"     res="    -4.317240E-03" rms="0.0e-00"     purity="0.00000000E+00" nType="-99">
            </Node>
        </Node>
        <Node pos="r" depth="2" NCoef="0"     IVar="1" Cut="     7.375000E+00" cType="1"     res="     0.000000E+00" rms="0.0"     purity="0.00000000E+00" nType="0">
            <Node pos="l" depth="3" NCoef="0"     IVar="-1" Cut="     0.000000E+00" cType="1"     res="     1.264480E-02" rms="0.0e-00"     purity="0.00000000E+00" nType="-99">
            </Node>
            <Node pos="r" depth="3" NCoef="0"     IVar="-1" Cut="     0.000000E+00" cType="1"     res="    -5.622530E-03" rms="0.0e-00"     purity="0.00000000E+00" nType="-99">
            </Node>
        </Node>
    </Node>
</BinaryTree>
<BinaryTree type="DecisionTree" boostWeight="0.0" itree="45">
    <Node pos="c" depth="1" NCoef="0"     IVar="0" Cut="     2.724960E+01" cType="1"     res="     0.000000E+00" rms="0.0"     purity="0.00000000E+00" nType="0">
        <Node pos="l" depth="2" NCoef="0"     IVar="4" Cut="     1.069650E+01" cType="1"     res="     0.000000E+00" rms="0.0"     purity="0.00000000E+00" nType="0">
            <Node pos="l" depth="3" NCoef="0"     IVar="-1" Cut="     0.000000E+00" cType="1"     res="    -1.315390E-02" rms="0.0e-00"     purity="0.00000000E+00" nType="-99">
            </Node>
            <Node pos="r" depth="3" NCoef="0"     IVar="-1" Cut="     0.000000E+00" cType="1"     res="    -2.668840E-03" rms="0.0e-00"     purity="0.00000000E+00" nType="-99">
            </Node>
        </Node>
        <Node pos="r" depth="2" NCoef="0"     IVar="1" Cut="     4.125000E+00" cType="1"     res="     0.000000E+00" rms="0.0"     purity="0.00000000E+00" nType="0">
            <Node pos="l" depth="3" NCoef="0"     IVar="-1" Cut="     0.000000E+00" cType="1"     res="     1.322360E-02" rms="0.0e-00"     purity="0.00000000E+00" nType="-99">
            </Node>
            <Node pos="r" depth="3" NCoef="0"     IVar="-1" Cut="     0.000000E+00" cType="1"     res="    -2.143260E-03" rms="0.0e-00"     purity="0.00000000E+00" nType="-99">
            </Node>
        </Node>
    </Node>
</BinaryTree>
<BinaryTree type="DecisionTree" boostWeight="0.0" itree="46">
    <Node pos="c" depth="1" NCoef="0"     IVar="0" Cut="     2.074980E+01" cType="1"     res="     0.000000E+00" rms="0.0"     purity="0.00000000E+00" nType="0">
        <Node pos="l" depth="2" NCoef="0"     IVar="4" Cut="     9.842560E+00" cType="1"     res="     0.000000E+00" rms="0.0"     purity="0.00000000E+00" nType="0">
            <Node pos="l" depth="3" NCoef="0"     IVar="-1" Cut="     0.000000E+00" cType="1"     res="    -1.340230E-02" rms="0.0e-00"     purity="0.00000000E+00" nType="-99">
            </Node>
            <Node pos="r" depth="3" NCoef="0"     IVar="-1" Cut="     0.000000E+00" cType="1"     res="    -5.536690E-03" rms="0.0e-00"     purity="0.00000000E+00" nType="-99">
            </Node>
        </Node>
        <Node pos="r" depth="2" NCoef="0"     IVar="1" Cut="     2.875000E+00" cType="1"     res="     0.000000E+00" rms="0.0"     purity="0.00000000E+00" nType="0">
            <Node pos="l" depth="3" NCoef="0"     IVar="-1" Cut="     0.000000E+00" cType="1"     res="     1.320080E-02" rms="0.0e-00"     purity="0.00000000E+00" nType="-99">
            </Node>
            <Node pos="r" depth="3" NCoef="0"     IVar="-1" Cut="     0.000000E+00" cType="1"     res="    -1.468520E-03" rms="0.0e-00"     purity="0.00000000E+00" nType="-99">
            </Node>
        </Node>
    </Node>
</BinaryTree>
<BinaryTree type="DecisionTree" boostWeight="0.0" itree="47">
    <Node pos="c" depth="1" NCoef="0"     IVar="0" Cut="     2.724960E+01" cType="1"     res="     0.000000E+00" rms="0.0"     purity="0.00000000E+00" nType="0">
        <Node pos="l" depth="2" NCoef="0"     IVar="0" Cut="     1.399550E+01" cType="1"     res="     0.000000E+00" rms="0.0"     purity="0.00000000E+00" nType="0">
            <Node pos="l" depth="3" NCoef="0"     IVar="-1" Cut="     0.000000E+00" cType="1"     res="    -1.330020E-02" rms="0.0e-00"     purity="0.00000000E+00" nType="-99">
            </Node>
            <Node pos="r" depth="3" NCoef="0"     IVar="-1" Cut="     0.000000E+00" cType="1"     res="    -4.186390E-03" rms="0.0e-00"     purity="0.00000000E+00" nType="-99">
            </Node>
        </Node>
        <Node pos="r" depth="2" NCoef="0"     IVar="1" Cut="     7.375000E+00" cType="1"     res="     0.000000E+00" rms="0.0"     purity="0.00000000E+00" nType="0">
            <Node pos="l" depth="3" NCoef="0"     IVar="-1" Cut="     0.000000E+00" cType="1"     res="     1.243020E-02" rms="0.0e-00"     purity="0.00000000E+00" nType="-99">
            </Node>
            <Node pos="r" depth="3" NCoef="0"     IVar="-1" Cut="     0.000000E+00" cType="1"     res="    -5.534320E-03" rms="0.0e-00"     purity="0.00000000E+00" nType="-99">
            </Node>
        </Node>
    </Node>
</BinaryTree>
<BinaryTree type="DecisionTree" boostWeight="0.0" itree="48">
    <Node pos="c" depth="1" NCoef="0"     IVar="0" Cut="     2.724960E+01" cType="1"     res="     0.000000E+00" rms="0.0"     purity="0.00000000E+00" nType="0">
        <Node pos="l" depth="2" NCoef="0"     IVar="4" Cut="     1.164950E+01" cType="1"     res="     0.000000E+00" rms="0.0"     purity="0.00000000E+00" nType="0">
            <Node pos="l" depth="3" NCoef="0"     IVar="-1" Cut="     0.000000E+00" cType="1"     res="    -1.277440E-02" rms="0.0e-00"     purity="0.00000000E+00" nType="-99">
            </Node>
            <Node pos="r" depth="3" NCoef="0"     IVar="-1" Cut="     0.000000E+00" cType="1"     res="    -1.345310E-03" rms="0.0e-00"     purity="0.00000000E+00" nType="-99">
            </Node>
        </Node>
        <Node pos="r" depth="2" NCoef="0"     IVar="1" Cut="     2.875000E+00" cType="1"     res="     0.000000E+00" rms="0.0"     purity="0.00000000E+00" nType="0">
            <Node pos="l" depth="3" NCoef="0"     IVar="-1" Cut="     0.000000E+00" cType="1"     res="     1.343460E-02" rms="0.0e-00"     purity="0.00000000E+00" nType="-99">
            </Node>
            <Node pos="r" depth="3" NCoef="0"     IVar="-1" Cut="     0.000000E+00" cType="1"     res="    -6.349870E-04" rms="0.0e-00"     purity="0.00000000E+00" nType="-99">
            </Node>
        </Node>
    </Node>
</BinaryTree>
<BinaryTree type="DecisionTree" boostWeight="0.0" itree="49">
    <Node pos="c" depth="1" NCoef="0"     IVar="0" Cut="     2.074980E+01" cType="1"     res="     0.000000E+00" rms="0.0"     purity="0.00000000E+00" nType="0">
        <Node pos="l" depth="2" NCoef="0"     IVar="4" Cut="     9.842560E+00" cType="1"     res="     0.000000E+00" rms="0.0"     purity="0.00000000E+00" nType="0">
            <Node pos="l" depth="3" NCoef="0"     IVar="-1" Cut="     0.000000E+00" cType="1"     res="    -1.319200E-02" rms="0.0e-00"     purity="0.00000000E+00" nType="-99">
            </Node>
            <Node pos="r" depth="3" NCoef="0"     IVar="-1" Cut="     0.000000E+00" cType="1"     res="    -5.362750E-03" rms="0.0e-00"     purity="0.00000000E+00" nType="-99">
            </Node>
        </Node>
        <Node pos="r" depth="2" NCoef="0"     IVar="1" Cut="     2.875000E+00" cType="1"     res="     0.000000E+00" rms="0.0"     purity="0.00000000E+00" nType="0">
            <Node pos="l" depth="3" NCoef="0"     IVar="-1" Cut="     0.000000E+00" cType="1"     res="     1.299350E-02" rms="0.0e-00"     purity="0.00000000E+00" nType="-99">
            </Node>
            <Node pos="r" depth="3" NCoef="0"     IVar="-1" Cut="     0.000000E+00" cType="1"     res="    -1.465810E-03" rms="0.0e-00"     purity="0.00000000E+00" nType="-99">
            </Node>
        </Node>
    </Node>
</BinaryTree>
<BinaryTree type="DecisionTree" boostWeight="0.0" itree="50">
    <Node pos="c" depth="1" NCoef="0"     IVar="0" Cut="     2.799110E+01" cType="1"     res="     0.000000E+00" rms="0.0"     purity="0.00000000E+00" nType="0">
        <Node pos="l" depth="2" NCoef="0"     IVar="4" Cut="     1.308200E+01" cType="1"     res="     0.000000E+00" rms="0.0"     purity="0.00000000E+00" nType="0">
            <Node pos="l" depth="3" NCoef="0"     IVar="-1" Cut="     0.000000E+00" cType="1"     res="    -1.242610E-02" rms="0.0e-00"     purity="0.00000000E+00" nType="-99">
            </Node>
            <Node pos="r" depth="3" NCoef="0"     IVar="-1" Cut="     0.000000E+00" cType="1"     res="     7.751380E-04" rms="0.0e-00"     purity="0.00000000E+00" nType="-99">
            </Node>
        </Node>
        <Node pos="r" depth="2" NCoef="0"     IVar="1" Cut="     8.625000E+00" cType="1"     res="     0.000000E+00" rms="0.0"     purity="0.00000000E+00" nType="0">
            <Node pos="l" depth="3" NCoef="0"     IVar="-1" Cut="     0.000000E+00" cType="1"     res="     1.209340E-02" rms="0.0e-00"     purity="0.00000000E+00" nType="-99">
            </Node>
            <Node pos="r" depth="3" NCoef="0"     IVar="-1" Cut="     0.000000E+00" cType="1"     res="    -6.804320E-03" rms="0.0e-00"     purity="0.00000000E+00" nType="-99">
            </Node>
        </Node>
    </Node>
</BinaryTree>
<BinaryTree type="DecisionTree" boostWeight="0.0" itree="51">
    <Node pos="c" depth="1" NCoef="0"     IVar="0" Cut="     2.074980E+01" cType="1"     res="     0.000000E+00" rms="0.0"     purity="0.00000000E+00" nType="0">
        <Node pos="l" depth="2" NCoef="0"     IVar="4" Cut="     9.842560E+00" cType="1"     res="     0.000000E+00" rms="0.0"     purity="0.00000000E+00" nType="0">
            <Node pos="l" depth="3" NCoef="0"     IVar="-1" Cut="     0.000000E+00" cType="1"     res="    -1.305660E-02" rms="0.0e-00"     purity="0.00000000E+00" nType="-99">
            </Node>
            <Node pos="r" depth="3" NCoef="0"     IVar="-1" Cut="     0.000000E+00" cType="1"     res="    -5.250680E-03" rms="0.0e-00"     purity="0.00000000E+00" nType="-99">
            </Node>
        </Node>
        <Node pos="r" depth="2" NCoef="0"     IVar="1" Cut="     2.875000E+00" cType="1"     res="     0.000000E+00" rms="0.0"     purity="0.00000000E+00" nType="0">
            <Node pos="l" depth="3" NCoef="0"     IVar="-1" Cut="     0.000000E+00" cType="1"     res="     1.286150E-02" rms="0.0e-00"     purity="0.00000000E+00" nType="-99">
            </Node>
            <Node pos="r" depth="3" NCoef="0"     IVar="-1" Cut="     0.000000E+00" cType="1"     res="    -1.476800E-03" rms="0.0e-00"     purity="0.00000000E+00" nType="-99">
            </Node>
        </Node>
    </Node>
</BinaryTree>
<BinaryTree type="DecisionTree" boostWeight="0.0" itree="52">
    <Node pos="c" depth="1" NCoef="0"     IVar="0" Cut="     2.799110E+01" cType="1"     res="     0.000000E+00" rms="0.0"     purity="0.00000000E+00" nType="0">
        <Node pos="l" depth="2" NCoef="0"     IVar="0" Cut="     1.399550E+01" cType="1"     res="     0.000000E+00" rms="0.0"     purity="0.00000000E+00" nType="0">
            <Node pos="l" depth="3" NCoef="0"     IVar="-1" Cut="     0.000000E+00" cType="1"     res="    -1.296050E-02" rms="0.0e-00"     purity="0.00000000E+00" nType="-99">
            </Node>
            <Node pos="r" depth="3" NCoef="0"     IVar="-1" Cut="     0.000000E+00" cType="1"     res="    -3.883450E-03" rms="0.0e-00"     purity="0.00000000E+00" nType="-99">
            </Node>
        </Node>
        <Node pos="r" depth="2" NCoef="0"     IVar="1" Cut="     8.625000E+00" cType="1"     res="     0.000000E+00" rms="0.0"     purity="0.00000000E+00" nType="0">
            <Node pos="l" depth="3" NCoef="0"     IVar="-1" Cut="     0.000000E+00" cType="1"     res="     1.195980E-02" rms="0.0e-00"     purity="0.00000000E+00" nType="-99">
            </Node>
            <Node pos="r" depth="3" NCoef="0"     IVar="-1" Cut="     0.000000E+00" cType="1"     res="    -6.726460E-03" rms="0.0e-00"     purity="0.00000000E+00" nType="-99">
            </Node>
        </Node>
    </Node>
</BinaryTree>
<BinaryTree type="DecisionTree" boostWeight="0.0" itree="53">
    <Node pos="c" depth="1" NCoef="0"     IVar="0" Cut="     2.824400E+01" cType="1"     res="     0.000000E+00" rms="0.0"     purity="0.00000000E+00" nType="0">
        <Node pos="l" depth="2" NCoef="0"     IVar="4" Cut="     1.320830E+01" cType="1"     res="     0.000000E+00" rms="0.0"     purity="0.00000000E+00" nType="0">
            <Node pos="l" depth="3" NCoef="0"     IVar="-1" Cut="     0.000000E+00" cType="1"     res="    -1.220470E-02" rms="0.0e-00"     purity="0.00000000E+00" nType="-99">
            </Node>
            <Node pos="r" depth="3" NCoef="0"     IVar="-1" Cut="     0.000000E+00" cType="1"     res="     1.083340E-03" rms="0.0e-00"     purity="0.00000000E+00" nType="-99">
            </Node>
        </Node>
        <Node pos="r" depth="2" NCoef="0"     IVar="1" Cut="     4.125000E+00" cType="1"     res="     0.000000E+00" rms="0.0"     purity="0.00000000E+00" nType="0">
            <Node pos="l" depth="3" NCoef="0"     IVar="-1" Cut="     0.000000E+00" cType="1"     res="     1.274450E-02" rms="0.0e-00"     purity="0.00000000E+00" nType="-99">
            </Node>
            <Node pos="r" depth="3" NCoef="0"     IVar="-1" Cut="     0.000000E+00" cType="1"     res="    -2.038370E-03" rms="0.0e-00"     purity="0.00000000E+00" nType="-99">
            </Node>
        </Node>
    </Node>
</BinaryTree>
<BinaryTree type="DecisionTree" boostWeight="0.0" itree="54">
    <Node pos="c" depth="1" NCoef="0"     IVar="0" Cut="     2.074980E+01" cType="1"     res="     0.000000E+00" rms="0.0"     purity="0.00000000E+00" nType="0">
        <Node pos="l" depth="2" NCoef="0"     IVar="4" Cut="     9.842560E+00" cType="1"     res="     0.000000E+00" rms="0.0"     purity="0.00000000E+00" nType="0">
            <Node pos="l" depth="3" NCoef="0"     IVar="-1" Cut="     0.000000E+00" cType="1"     res="    -1.286230E-02" rms="0.0e-00"     purity="0.00000000E+00" nType="-99">
            </Node>
            <Node pos="r" depth="3" NCoef="0"     IVar="-1" Cut="     0.000000E+00" cType="1"     res="    -5.071770E-03" rms="0.0e-00"     purity="0.00000000E+00" nType="-99">
            </Node>
        </Node>
        <Node pos="r" depth="2" NCoef="0"     IVar="1" Cut="     2.875000E+00" cType="1"     res="     0.000000E+00" rms="0.0"     purity="0.00000000E+00" nType="0">
            <Node pos="l" depth="3" NCoef="0"     IVar="-1" Cut="     0.000000E+00" cType="1"     res="     1.267160E-02" rms="0.0e-00"     purity="0.00000000E+00" nType="-99">
            </Node>
            <Node pos="r" depth="3" NCoef="0"     IVar="-1" Cut="     0.000000E+00" cType="1"     res="    -1.491050E-03" rms="0.0e-00"     purity="0.00000000E+00" nType="-99">
            </Node>
        </Node>
    </Node>
</BinaryTree>
<BinaryTree type="DecisionTree" boostWeight="0.0" itree="55">
    <Node pos="c" depth="1" NCoef="0"     IVar="0" Cut="     2.824400E+01" cType="1"     res="     0.000000E+00" rms="0.0"     purity="0.00000000E+00" nType="0">
        <Node pos="l" depth="2" NCoef="0"     IVar="4" Cut="     1.308200E+01" cType="1"     res="     0.000000E+00" rms="0.0"     purity="0.00000000E+00" nType="0">
            <Node pos="l" depth="3" NCoef="0"     IVar="-1" Cut="     0.000000E+00" cType="1"     res="    -1.209430E-02" rms="0.0e-00"     purity="0.00000000E+00" nType="-99">
            </Node>
            <Node pos="r" depth="3" NCoef="0"     IVar="-1" Cut="     0.000000E+00" cType="1"     res="     8.464350E-04" rms="0.0e-00"     purity="0.00000000E+00" nType="-99">
            </Node>
        </Node>
        <Node pos="r" depth="2" NCoef="0"     IVar="1" Cut="     8.625000E+00" cType="1"     res="     0.000000E+00" rms="0.0"     purity="0.00000000E+00" nType="0">
            <Node pos="l" depth="3" NCoef="0"     IVar="-1" Cut="     0.000000E+00" cType="1"     res="     1.178910E-02" rms="0.0e-00"     purity="0.00000000E+00" nType="-99">
            </Node>
            <Node pos="r" depth="3" NCoef="0"     IVar="-1" Cut="     0.000000E+00" cType="1"     res="    -6.624190E-03" rms="0.0e-00"     purity="0.00000000E+00" nType="-99">
            </Node>
        </Node>
    </Node>
</BinaryTree>
<BinaryTree type="DecisionTree" boostWeight="0.0" itree="56">
    <Node pos="c" depth="1" NCoef="0"     IVar="0" Cut="     2.023730E+01" cType="1"     res="     0.000000E+00" rms="0.0"     purity="0.00000000E+00" nType="0">
        <Node pos="l" depth="2" NCoef="0"     IVar="4" Cut="     9.503160E+00" cType="1"     res="     0.000000E+00" rms="0.0"     purity="0.00000000E+00" nType="0">
            <Node pos="l" depth="3" NCoef="0"     IVar="-1" Cut="     0.000000E+00" cType="1"     res="    -1.283050E-02" rms="0.0e-00"     purity="0.00000000E+00" nType="-99">
            </Node>
            <Node pos="r" depth="3" NCoef="0"     IVar="-1" Cut="     0.000000E+00" cType="1"     res="    -5.673570E-03" rms="0.0e-00"     purity="0.00000000E+00" nType="-99">
            </Node>
        </Node>
        <Node pos="r" depth="2" NCoef="0"     IVar="1" Cut="     2.875000E+00" cType="1"     res="     0.000000E+00" rms="0.0"     purity="0.00000000E+00" nType="0">
            <Node pos="l" depth="3" NCoef="0"     IVar="-1" Cut="     0.000000E+00" cType="1"     res="     1.250740E-02" rms="0.0e-00"     purity="0.00000000E+00" nType="-99">
            </Node>
            <Node pos="r" depth="3" NCoef="0"     IVar="-1" Cut="     0.000000E+00" cType="1"     res="    -1.589280E-03" rms="0.0e-00"     purity="0.00000000E+00" nType="-99">
            </Node>
        </Node>
    </Node>
</BinaryTree>
<BinaryTree type="DecisionTree" boostWeight="0.0" itree="57">
    <Node pos="c" depth="1" NCoef="0"     IVar="0" Cut="     2.824400E+01" cType="1"     res="     0.000000E+00" rms="0.0"     purity="0.00000000E+00" nType="0">
        <Node pos="l" depth="2" NCoef="0"     IVar="0" Cut="     1.399550E+01" cType="1"     res="     0.000000E+00" rms="0.0"     purity="0.00000000E+00" nType="0">
            <Node pos="l" depth="3" NCoef="0"     IVar="-1" Cut="     0.000000E+00" cType="1"     res="    -1.264380E-02" rms="0.0e-00"     purity="0.00000000E+00" nType="-99">
            </Node>
            <Node pos="r" depth="3" NCoef="0"     IVar="-1" Cut="     0.000000E+00" cType="1"     res="    -3.655060E-03" rms="0.0e-00"     purity="0.00000000E+00" nType="-99">
            </Node>
        </Node>
        <Node pos="r" depth="2" NCoef="0"     IVar="1" Cut="     2.875000E+00" cType="1"     res="     0.000000E+00" rms="0.0"     purity="0.00000000E+00" nType="0">
            <Node pos="l" depth="3" NCoef="0"     IVar="-1" Cut="     0.000000E+00" cType="1"     res="     1.291040E-02" rms="0.0e-00"     purity="0.00000000E+00" nType="-99">
            </Node>
            <Node pos="r" depth="3" NCoef="0"     IVar="-1" Cut="     0.000000E+00" cType="1"     res="    -5.891180E-04" rms="0.0e-00"     purity="0.00000000E+00" nType="-99">
            </Node>
        </Node>
    </Node>
</BinaryTree>
<BinaryTree type="DecisionTree" boostWeight="0.0" itree="58">
    <Node pos="c" depth="1" NCoef="0"     IVar="0" Cut="     2.824400E+01" cType="1"     res="     0.000000E+00" rms="0.0"     purity="0.00000000E+00" nType="0">
        <Node pos="l" depth="2" NCoef="0"     IVar="4" Cut="     1.069650E+01" cType="1"     res="     0.000000E+00" rms="0.0"     purity="0.00000000E+00" nType="0">
            <Node pos="l" depth="3" NCoef="0"     IVar="-1" Cut="     0.000000E+00" cType="1"     res="    -1.228390E-02" rms="0.0e-00"     purity="0.00000000E+00" nType="-99">
            </Node>
            <Node pos="r" depth="3" NCoef="0"     IVar="-1" Cut="     0.000000E+00" cType="1"     res="    -2.131440E-03" rms="0.0e-00"     purity="0.00000000E+00" nType="-99">
            </Node>
        </Node>
        <Node pos="r" depth="2" NCoef="0"     IVar="1" Cut="     8.625000E+00" cType="1"     res="     0.000000E+00" rms="0.0"     purity="0.00000000E+00" nType="0">
            <Node pos="l" depth="3" NCoef="0"     IVar="-1" Cut="     0.000000E+00" cType="1"     res="     1.160540E-02" rms="0.0e-00"     purity="0.00000000E+00" nType="-99">
            </Node>
            <Node pos="r" depth="3" NCoef="0"     IVar="-1" Cut="     0.000000E+00" cType="1"     res="    -6.541830E-03" rms="0.0e-00"     purity="0.00000000E+00" nType="-99">
            </Node>
        </Node>
    </Node>
</BinaryTree>
<BinaryTree type="DecisionTree" boostWeight="0.0" itree="59">
    <Node pos="c" depth="1" NCoef="0"     IVar="0" Cut="     2.023730E+01" cType="1"     res="     0.000000E+00" rms="0.0"     purity="0.00000000E+00" nType="0">
        <Node pos="l" depth="2" NCoef="0"     IVar="4" Cut="     8.876080E+00" cType="1"     res="     0.000000E+00" rms="0.0"     purity="0.00000000E+00" nType="0">
            <Node pos="l" depth="3" NCoef="0"     IVar="-1" Cut="     0.000000E+00" cType="1"     res="    -1.279550E-02" rms="0.0e-00"     purity="0.00000000E+00" nType="-99">
            </Node>
            <Node pos="r" depth="3" NCoef="0"     IVar="-1" Cut="     0.000000E+00" cType="1"     res="    -6.318300E-03" rms="0.0e-00"     purity="0.00000000E+00" nType="-99">
            </Node>
        </Node>
        <Node pos="r" depth="2" NCoef="0"     IVar="1" Cut="     2.875000E+00" cType="1"     res="     0.000000E+00" rms="0.0"     purity="0.00000000E+00" nType="0">
            <Node pos="l" depth="3" NCoef="0"     IVar="-1" Cut="     0.000000E+00" cType="1"     res="     1.232830E-02" rms="0.0e-00"     purity="0.00000000E+00" nType="-99">
            </Node>
            <Node pos="r" depth="3" NCoef="0"     IVar="-1" Cut="     0.000000E+00" cType="1"     res="    -1.588270E-03" rms="0.0e-00"     purity="0.00000000E+00" nType="-99">
            </Node>
        </Node>
    </Node>
</BinaryTree>
<BinaryTree type="DecisionTree" boostWeight="0.0" itree="60">
    <Node pos="c" depth="1" NCoef="0"     IVar="0" Cut="     2.824400E+01" cType="1"     res="     0.000000E+00" rms="0.0"     purity="0.00000000E+00" nType="0">
        <Node pos="l" depth="2" NCoef="0"     IVar="0" Cut="     1.399500E+01" cType="1"     res="     0.000000E+00" rms="0.0"     purity="0.00000000E+00" nType="0">
            <Node pos="l" depth="3" NCoef="0"     IVar="-1" Cut="     0.000000E+00" cType="1"     res="    -1.246310E-02" rms="0.0e-00"     purity="0.00000000E+00" nType="-99">
            </Node>
            <Node pos="r" depth="3" NCoef="0"     IVar="-1" Cut="     0.000000E+00" cType="1"     res="    -3.552240E-03" rms="0.0e-00"     purity="0.00000000E+00" nType="-99">
            </Node>
        </Node>
        <Node pos="r" depth="2" NCoef="0"     IVar="1" Cut="     2.875000E+00" cType="1"     res="     0.000000E+00" rms="0.0"     purity="0.00000000E+00" nType="0">
            <Node pos="l" depth="3" NCoef="0"     IVar="-1" Cut="     0.000000E+00" cType="1"     res="     1.273160E-02" rms="0.0e-00"     purity="0.00000000E+00" nType="-99">
            </Node>
            <Node pos="r" depth="3" NCoef="0"     IVar="-1" Cut="     0.000000E+00" cType="1"     res="    -5.994610E-04" rms="0.0e-00"     purity="0.00000000E+00" nType="-99">
            </Node>
        </Node>
    </Node>
</BinaryTree>
<BinaryTree type="DecisionTree" boostWeight="0.0" itree="61">
    <Node pos="c" depth="1" NCoef="0"     IVar="0" Cut="     2.848720E+01" cType="1"     res="     0.000000E+00" rms="0.0"     purity="0.00000000E+00" nType="0">
        <Node pos="l" depth="2" NCoef="0"     IVar="4" Cut="     1.069650E+01" cType="1"     res="     0.000000E+00" rms="0.0"     purity="0.00000000E+00" nType="0">
            <Node pos="l" depth="3" NCoef="0"     IVar="-1" Cut="     0.000000E+00" cType="1"     res="    -1.210450E-02" rms="0.0e-00"     purity="0.00000000E+00" nType="-99">
            </Node>
            <Node pos="r" depth="3" NCoef="0"     IVar="-1" Cut="     0.000000E+00" cType="1"     res="    -2.032160E-03" rms="0.0e-00"     purity="0.00000000E+00" nType="-99">
            </Node>
        </Node>
        <Node pos="r" depth="2" NCoef="0"     IVar="1" Cut="     8.625000E+00" cType="1"     res="     0.000000E+00" rms="0.0"     purity="0.00000000E+00" nType="0">
            <Node pos="l" depth="3" NCoef="0"     IVar="-1" Cut="     0.000000E+00" cType="1"     res="     1.143960E-02" rms="0.0e-00"     purity="0.00000000E+00" nType="-99">
            </Node>
            <Node pos="r" depth="3" NCoef="0"     IVar="-1" Cut="     0.000000E+00" cType="1"     res="    -6.450860E-03" rms="0.0e-00"     purity="0.00000000E+00" nType="-99">
            </Node>
        </Node>
    </Node>
</BinaryTree>
<BinaryTree type="DecisionTree" boostWeight="0.0" itree="62">
    <Node pos="c" depth="1" NCoef="0"     IVar="0" Cut="     1.999920E+01" cType="1"     res="     0.000000E+00" rms="0.0"     purity="0.00000000E+00" nType="0">
        <Node pos="l" depth="2" NCoef="0"     IVar="4" Cut="     8.876080E+00" cType="1"     res="     0.000000E+00" rms="0.0"     purity="0.00000000E+00" nType="0">
            <Node pos="l" depth="3" NCoef="0"     IVar="-1" Cut="     0.000000E+00" cType="1"     res="    -1.262440E-02" rms="0.0e-00"     purity="0.00000000E+00" nType="-99">
            </Node>
            <Node pos="r" depth="3" NCoef="0"     IVar="-1" Cut="     0.000000E+00" cType="1"     res="    -6.208360E-03" rms="0.0e-00"     purity="0.00000000E+00" nType="-99">
            </Node>
        </Node>
        <Node pos="r" depth="2" NCoef="0"     IVar="1" Cut="     2.875000E+00" cType="1"     res="     0.000000E+00" rms="0.0"     purity="0.00000000E+00" nType="0">
            <Node pos="l" depth="3" NCoef="0"     IVar="-1" Cut="     0.000000E+00" cType="1"     res="     1.214630E-02" rms="0.0e-00"     purity="0.00000000E+00" nType="-99">
            </Node>
            <Node pos="r" depth="3" NCoef="0"     IVar="-1" Cut="     0.000000E+00" cType="1"     res="    -1.602580E-03" rms="0.0e-00"     purity="0.00000000E+00" nType="-99">
            </Node>
        </Node>
    </Node>
</BinaryTree>
<BinaryTree type="DecisionTree" boostWeight="0.0" itree="63">
    <Node pos="c" depth="1" NCoef="0"     IVar="0" Cut="     2.924170E+01" cType="1"     res="     0.000000E+00" rms="0.0"     purity="0.00000000E+00" nType="0">
        <Node pos="l" depth="2" NCoef="0"     IVar="4" Cut="     1.320830E+01" cType="1"     res="     0.000000E+00" rms="0.0"     purity="0.00000000E+00" nType="0">
            <Node pos="l" depth="3" NCoef="0"     IVar="-1" Cut="     0.000000E+00" cType="1"     res="    -1.158160E-02" rms="0.0e-00"     purity="0.00000000E+00" nType="-99">
            </Node>
            <Node pos="r" depth="3" NCoef="0"     IVar="-1" Cut="     0.000000E+00" cType="1"     res="     1.179610E-03" rms="0.0e-00"     purity="0.00000000E+00" nType="-99">
            </Node>
        </Node>
        <Node pos="r" depth="2" NCoef="0"     IVar="1" Cut="     8.625000E+00" cType="1"     res="     0.000000E+00" rms="0.0"     purity="0.00000000E+00" nType="0">
            <Node pos="l" depth="3" NCoef="0"     IVar="-1" Cut="     0.000000E+00" cType="1"     res="     1.137680E-02" rms="0.0e-00"     purity="0.00000000E+00" nType="-99">
            </Node>
            <Node pos="r" depth="3" NCoef="0"     IVar="-1" Cut="     0.000000E+00" cType="1"     res="    -6.357140E-03" rms="0.0e-00"     purity="0.00000000E+00" nType="-99">
            </Node>
        </Node>
    </Node>
</BinaryTree>
<BinaryTree type="DecisionTree" boostWeight="0.0" itree="64">
    <Node pos="c" depth="1" NCoef="0"     IVar="0" Cut="     2.924170E+01" cType="1"     res="     0.000000E+00" rms="0.0"     purity="0.00000000E+00" nType="0">
        <Node pos="l" depth="2" NCoef="0"     IVar="0" Cut="     1.399500E+01" cType="1"     res="     0.000000E+00" rms="0.0"     purity="0.00000000E+00" nType="0">
            <Node pos="l" depth="3" NCoef="0"     IVar="-1" Cut="     0.000000E+00" cType="1"     res="    -1.223360E-02" rms="0.0e-00"     purity="0.00000000E+00" nType="-99">
            </Node>
            <Node pos="r" depth="3" NCoef="0"     IVar="-1" Cut="     0.000000E+00" cType="1"     res="    -3.292490E-03" rms="0.0e-00"     purity="0.00000000E+00" nType="-99">
            </Node>
        </Node>
        <Node pos="r" depth="2" NCoef="0"     IVar="1" Cut="     2.875000E+00" cType="1"     res="     0.000000E+00" rms="0.0"     purity="0.00000000E+00" nType="0">
            <Node pos="l" depth="3" NCoef="0"     IVar="-1" Cut="     0.000000E+00" cType="1"     res="     1.256250E-02" rms="0.0e-00"     purity="0.00000000E+00" nType="-99">
            </Node>
            <Node pos="r" depth="3" NCoef="0"     IVar="-1" Cut="     0.000000E+00" cType="1"     res="    -5.840470E-04" rms="0.0e-00"     purity="0.00000000E+00" nType="-99">
            </Node>
        </Node>
    </Node>
</BinaryTree>
<BinaryTree type="DecisionTree" boostWeight="0.0" itree="65">
    <Node pos="c" depth="1" NCoef="0"     IVar="4" Cut="     1.627020E+01" cType="1"     res="     0.000000E+00" rms="0.0"     purity="0.00000000E+00" nType="0">
        <Node pos="l" depth="2" NCoef="0"     IVar="0" Cut="     1.774480E+01" cType="1"     res="     0.000000E+00" rms="0.0"     purity="0.00000000E+00" nType="0">
            <Node pos="l" depth="3" NCoef="0"     IVar="-1" Cut="     0.000000E+00" cType="1"     res="    -1.177650E-02" rms="0.0e-00"     purity="0.00000000E+00" nType="-99">
            </Node>
            <Node pos="r" depth="3" NCoef="0"     IVar="-1" Cut="     0.000000E+00" cType="1"     res="    -1.028470E-03" rms="0.0e-00"     purity="0.00000000E+00" nType="-99">
            </Node>
        </Node>
        <Node pos="r" depth="2" NCoef="0"     IVar="1" Cut="     8.625000E+00" cType="1"     res="     0.000000E+00" rms="0.0"     purity="0.00000000E+00" nType="0">
            <Node pos="l" depth="3" NCoef="0"     IVar="-1" Cut="     0.000000E+00" cType="1"     res="     1.151570E-02" rms="0.0e-00"     purity="0.00000000E+00" nType="-99">
            </Node>
            <Node pos="r" depth="3" NCoef="0"     IVar="-1" Cut="     0.000000E+00" cType="1"     res="    -5.511650E-03" rms="0.0e-00"     purity="0.00000000E+00" nType="-99">
            </Node>
        </Node>
    </Node>
</BinaryTree>
<BinaryTree type="DecisionTree" boostWeight="0.0" itree="66">
    <Node pos="c" depth="1" NCoef="0"     IVar="0" Cut="     2.924170E+01" cType="1"     res="     0.000000E+00" rms="0.0"     purity="0.00000000E+00" nType="0">
        <Node pos="l" depth="2" NCoef="0"     IVar="0" Cut="     1.399500E+01" cType="1"     res="     0.000000E+00" rms="0.0"     purity="0.00000000E+00" nType="0">
            <Node pos="l" depth="3" NCoef="0"     IVar="-1" Cut="     0.000000E+00" cType="1"     res="    -1.211960E-02" rms="0.0e-00"     purity="0.00000000E+00" nType="-99">
            </Node>
            <Node pos="r" depth="3" NCoef="0"     IVar="-1" Cut="     0.000000E+00" cType="1"     res="    -3.243540E-03" rms="0.0e-00"     purity="0.00000000E+00" nType="-99">
            </Node>
        </Node>
        <Node pos="r" depth="2" NCoef="0"     IVar="1" Cut="     2.875000E+00" cType="1"     res="     0.000000E+00" rms="0.0"     purity="0.00000000E+00" nType="0">
            <Node pos="l" depth="3" NCoef="0"     IVar="-1" Cut="     0.000000E+00" cType="1"     res="     1.245640E-02" rms="0.0e-00"     purity="0.00000000E+00" nType="-99">
            </Node>
            <Node pos="r" depth="3" NCoef="0"     IVar="-1" Cut="     0.000000E+00" cType="1"     res="    -6.091540E-04" rms="0.0e-00"     purity="0.00000000E+00" nType="-99">
            </Node>
        </Node>
    </Node>
</BinaryTree>
<BinaryTree type="DecisionTree" boostWeight="0.0" itree="67">
    <Node pos="c" depth="1" NCoef="0"     IVar="4" Cut="     1.627020E+01" cType="1"     res="     0.000000E+00" rms="0.0"     purity="0.00000000E+00" nType="0">
        <Node pos="l" depth="2" NCoef="0"     IVar="0" Cut="     1.774480E+01" cType="1"     res="     0.000000E+00" rms="0.0"     purity="0.00000000E+00" nType="0">
            <Node pos="l" depth="3" NCoef="0"     IVar="-1" Cut="     0.000000E+00" cType="1"     res="    -1.166150E-02" rms="0.0e-00"     purity="0.00000000E+00" nType="-99">
            </Node>
            <Node pos="r" depth="3" NCoef="0"     IVar="-1" Cut="     0.000000E+00" cType="1"     res="    -1.043060E-03" rms="0.0e-00"     purity="0.00000000E+00" nType="-99">
            </Node>
        </Node>
        <Node pos="r" depth="2" NCoef="0"     IVar="1" Cut="     8.625000E+00" cType="1"     res="     0.000000E+00" rms="0.0"     purity="0.00000000E+00" nType="0">
            <Node pos="l" depth="3" NCoef="0"     IVar="-1" Cut="     0.000000E+00" cType="1"     res="     1.140260E-02" rms="0.0e-00"     purity="0.00000000E+00" nType="-99">
            </Node>
            <Node pos="r" depth="3" NCoef="0"     IVar="-1" Cut="     0.000000E+00" cType="1"     res="    -5.453110E-03" rms="0.0e-00"     purity="0.00000000E+00" nType="-99">
            </Node>
        </Node>
    </Node>
</BinaryTree>
<BinaryTree type="DecisionTree" boostWeight="0.0" itree="68">
    <Node pos="c" depth="1" NCoef="0"     IVar="4" Cut="     1.627020E+01" cType="1"     res="     0.000000E+00" rms="0.0"     purity="0.00000000E+00" nType="0">
        <Node pos="l" depth="2" NCoef="0"     IVar="0" Cut="     1.774480E+01" cType="1"     res="     0.000000E+00" rms="0.0"     purity="0.00000000E+00" nType="0">
            <Node pos="l" depth="3" NCoef="0"     IVar="-1" Cut="     0.000000E+00" cType="1"     res="    -1.160370E-02" rms="0.0e-00"     purity="0.00000000E+00" nType="-99">
            </Node>
            <Node pos="r" depth="3" NCoef="0"     IVar="-1" Cut="     0.000000E+00" cType="1"     res="    -1.032560E-03" rms="0.0e-00"     purity="0.00000000E+00" nType="-99">
            </Node>
        </Node>
        <Node pos="r" depth="2" NCoef="0"     IVar="1" Cut="     8.625000E+00" cType="1"     res="     0.000000E+00" rms="0.0"     purity="0.00000000E+00" nType="0">
            <Node pos="l" depth="3" NCoef="0"     IVar="-1" Cut="     0.000000E+00" cType="1"     res="     1.133910E-02" rms="0.0e-00"     purity="0.00000000E+00" nType="-99">
            </Node>
            <Node pos="r" depth="3" NCoef="0"     IVar="-1" Cut="     0.000000E+00" cType="1"     res="    -5.401980E-03" rms="0.0e-00"     purity="0.00000000E+00" nType="-99">
            </Node>
        </Node>
