
        <?xml version="1.0"?>
        <MethodSetup Method="BDT::bdt">
        <GeneralInfo>
        <Info name="TMVA Release" value=""/>
        <Info name="ROOT Release" value=""/>
        <Info name="Creator" value="mlglue"/>
        <Info name="Date" value=""/>
        <Info name="Host" value=""/>
        <Info name="Dir" value=""/>
        <Info name="Training events" value="-1"/>
        <Info name="TrainingTime" value="-1"/>
        <Info name="AnalysisType" value="Classification"/>
        </GeneralInfo>
        <Options>
        <Option name="NTrees" modified="Yes">400</Option>
        <Option name="MaxDepth" modified="Yes">2</Option>
        <Option name="BoostType" modified="Yes">Grad</Option>
        <Option name="Shrinkage" modified="Yes">0.01</Option>
        <Option name="UseNvars" modified="Yes">6</Option>
        </Options>

        <Variables NVar="6">
        <Variable VarIndex="0" Expression="l1PFTauPhi" Label="l1PFTauPhi" Title="l1PFTauPhi" Unit="" Internal="l1PFTauPhi" Type="F" Min="0.0000000000000000000000000000000000000000000000000000000000000000E+00" Max="0.0000000000000000000000000000000000000000000000000000000000000000E+00"/>
<Variable VarIndex="1" Expression="l1PFTauIso" Label="l1PFTauIso" Title="l1PFTauIso" Unit="" Internal="l1PFTauIso" Type="F" Min="0.0000000000000000000000000000000000000000000000000000000000000000E+00" Max="0.0000000000000000000000000000000000000000000000000000000000000000E+00"/>
<Variable VarIndex="2" Expression="l1PFTauStripPt" Label="l1PFTauStripPt" Title="l1PFTauStripPt" Unit="" Internal="l1PFTauStripPt" Type="F" Min="0.0000000000000000000000000000000000000000000000000000000000000000E+00" Max="0.0000000000000000000000000000000000000000000000000000000000000000E+00"/>
<Variable VarIndex="3" Expression="l1PFTauLeadTrackPt" Label="l1PFTauLeadTrackPt" Title="l1PFTauLeadTrackPt" Unit="" Internal="l1PFTauLeadTrackPt" Type="F" Min="0.0000000000000000000000000000000000000000000000000000000000000000E+00" Max="0.0000000000000000000000000000000000000000000000000000000000000000E+00"/>
<Variable VarIndex="4" Expression="l1PFTaudz" Label="l1PFTaudz" Title="l1PFTaudz" Unit="" Internal="l1PFTaudz" Type="F" Min="0.0000000000000000000000000000000000000000000000000000000000000000E+00" Max="0.0000000000000000000000000000000000000000000000000000000000000000E+00"/>
<Variable VarIndex="5" Expression="l1PFTauSignalTrackMass" Label="l1PFTauSignalTrackMass" Title="l1PFTauSignalTrackMass" Unit="" Internal="l1PFTauSignalTrackMass" Type="F" Min="0.0000000000000000000000000000000000000000000000000000000000000000E+00" Max="0.0000000000000000000000000000000000000000000000000000000000000000E+00"/>

        </Variables>

        <Classes NClass="2">
        <Class Name="Background" Index="0"/>
<Class Name="Signal" Index="1"/>

        </Classes>

        <Targets NTrgt="0">
        
        </Targets>

        <Transformations NTransformations="0"/>
        <MVAPdfs/>
        <Weights NTrees="400" AnalysisType="1">
        <BinaryTree type="DecisionTree" boostWeight="0.0" itree="0">
    <Node pos="c" depth="1" NCoef="0"     IVar="3" Cut="     1.282790E+01" cType="1"     res="     0.000000E+00" rms="0.0"     purity="0.00000000E+00" nType="0">
        <Node pos="l" depth="2" NCoef="0"     IVar="2" Cut="     1.674320E+01" cType="1"     res="     0.000000E+00" rms="0.0"     purity="0.00000000E+00" nType="0">
            <Node pos="l" depth="3" NCoef="0"     IVar="-1" Cut="     0.000000E+00" cType="1"     res="    -1.780870E-02" rms="0.0e-00"     purity="0.00000000E+00" nType="-99">
            </Node>
            <Node pos="r" depth="3" NCoef="0"     IVar="-1" Cut="     0.000000E+00" cType="1"     res="     8.503310E-03" rms="0.0e-00"     purity="0.00000000E+00" nType="-99">
            </Node>
        </Node>
        <Node pos="r" depth="2" NCoef="0"     IVar="1" Cut="     4.375000E+00" cType="1"     res="     0.000000E+00" rms="0.0"     purity="0.00000000E+00" nType="0">
            <Node pos="l" depth="3" NCoef="0"     IVar="-1" Cut="     0.000000E+00" cType="1"     res="     1.763750E-02" rms="0.0e-00"     purity="0.00000000E+00" nType="-99">
            </Node>
            <Node pos="r" depth="3" NCoef="0"     IVar="-1" Cut="     0.000000E+00" cType="1"     res="    -3.508210E-03" rms="0.0e-00"     purity="0.00000000E+00" nType="-99">
            </Node>
        </Node>
    </Node>
</BinaryTree>
<BinaryTree type="DecisionTree" boostWeight="0.0" itree="1">
    <Node pos="c" depth="1" NCoef="0"     IVar="3" Cut="     1.282790E+01" cType="1"     res="     0.000000E+00" rms="0.0"     purity="0.00000000E+00" nType="0">
        <Node pos="l" depth="2" NCoef="0"     IVar="2" Cut="     1.674320E+01" cType="1"     res="     0.000000E+00" rms="0.0"     purity="0.00000000E+00" nType="0">
            <Node pos="l" depth="3" NCoef="0"     IVar="-1" Cut="     0.000000E+00" cType="1"     res="    -1.763200E-02" rms="0.0e-00"     purity="0.00000000E+00" nType="-99">
            </Node>
            <Node pos="r" depth="3" NCoef="0"     IVar="-1" Cut="     0.000000E+00" cType="1"     res="     8.418570E-03" rms="0.0e-00"     purity="0.00000000E+00" nType="-99">
            </Node>
        </Node>
        <Node pos="r" depth="2" NCoef="0"     IVar="1" Cut="     4.375000E+00" cType="1"     res="     0.000000E+00" rms="0.0"     purity="0.00000000E+00" nType="0">
            <Node pos="l" depth="3" NCoef="0"     IVar="-1" Cut="     0.000000E+00" cType="1"     res="     1.746250E-02" rms="0.0e-00"     purity="0.00000000E+00" nType="-99">
            </Node>
            <Node pos="r" depth="3" NCoef="0"     IVar="-1" Cut="     0.000000E+00" cType="1"     res="    -3.473150E-03" rms="0.0e-00"     purity="0.00000000E+00" nType="-99">
            </Node>
        </Node>
    </Node>
</BinaryTree>
<BinaryTree type="DecisionTree" boostWeight="0.0" itree="2">
    <Node pos="c" depth="1" NCoef="0"     IVar="3" Cut="     1.274160E+01" cType="1"     res="     0.000000E+00" rms="0.0"     purity="0.00000000E+00" nType="0">
        <Node pos="l" depth="2" NCoef="0"     IVar="2" Cut="     1.623890E+01" cType="1"     res="     0.000000E+00" rms="0.0"     purity="0.00000000E+00" nType="0">
            <Node pos="l" depth="3" NCoef="0"     IVar="-1" Cut="     0.000000E+00" cType="1"     res="    -1.749750E-02" rms="0.0e-00"     purity="0.00000000E+00" nType="-99">
            </Node>
            <Node pos="r" depth="3" NCoef="0"     IVar="-1" Cut="     0.000000E+00" cType="1"     res="     7.978500E-03" rms="0.0e-00"     purity="0.00000000E+00" nType="-99">
            </Node>
        </Node>
        <Node pos="r" depth="2" NCoef="0"     IVar="1" Cut="     4.375000E+00" cType="1"     res="     0.000000E+00" rms="0.0"     purity="0.00000000E+00" nType="0">
            <Node pos="l" depth="3" NCoef="0"     IVar="-1" Cut="     0.000000E+00" cType="1"     res="     1.727030E-02" rms="0.0e-00"     purity="0.00000000E+00" nType="-99">
            </Node>
            <Node pos="r" depth="3" NCoef="0"     IVar="-1" Cut="     0.000000E+00" cType="1"     res="    -3.476110E-03" rms="0.0e-00"     purity="0.00000000E+00" nType="-99">
            </Node>
        </Node>
    </Node>
</BinaryTree>
<BinaryTree type="DecisionTree" boostWeight="0.0" itree="3">
    <Node pos="c" depth="1" NCoef="0"     IVar="3" Cut="     1.282790E+01" cType="1"     res="     0.000000E+00" rms="0.0"     purity="0.00000000E+00" nType="0">
        <Node pos="l" depth="2" NCoef="0"     IVar="2" Cut="     1.674320E+01" cType="1"     res="     0.000000E+00" rms="0.0"     purity="0.00000000E+00" nType="0">
            <Node pos="l" depth="3" NCoef="0"     IVar="-1" Cut="     0.000000E+00" cType="1"     res="    -1.729240E-02" rms="0.0e-00"     purity="0.00000000E+00" nType="-99">
            </Node>
            <Node pos="r" depth="3" NCoef="0"     IVar="-1" Cut="     0.000000E+00" cType="1"     res="     8.255230E-03" rms="0.0e-00"     purity="0.00000000E+00" nType="-99">
            </Node>
        </Node>
        <Node pos="r" depth="2" NCoef="0"     IVar="1" Cut="     4.375000E+00" cType="1"     res="     0.000000E+00" rms="0.0"     purity="0.00000000E+00" nType="0">
            <Node pos="l" depth="3" NCoef="0"     IVar="-1" Cut="     0.000000E+00" cType="1"     res="     1.712570E-02" rms="0.0e-00"     purity="0.00000000E+00" nType="-99">
            </Node>
            <Node pos="r" depth="3" NCoef="0"     IVar="-1" Cut="     0.000000E+00" cType="1"     res="    -3.403770E-03" rms="0.0e-00"     purity="0.00000000E+00" nType="-99">
            </Node>
        </Node>
    </Node>
</BinaryTree>
<BinaryTree type="DecisionTree" boostWeight="0.0" itree="4">
    <Node pos="c" depth="1" NCoef="0"     IVar="3" Cut="     1.370130E+01" cType="1"     res="     0.000000E+00" rms="0.0"     purity="0.00000000E+00" nType="0">
        <Node pos="l" depth="2" NCoef="0"     IVar="2" Cut="     1.574950E+01" cType="1"     res="     0.000000E+00" rms="0.0"     purity="0.00000000E+00" nType="0">
            <Node pos="l" depth="3" NCoef="0"     IVar="-1" Cut="     0.000000E+00" cType="1"     res="    -1.699200E-02" rms="0.0e-00"     purity="0.00000000E+00" nType="-99">
            </Node>
            <Node pos="r" depth="3" NCoef="0"     IVar="-1" Cut="     0.000000E+00" cType="1"     res="     7.449700E-03" rms="0.0e-00"     purity="0.00000000E+00" nType="-99">
            </Node>
        </Node>
        <Node pos="r" depth="2" NCoef="0"     IVar="1" Cut="     4.375000E+00" cType="1"     res="     0.000000E+00" rms="0.0"     purity="0.00000000E+00" nType="0">
            <Node pos="l" depth="3" NCoef="0"     IVar="-1" Cut="     0.000000E+00" cType="1"     res="     1.716740E-02" rms="0.0e-00"     purity="0.00000000E+00" nType="-99">
            </Node>
            <Node pos="r" depth="3" NCoef="0"     IVar="-1" Cut="     0.000000E+00" cType="1"     res="    -2.872670E-03" rms="0.0e-00"     purity="0.00000000E+00" nType="-99">
            </Node>
        </Node>
    </Node>
</BinaryTree>
<BinaryTree type="DecisionTree" boostWeight="0.0" itree="5">
    <Node pos="c" depth="1" NCoef="0"     IVar="3" Cut="     1.360170E+01" cType="1"     res="     0.000000E+00" rms="0.0"     purity="0.00000000E+00" nType="0">
        <Node pos="l" depth="2" NCoef="0"     IVar="2" Cut="     1.674320E+01" cType="1"     res="     0.000000E+00" rms="0.0"     purity="0.00000000E+00" nType="0">
            <Node pos="l" depth="3" NCoef="0"     IVar="-1" Cut="     0.000000E+00" cType="1"     res="    -1.682530E-02" rms="0.0e-00"     purity="0.00000000E+00" nType="-99">
            </Node>
            <Node pos="r" depth="3" NCoef="0"     IVar="-1" Cut="     0.000000E+00" cType="1"     res="     7.870060E-03" rms="0.0e-00"     purity="0.00000000E+00" nType="-99">
            </Node>
        </Node>
        <Node pos="r" depth="2" NCoef="0"     IVar="1" Cut="     4.375000E+00" cType="1"     res="     0.000000E+00" rms="0.0"     purity="0.00000000E+00" nType="0">
            <Node pos="l" depth="3" NCoef="0"     IVar="-1" Cut="     0.000000E+00" cType="1"     res="     1.699100E-02" rms="0.0e-00"     purity="0.00000000E+00" nType="-99">
            </Node>
            <Node pos="r" depth="3" NCoef="0"     IVar="-1" Cut="     0.000000E+00" cType="1"     res="    -2.888820E-03" rms="0.0e-00"     purity="0.00000000E+00" nType="-99">
            </Node>
        </Node>
    </Node>
</BinaryTree>
<BinaryTree type="DecisionTree" boostWeight="0.0" itree="6">
    <Node pos="c" depth="1" NCoef="0"     IVar="3" Cut="     1.274160E+01" cType="1"     res="     0.000000E+00" rms="0.0"     purity="0.00000000E+00" nType="0">
        <Node pos="l" depth="2" NCoef="0"     IVar="2" Cut="     1.623890E+01" cType="1"     res="     0.000000E+00" rms="0.0"     purity="0.00000000E+00" nType="0">
            <Node pos="l" depth="3" NCoef="0"     IVar="-1" Cut="     0.000000E+00" cType="1"     res="    -1.685270E-02" rms="0.0e-00"     purity="0.00000000E+00" nType="-99">
            </Node>
            <Node pos="r" depth="3" NCoef="0"     IVar="-1" Cut="     0.000000E+00" cType="1"     res="     7.679300E-03" rms="0.0e-00"     purity="0.00000000E+00" nType="-99">
            </Node>
        </Node>
        <Node pos="r" depth="2" NCoef="0"     IVar="1" Cut="     4.375000E+00" cType="1"     res="     0.000000E+00" rms="0.0"     purity="0.00000000E+00" nType="0">
            <Node pos="l" depth="3" NCoef="0"     IVar="-1" Cut="     0.000000E+00" cType="1"     res="     1.663380E-02" rms="0.0e-00"     purity="0.00000000E+00" nType="-99">
            </Node>
            <Node pos="r" depth="3" NCoef="0"     IVar="-1" Cut="     0.000000E+00" cType="1"     res="    -3.346230E-03" rms="0.0e-00"     purity="0.00000000E+00" nType="-99">
            </Node>
        </Node>
    </Node>
</BinaryTree>
<BinaryTree type="DecisionTree" boostWeight="0.0" itree="7">
    <Node pos="c" depth="1" NCoef="0"     IVar="3" Cut="     1.421540E+01" cType="1"     res="     0.000000E+00" rms="0.0"     purity="0.00000000E+00" nType="0">
        <Node pos="l" depth="2" NCoef="0"     IVar="2" Cut="     1.524580E+01" cType="1"     res="     0.000000E+00" rms="0.0"     purity="0.00000000E+00" nType="0">
            <Node pos="l" depth="3" NCoef="0"     IVar="-1" Cut="     0.000000E+00" cType="1"     res="    -1.646530E-02" rms="0.0e-00"     purity="0.00000000E+00" nType="-99">
            </Node>
            <Node pos="r" depth="3" NCoef="0"     IVar="-1" Cut="     0.000000E+00" cType="1"     res="     7.056480E-03" rms="0.0e-00"     purity="0.00000000E+00" nType="-99">
            </Node>
        </Node>
        <Node pos="r" depth="2" NCoef="0"     IVar="1" Cut="     4.375000E+00" cType="1"     res="     0.000000E+00" rms="0.0"     purity="0.00000000E+00" nType="0">
            <Node pos="l" depth="3" NCoef="0"     IVar="-1" Cut="     0.000000E+00" cType="1"     res="     1.683170E-02" rms="0.0e-00"     purity="0.00000000E+00" nType="-99">
            </Node>
            <Node pos="r" depth="3" NCoef="0"     IVar="-1" Cut="     0.000000E+00" cType="1"     res="    -2.569310E-03" rms="0.0e-00"     purity="0.00000000E+00" nType="-99">
            </Node>
        </Node>
    </Node>
</BinaryTree>
<BinaryTree type="DecisionTree" boostWeight="0.0" itree="8">
    <Node pos="c" depth="1" NCoef="0"     IVar="3" Cut="     1.421540E+01" cType="1"     res="     0.000000E+00" rms="0.0"     purity="0.00000000E+00" nType="0">
        <Node pos="l" depth="2" NCoef="0"     IVar="2" Cut="     1.623890E+01" cType="1"     res="     0.000000E+00" rms="0.0"     purity="0.00000000E+00" nType="0">
            <Node pos="l" depth="3" NCoef="0"     IVar="-1" Cut="     0.000000E+00" cType="1"     res="    -1.628480E-02" rms="0.0e-00"     purity="0.00000000E+00" nType="-99">
            </Node>
            <Node pos="r" depth="3" NCoef="0"     IVar="-1" Cut="     0.000000E+00" cType="1"     res="     7.426620E-03" rms="0.0e-00"     purity="0.00000000E+00" nType="-99">
            </Node>
        </Node>
        <Node pos="r" depth="2" NCoef="0"     IVar="1" Cut="     4.375000E+00" cType="1"     res="     0.000000E+00" rms="0.0"     purity="0.00000000E+00" nType="0">
            <Node pos="l" depth="3" NCoef="0"     IVar="-1" Cut="     0.000000E+00" cType="1"     res="     1.668160E-02" rms="0.0e-00"     purity="0.00000000E+00" nType="-99">
            </Node>
            <Node pos="r" depth="3" NCoef="0"     IVar="-1" Cut="     0.000000E+00" cType="1"     res="    -2.543710E-03" rms="0.0e-00"     purity="0.00000000E+00" nType="-99">
            </Node>
        </Node>
    </Node>
</BinaryTree>
<BinaryTree type="DecisionTree" boostWeight="0.0" itree="9">
    <Node pos="c" depth="1" NCoef="0"     IVar="3" Cut="     1.274160E+01" cType="1"     res="     0.000000E+00" rms="0.0"     purity="0.00000000E+00" nType="0">
        <Node pos="l" depth="2" NCoef="0"     IVar="2" Cut="     1.674320E+01" cType="1"     res="     0.000000E+00" rms="0.0"     purity="0.00000000E+00" nType="0">
            <Node pos="l" depth="3" NCoef="0"     IVar="-1" Cut="     0.000000E+00" cType="1"     res="    -1.639400E-02" rms="0.0e-00"     purity="0.00000000E+00" nType="-99">
            </Node>
            <Node pos="r" depth="3" NCoef="0"     IVar="-1" Cut="     0.000000E+00" cType="1"     res="     7.756480E-03" rms="0.0e-00"     purity="0.00000000E+00" nType="-99">
            </Node>
        </Node>
        <Node pos="r" depth="2" NCoef="0"     IVar="1" Cut="     4.375000E+00" cType="1"     res="     0.000000E+00" rms="0.0"     purity="0.00000000E+00" nType="0">
            <Node pos="l" depth="3" NCoef="0"     IVar="-1" Cut="     0.000000E+00" cType="1"     res="     1.619770E-02" rms="0.0e-00"     purity="0.00000000E+00" nType="-99">
            </Node>
            <Node pos="r" depth="3" NCoef="0"     IVar="-1" Cut="     0.000000E+00" cType="1"     res="    -3.255800E-03" rms="0.0e-00"     purity="0.00000000E+00" nType="-99">
            </Node>
        </Node>
    </Node>
</BinaryTree>
<BinaryTree type="DecisionTree" boostWeight="0.0" itree="10">
    <Node pos="c" depth="1" NCoef="0"     IVar="3" Cut="     1.421540E+01" cType="1"     res="     0.000000E+00" rms="0.0"     purity="0.00000000E+00" nType="0">
        <Node pos="l" depth="2" NCoef="0"     IVar="2" Cut="     1.524580E+01" cType="1"     res="     0.000000E+00" rms="0.0"     purity="0.00000000E+00" nType="0">
            <Node pos="l" depth="3" NCoef="0"     IVar="-1" Cut="     0.000000E+00" cType="1"     res="    -1.603710E-02" rms="0.0e-00"     purity="0.00000000E+00" nType="-99">
            </Node>
            <Node pos="r" depth="3" NCoef="0"     IVar="-1" Cut="     0.000000E+00" cType="1"     res="     6.853790E-03" rms="0.0e-00"     purity="0.00000000E+00" nType="-99">
            </Node>
        </Node>
        <Node pos="r" depth="2" NCoef="0"     IVar="1" Cut="     4.375000E+00" cType="1"     res="     0.000000E+00" rms="0.0"     purity="0.00000000E+00" nType="0">
            <Node pos="l" depth="3" NCoef="0"     IVar="-1" Cut="     0.000000E+00" cType="1"     res="     1.639450E-02" rms="0.0e-00"     purity="0.00000000E+00" nType="-99">
            </Node>
            <Node pos="r" depth="3" NCoef="0"     IVar="-1" Cut="     0.000000E+00" cType="1"     res="    -2.485940E-03" rms="0.0e-00"     purity="0.00000000E+00" nType="-99">
            </Node>
        </Node>
    </Node>
</BinaryTree>
<BinaryTree type="DecisionTree" boostWeight="0.0" itree="11">
    <Node pos="c" depth="1" NCoef="0"     IVar="3" Cut="     1.421540E+01" cType="1"     res="     0.000000E+00" rms="0.0"     purity="0.00000000E+00" nType="0">
        <Node pos="l" depth="2" NCoef="0"     IVar="2" Cut="     1.524580E+01" cType="1"     res="     0.000000E+00" rms="0.0"     purity="0.00000000E+00" nType="0">
            <Node pos="l" depth="3" NCoef="0"     IVar="-1" Cut="     0.000000E+00" cType="1"     res="    -1.589890E-02" rms="0.0e-00"     purity="0.00000000E+00" nType="-99">
            </Node>
            <Node pos="r" depth="3" NCoef="0"     IVar="-1" Cut="     0.000000E+00" cType="1"     res="     6.787150E-03" rms="0.0e-00"     purity="0.00000000E+00" nType="-99">
            </Node>
        </Node>
        <Node pos="r" depth="2" NCoef="0"     IVar="1" Cut="     4.375000E+00" cType="1"     res="     0.000000E+00" rms="0.0"     purity="0.00000000E+00" nType="0">
            <Node pos="l" depth="3" NCoef="0"     IVar="-1" Cut="     0.000000E+00" cType="1"     res="     1.625430E-02" rms="0.0e-00"     purity="0.00000000E+00" nType="-99">
            </Node>
            <Node pos="r" depth="3" NCoef="0"     IVar="-1" Cut="     0.000000E+00" cType="1"     res="    -2.461190E-03" rms="0.0e-00"     purity="0.00000000E+00" nType="-99">
            </Node>
        </Node>
    </Node>
</BinaryTree>
<BinaryTree type="DecisionTree" boostWeight="0.0" itree="12">
    <Node pos="c" depth="1" NCoef="0"     IVar="3" Cut="     1.274160E+01" cType="1"     res="     0.000000E+00" rms="0.0"     purity="0.00000000E+00" nType="0">
        <Node pos="l" depth="2" NCoef="0"     IVar="2" Cut="     1.674320E+01" cType="1"     res="     0.000000E+00" rms="0.0"     purity="0.00000000E+00" nType="0">
            <Node pos="l" depth="3" NCoef="0"     IVar="-1" Cut="     0.000000E+00" cType="1"     res="    -1.598160E-02" rms="0.0e-00"     purity="0.00000000E+00" nType="-99">
            </Node>
            <Node pos="r" depth="3" NCoef="0"     IVar="-1" Cut="     0.000000E+00" cType="1"     res="     7.549490E-03" rms="0.0e-00"     purity="0.00000000E+00" nType="-99">
            </Node>
        </Node>
        <Node pos="r" depth="2" NCoef="0"     IVar="1" Cut="     4.375000E+00" cType="1"     res="     0.000000E+00" rms="0.0"     purity="0.00000000E+00" nType="0">
            <Node pos="l" depth="3" NCoef="0"     IVar="-1" Cut="     0.000000E+00" cType="1"     res="     1.579050E-02" rms="0.0e-00"     purity="0.00000000E+00" nType="-99">
            </Node>
            <Node pos="r" depth="3" NCoef="0"     IVar="-1" Cut="     0.000000E+00" cType="1"     res="    -3.168270E-03" rms="0.0e-00"     purity="0.00000000E+00" nType="-99">
            </Node>
        </Node>
    </Node>
</BinaryTree>
<BinaryTree type="DecisionTree" boostWeight="0.0" itree="13">
    <Node pos="c" depth="1" NCoef="0"     IVar="3" Cut="     1.422490E+01" cType="1"     res="     0.000000E+00" rms="0.0"     purity="0.00000000E+00" nType="0">
        <Node pos="l" depth="2" NCoef="0"     IVar="2" Cut="     1.524580E+01" cType="1"     res="     0.000000E+00" rms="0.0"     purity="0.00000000E+00" nType="0">
            <Node pos="l" depth="3" NCoef="0"     IVar="-1" Cut="     0.000000E+00" cType="1"     res="    -1.563340E-02" rms="0.0e-00"     purity="0.00000000E+00" nType="-99">
            </Node>
            <Node pos="r" depth="3" NCoef="0"     IVar="-1" Cut="     0.000000E+00" cType="1"     res="     6.655560E-03" rms="0.0e-00"     purity="0.00000000E+00" nType="-99">
            </Node>
        </Node>
        <Node pos="r" depth="2" NCoef="0"     IVar="1" Cut="     7.375000E+00" cType="1"     res="     0.000000E+00" rms="0.0"     purity="0.00000000E+00" nType="0">
            <Node pos="l" depth="3" NCoef="0"     IVar="-1" Cut="     0.000000E+00" cType="1"     res="     1.534110E-02" rms="0.0e-00"     purity="0.00000000E+00" nType="-99">
            </Node>
            <Node pos="r" depth="3" NCoef="0"     IVar="-1" Cut="     0.000000E+00" cType="1"     res="    -6.347070E-03" rms="0.0e-00"     purity="0.00000000E+00" nType="-99">
            </Node>
        </Node>
    </Node>
</BinaryTree>
<BinaryTree type="DecisionTree" boostWeight="0.0" itree="14">
    <Node pos="c" depth="1" NCoef="0"     IVar="3" Cut="     1.421540E+01" cType="1"     res="     0.000000E+00" rms="0.0"     purity="0.00000000E+00" nType="0">
        <Node pos="l" depth="2" NCoef="0"     IVar="2" Cut="     1.623890E+01" cType="1"     res="     0.000000E+00" rms="0.0"     purity="0.00000000E+00" nType="0">
            <Node pos="l" depth="3" NCoef="0"     IVar="-1" Cut="     0.000000E+00" cType="1"     res="    -1.547520E-02" rms="0.0e-00"     purity="0.00000000E+00" nType="-99">
            </Node>
            <Node pos="r" depth="3" NCoef="0"     IVar="-1" Cut="     0.000000E+00" cType="1"     res="     7.006360E-03" rms="0.0e-00"     purity="0.00000000E+00" nType="-99">
            </Node>
        </Node>
        <Node pos="r" depth="2" NCoef="0"     IVar="1" Cut="     4.375000E+00" cType="1"     res="     0.000000E+00" rms="0.0"     purity="0.00000000E+00" nType="0">
            <Node pos="l" depth="3" NCoef="0"     IVar="-1" Cut="     0.000000E+00" cType="1"     res="     1.586010E-02" rms="0.0e-00"     purity="0.00000000E+00" nType="-99">
            </Node>
            <Node pos="r" depth="3" NCoef="0"     IVar="-1" Cut="     0.000000E+00" cType="1"     res="    -2.411990E-03" rms="0.0e-00"     purity="0.00000000E+00" nType="-99">
            </Node>
        </Node>
    </Node>
</BinaryTree>
<BinaryTree type="DecisionTree" boostWeight="0.0" itree="15">
    <Node pos="c" depth="1" NCoef="0"     IVar="3" Cut="     1.274160E+01" cType="1"     res="     0.000000E+00" rms="0.0"     purity="0.00000000E+00" nType="0">
        <Node pos="l" depth="2" NCoef="0"     IVar="2" Cut="     1.674320E+01" cType="1"     res="     0.000000E+00" rms="0.0"     purity="0.00000000E+00" nType="0">
            <Node pos="l" depth="3" NCoef="0"     IVar="-1" Cut="     0.000000E+00" cType="1"     res="    -1.559510E-02" rms="0.0e-00"     purity="0.00000000E+00" nType="-99">
            </Node>
            <Node pos="r" depth="3" NCoef="0"     IVar="-1" Cut="     0.000000E+00" cType="1"     res="     7.345810E-03" rms="0.0e-00"     purity="0.00000000E+00" nType="-99">
            </Node>
        </Node>
        <Node pos="r" depth="2" NCoef="0"     IVar="1" Cut="     4.375000E+00" cType="1"     res="     0.000000E+00" rms="0.0"     purity="0.00000000E+00" nType="0">
            <Node pos="l" depth="3" NCoef="0"     IVar="-1" Cut="     0.000000E+00" cType="1"     res="     1.541420E-02" rms="0.0e-00"     purity="0.00000000E+00" nType="-99">
            </Node>
            <Node pos="r" depth="3" NCoef="0"     IVar="-1" Cut="     0.000000E+00" cType="1"     res="    -3.112070E-03" rms="0.0e-00"     purity="0.00000000E+00" nType="-99">
            </Node>
        </Node>
    </Node>
</BinaryTree>
<BinaryTree type="DecisionTree" boostWeight="0.0" itree="16">
    <Node pos="c" depth="1" NCoef="0"     IVar="3" Cut="     1.422490E+01" cType="1"     res="     0.000000E+00" rms="0.0"     purity="0.00000000E+00" nType="0">
        <Node pos="l" depth="2" NCoef="0"     IVar="2" Cut="     1.524580E+01" cType="1"     res="     0.000000E+00" rms="0.0"     purity="0.00000000E+00" nType="0">
            <Node pos="l" depth="3" NCoef="0"     IVar="-1" Cut="     0.000000E+00" cType="1"     res="    -1.525760E-02" rms="0.0e-00"     purity="0.00000000E+00" nType="-99">
            </Node>
            <Node pos="r" depth="3" NCoef="0"     IVar="-1" Cut="     0.000000E+00" cType="1"     res="     6.466880E-03" rms="0.0e-00"     purity="0.00000000E+00" nType="-99">
            </Node>
        </Node>
        <Node pos="r" depth="2" NCoef="0"     IVar="1" Cut="     8.625000E+00" cType="1"     res="     0.000000E+00" rms="0.0"     purity="0.00000000E+00" nType="0">
            <Node pos="l" depth="3" NCoef="0"     IVar="-1" Cut="     0.000000E+00" cType="1"     res="     1.479560E-02" rms="0.0e-00"     purity="0.00000000E+00" nType="-99">
            </Node>
            <Node pos="r" depth="3" NCoef="0"     IVar="-1" Cut="     0.000000E+00" cType="1"     res="    -7.737120E-03" rms="0.0e-00"     purity="0.00000000E+00" nType="-99">
            </Node>
        </Node>
    </Node>
</BinaryTree>
<BinaryTree type="DecisionTree" boostWeight="0.0" itree="17">
    <Node pos="c" depth="1" NCoef="0"     IVar="3" Cut="     1.360170E+01" cType="1"     res="     0.000000E+00" rms="0.0"     purity="0.00000000E+00" nType="0">
        <Node pos="l" depth="2" NCoef="0"     IVar="2" Cut="     1.674390E+01" cType="1"     res="     0.000000E+00" rms="0.0"     purity="0.00000000E+00" nType="0">
            <Node pos="l" depth="3" NCoef="0"     IVar="-1" Cut="     0.000000E+00" cType="1"     res="    -1.519500E-02" rms="0.0e-00"     purity="0.00000000E+00" nType="-99">
            </Node>
            <Node pos="r" depth="3" NCoef="0"     IVar="-1" Cut="     0.000000E+00" cType="1"     res="     7.024040E-03" rms="0.0e-00"     purity="0.00000000E+00" nType="-99">
            </Node>
        </Node>
        <Node pos="r" depth="2" NCoef="0"     IVar="1" Cut="     4.375000E+00" cType="1"     res="     0.000000E+00" rms="0.0"     purity="0.00000000E+00" nType="0">
            <Node pos="l" depth="3" NCoef="0"     IVar="-1" Cut="     0.000000E+00" cType="1"     res="     1.535790E-02" rms="0.0e-00"     purity="0.00000000E+00" nType="-99">
            </Node>
            <Node pos="r" depth="3" NCoef="0"     IVar="-1" Cut="     0.000000E+00" cType="1"     res="    -2.617860E-03" rms="0.0e-00"     purity="0.00000000E+00" nType="-99">
            </Node>
        </Node>
    </Node>
</BinaryTree>
<BinaryTree type="DecisionTree" boostWeight="0.0" itree="18">
    <Node pos="c" depth="1" NCoef="0"     IVar="3" Cut="     1.422490E+01" cType="1"     res="     0.000000E+00" rms="0.0"     purity="0.00000000E+00" nType="0">
        <Node pos="l" depth="2" NCoef="0"     IVar="2" Cut="     1.524580E+01" cType="1"     res="     0.000000E+00" rms="0.0"     purity="0.00000000E+00" nType="0">
            <Node pos="l" depth="3" NCoef="0"     IVar="-1" Cut="     0.000000E+00" cType="1"     res="    -1.501840E-02" rms="0.0e-00"     purity="0.00000000E+00" nType="-99">
            </Node>
            <Node pos="r" depth="3" NCoef="0"     IVar="-1" Cut="     0.000000E+00" cType="1"     res="     6.346460E-03" rms="0.0e-00"     purity="0.00000000E+00" nType="-99">
            </Node>
        </Node>
        <Node pos="r" depth="2" NCoef="0"     IVar="1" Cut="     8.625000E+00" cType="1"     res="     0.000000E+00" rms="0.0"     purity="0.00000000E+00" nType="0">
            <Node pos="l" depth="3" NCoef="0"     IVar="-1" Cut="     0.000000E+00" cType="1"     res="     1.456500E-02" rms="0.0e-00"     purity="0.00000000E+00" nType="-99">
            </Node>
            <Node pos="r" depth="3" NCoef="0"     IVar="-1" Cut="     0.000000E+00" cType="1"     res="    -7.635890E-03" rms="0.0e-00"     purity="0.00000000E+00" nType="-99">
            </Node>
        </Node>
    </Node>
</BinaryTree>
<BinaryTree type="DecisionTree" boostWeight="0.0" itree="19">
    <Node pos="c" depth="1" NCoef="0"     IVar="3" Cut="     1.274160E+01" cType="1"     res="     0.000000E+00" rms="0.0"     purity="0.00000000E+00" nType="0">
        <Node pos="l" depth="2" NCoef="0"     IVar="2" Cut="     1.674390E+01" cType="1"     res="     0.000000E+00" rms="0.0"     purity="0.00000000E+00" nType="0">
            <Node pos="l" depth="3" NCoef="0"     IVar="-1" Cut="     0.000000E+00" cType="1"     res="    -1.511550E-02" rms="0.0e-00"     purity="0.00000000E+00" nType="-99">
            </Node>
            <Node pos="r" depth="3" NCoef="0"     IVar="-1" Cut="     0.000000E+00" cType="1"     res="     7.092430E-03" rms="0.0e-00"     purity="0.00000000E+00" nType="-99">
            </Node>
        </Node>
        <Node pos="r" depth="2" NCoef="0"     IVar="1" Cut="     2.875000E+00" cType="1"     res="     0.000000E+00" rms="0.0"     purity="0.00000000E+00" nType="0">
            <Node pos="l" depth="3" NCoef="0"     IVar="-1" Cut="     0.000000E+00" cType="1"     res="     1.551190E-02" rms="0.0e-00"     purity="0.00000000E+00" nType="-99">
            </Node>
            <Node pos="r" depth="3" NCoef="0"     IVar="-1" Cut="     0.000000E+00" cType="1"     res="    -9.353230E-04" rms="0.0e-00"     purity="0.00000000E+00" nType="-99">
            </Node>
        </Node>
    </Node>
</BinaryTree>
<BinaryTree type="DecisionTree" boostWeight="0.0" itree="20">
    <Node pos="c" depth="1" NCoef="0"     IVar="3" Cut="     1.578140E+01" cType="1"     res="     0.000000E+00" rms="0.0"     purity="0.00000000E+00" nType="0">
        <Node pos="l" depth="2" NCoef="0"     IVar="2" Cut="     1.324930E+01" cType="1"     res="     0.000000E+00" rms="0.0"     purity="0.00000000E+00" nType="0">
            <Node pos="l" depth="3" NCoef="0"     IVar="-1" Cut="     0.000000E+00" cType="1"     res="    -1.466280E-02" rms="0.0e-00"     purity="0.00000000E+00" nType="-99">
            </Node>
            <Node pos="r" depth="3" NCoef="0"     IVar="-1" Cut="     0.000000E+00" cType="1"     res="     5.035300E-03" rms="0.0e-00"     purity="0.00000000E+00" nType="-99">
            </Node>
        </Node>
        <Node pos="r" depth="2" NCoef="0"     IVar="1" Cut="     8.625000E+00" cType="1"     res="     0.000000E+00" rms="0.0"     purity="0.00000000E+00" nType="0">
            <Node pos="l" depth="3" NCoef="0"     IVar="-1" Cut="     0.000000E+00" cType="1"     res="     1.467370E-02" rms="0.0e-00"     purity="0.00000000E+00" nType="-99">
            </Node>
            <Node pos="r" depth="3" NCoef="0"     IVar="-1" Cut="     0.000000E+00" cType="1"     res="    -7.070940E-03" rms="0.0e-00"     purity="0.00000000E+00" nType="-99">
            </Node>
        </Node>
    </Node>
</BinaryTree>
<BinaryTree type="DecisionTree" boostWeight="0.0" itree="21">
    <Node pos="c" depth="1" NCoef="0"     IVar="3" Cut="     1.274160E+01" cType="1"     res="     0.000000E+00" rms="0.0"     purity="0.00000000E+00" nType="0">
        <Node pos="l" depth="2" NCoef="0"     IVar="2" Cut="     2.049970E+01" cType="1"     res="     0.000000E+00" rms="0.0"     purity="0.00000000E+00" nType="0">
            <Node pos="l" depth="3" NCoef="0"     IVar="-1" Cut="     0.000000E+00" cType="1"     res="    -1.480480E-02" rms="0.0e-00"     purity="0.00000000E+00" nType="-99">
            </Node>
            <Node pos="r" depth="3" NCoef="0"     IVar="-1" Cut="     0.000000E+00" cType="1"     res="     8.612300E-03" rms="0.0e-00"     purity="0.00000000E+00" nType="-99">
            </Node>
        </Node>
        <Node pos="r" depth="2" NCoef="0"     IVar="1" Cut="     2.875000E+00" cType="1"     res="     0.000000E+00" rms="0.0"     purity="0.00000000E+00" nType="0">
            <Node pos="l" depth="3" NCoef="0"     IVar="-1" Cut="     0.000000E+00" cType="1"     res="     1.529240E-02" rms="0.0e-00"     purity="0.00000000E+00" nType="-99">
            </Node>
            <Node pos="r" depth="3" NCoef="0"     IVar="-1" Cut="     0.000000E+00" cType="1"     res="    -9.612410E-04" rms="0.0e-00"     purity="0.00000000E+00" nType="-99">
            </Node>
        </Node>
    </Node>
</BinaryTree>
<BinaryTree type="DecisionTree" boostWeight="0.0" itree="22">
    <Node pos="c" depth="1" NCoef="0"     IVar="3" Cut="     1.578140E+01" cType="1"     res="     0.000000E+00" rms="0.0"     purity="0.00000000E+00" nType="0">
        <Node pos="l" depth="2" NCoef="0"     IVar="2" Cut="     1.324930E+01" cType="1"     res="     0.000000E+00" rms="0.0"     purity="0.00000000E+00" nType="0">
            <Node pos="l" depth="3" NCoef="0"     IVar="-1" Cut="     0.000000E+00" cType="1"     res="    -1.444760E-02" rms="0.0e-00"     purity="0.00000000E+00" nType="-99">
            </Node>
            <Node pos="r" depth="3" NCoef="0"     IVar="-1" Cut="     0.000000E+00" cType="1"     res="     4.941990E-03" rms="0.0e-00"     purity="0.00000000E+00" nType="-99">
            </Node>
        </Node>
        <Node pos="r" depth="2" NCoef="0"     IVar="1" Cut="     8.625000E+00" cType="1"     res="     0.000000E+00" rms="0.0"     purity="0.00000000E+00" nType="0">
            <Node pos="l" depth="3" NCoef="0"     IVar="-1" Cut="     0.000000E+00" cType="1"     res="     1.446110E-02" rms="0.0e-00"     purity="0.00000000E+00" nType="-99">
            </Node>
            <Node pos="r" depth="3" NCoef="0"     IVar="-1" Cut="     0.000000E+00" cType="1"     res="    -6.992770E-03" rms="0.0e-00"     purity="0.00000000E+00" nType="-99">
            </Node>
        </Node>
    </Node>
</BinaryTree>
<BinaryTree type="DecisionTree" boostWeight="0.0" itree="23">
    <Node pos="c" depth="1" NCoef="0"     IVar="3" Cut="     1.578140E+01" cType="1"     res="     0.000000E+00" rms="0.0"     purity="0.00000000E+00" nType="0">
        <Node pos="l" depth="2" NCoef="0"     IVar="2" Cut="     1.324680E+01" cType="1"     res="     0.000000E+00" rms="0.0"     purity="0.00000000E+00" nType="0">
            <Node pos="l" depth="3" NCoef="0"     IVar="-1" Cut="     0.000000E+00" cType="1"     res="    -1.434030E-02" rms="0.0e-00"     purity="0.00000000E+00" nType="-99">
            </Node>
            <Node pos="r" depth="3" NCoef="0"     IVar="-1" Cut="     0.000000E+00" cType="1"     res="     4.876870E-03" rms="0.0e-00"     purity="0.00000000E+00" nType="-99">
            </Node>
        </Node>
        <Node pos="r" depth="2" NCoef="0"     IVar="1" Cut="     8.625000E+00" cType="1"     res="     0.000000E+00" rms="0.0"     purity="0.00000000E+00" nType="0">
            <Node pos="l" depth="3" NCoef="0"     IVar="-1" Cut="     0.000000E+00" cType="1"     res="     1.435080E-02" rms="0.0e-00"     purity="0.00000000E+00" nType="-99">
            </Node>
            <Node pos="r" depth="3" NCoef="0"     IVar="-1" Cut="     0.000000E+00" cType="1"     res="    -6.924890E-03" rms="0.0e-00"     purity="0.00000000E+00" nType="-99">
            </Node>
        </Node>
    </Node>
</BinaryTree>
<BinaryTree type="DecisionTree" boostWeight="0.0" itree="24">
    <Node pos="c" depth="1" NCoef="0"     IVar="3" Cut="     1.274160E+01" cType="1"     res="     0.000000E+00" rms="0.0"     purity="0.00000000E+00" nType="0">
        <Node pos="l" depth="2" NCoef="0"     IVar="2" Cut="     2.049970E+01" cType="1"     res="     0.000000E+00" rms="0.0"     purity="0.00000000E+00" nType="0">
            <Node pos="l" depth="3" NCoef="0"     IVar="-1" Cut="     0.000000E+00" cType="1"     res="    -1.448800E-02" rms="0.0e-00"     purity="0.00000000E+00" nType="-99">
            </Node>
            <Node pos="r" depth="3" NCoef="0"     IVar="-1" Cut="     0.000000E+00" cType="1"     res="     8.440990E-03" rms="0.0e-00"     purity="0.00000000E+00" nType="-99">
            </Node>
        </Node>
        <Node pos="r" depth="2" NCoef="0"     IVar="1" Cut="     2.875000E+00" cType="1"     res="     0.000000E+00" rms="0.0"     purity="0.00000000E+00" nType="0">
            <Node pos="l" depth="3" NCoef="0"     IVar="-1" Cut="     0.000000E+00" cType="1"     res="     1.498610E-02" rms="0.0e-00"     purity="0.00000000E+00" nType="-99">
            </Node>
            <Node pos="r" depth="3" NCoef="0"     IVar="-1" Cut="     0.000000E+00" cType="1"     res="    -1.020870E-03" rms="0.0e-00"     purity="0.00000000E+00" nType="-99">
            </Node>
        </Node>
    </Node>
</BinaryTree>
<BinaryTree type="DecisionTree" boostWeight="0.0" itree="25">
    <Node pos="c" depth="1" NCoef="0"     IVar="3" Cut="     1.627020E+01" cType="1"     res="     0.000000E+00" rms="0.0"     purity="0.00000000E+00" nType="0">
        <Node pos="l" depth="2" NCoef="0"     IVar="2" Cut="     1.324680E+01" cType="1"     res="     0.000000E+00" rms="0.0"     purity="0.00000000E+00" nType="0">
            <Node pos="l" depth="3" NCoef="0"     IVar="-1" Cut="     0.000000E+00" cType="1"     res="    -1.407870E-02" rms="0.0e-00"     purity="0.00000000E+00" nType="-99">
            </Node>
            <Node pos="r" depth="3" NCoef="0"     IVar="-1" Cut="     0.000000E+00" cType="1"     res="     4.679970E-03" rms="0.0e-00"     purity="0.00000000E+00" nType="-99">
            </Node>
        </Node>
        <Node pos="r" depth="2" NCoef="0"     IVar="1" Cut="     8.625000E+00" cType="1"     res="     0.000000E+00" rms="0.0"     purity="0.00000000E+00" nType="0">
            <Node pos="l" depth="3" NCoef="0"     IVar="-1" Cut="     0.000000E+00" cType="1"     res="     1.422850E-02" rms="0.0e-00"     purity="0.00000000E+00" nType="-99">
            </Node>
            <Node pos="r" depth="3" NCoef="0"     IVar="-1" Cut="     0.000000E+00" cType="1"     res="    -6.712070E-03" rms="0.0e-00"     purity="0.00000000E+00" nType="-99">
            </Node>
        </Node>
    </Node>
</BinaryTree>
<BinaryTree type="DecisionTree" boostWeight="0.0" itree="26">
    <Node pos="c" depth="1" NCoef="0"     IVar="3" Cut="     1.422490E+01" cType="1"     res="     0.000000E+00" rms="0.0"     purity="0.00000000E+00" nType="0">
        <Node pos="l" depth="2" NCoef="0"     IVar="2" Cut="     1.524580E+01" cType="1"     res="     0.000000E+00" rms="0.0"     purity="0.00000000E+00" nType="0">
            <Node pos="l" depth="3" NCoef="0"     IVar="-1" Cut="     0.000000E+00" cType="1"     res="    -1.416310E-02" rms="0.0e-00"     purity="0.00000000E+00" nType="-99">
            </Node>
            <Node pos="r" depth="3" NCoef="0"     IVar="-1" Cut="     0.000000E+00" cType="1"     res="     5.940120E-03" rms="0.0e-00"     purity="0.00000000E+00" nType="-99">
            </Node>
        </Node>
        <Node pos="r" depth="2" NCoef="0"     IVar="1" Cut="     2.875000E+00" cType="1"     res="     0.000000E+00" rms="0.0"     purity="0.00000000E+00" nType="0">
            <Node pos="l" depth="3" NCoef="0"     IVar="-1" Cut="     0.000000E+00" cType="1"     res="     1.504760E-02" rms="0.0e-00"     purity="0.00000000E+00" nType="-99">
            </Node>
            <Node pos="r" depth="3" NCoef="0"     IVar="-1" Cut="     0.000000E+00" cType="1"     res="    -3.897160E-04" rms="0.0e-00"     purity="0.00000000E+00" nType="-99">
            </Node>
        </Node>
    </Node>
</BinaryTree>
<BinaryTree type="DecisionTree" boostWeight="0.0" itree="27">
    <Node pos="c" depth="1" NCoef="0"     IVar="3" Cut="     1.627020E+01" cType="1"     res="     0.000000E+00" rms="0.0"     purity="0.00000000E+00" nType="0">
        <Node pos="l" depth="2" NCoef="0"     IVar="2" Cut="     1.324680E+01" cType="1"     res="     0.000000E+00" rms="0.0"     purity="0.00000000E+00" nType="0">
            <Node pos="l" depth="3" NCoef="0"     IVar="-1" Cut="     0.000000E+00" cType="1"     res="    -1.387880E-02" rms="0.0e-00"     purity="0.00000000E+00" nType="-99">
            </Node>
            <Node pos="r" depth="3" NCoef="0"     IVar="-1" Cut="     0.000000E+00" cType="1"     res="     4.588140E-03" rms="0.0e-00"     purity="0.00000000E+00" nType="-99">
            </Node>
        </Node>
        <Node pos="r" depth="2" NCoef="0"     IVar="1" Cut="     8.625000E+00" cType="1"     res="     0.000000E+00" rms="0.0"     purity="0.00000000E+00" nType="0">
            <Node pos="l" depth="3" NCoef="0"     IVar="-1" Cut="     0.000000E+00" cType="1"     res="     1.403160E-02" rms="0.0e-00"     purity="0.00000000E+00" nType="-99">
            </Node>
            <Node pos="r" depth="3" NCoef="0"     IVar="-1" Cut="     0.000000E+00" cType="1"     res="    -6.643400E-03" rms="0.0e-00"     purity="0.00000000E+00" nType="-99">
            </Node>
        </Node>
    </Node>
</BinaryTree>
<BinaryTree type="DecisionTree" boostWeight="0.0" itree="28">
    <Node pos="c" depth="1" NCoef="0"     IVar="3" Cut="     1.223550E+01" cType="1"     res="     0.000000E+00" rms="0.0"     purity="0.00000000E+00" nType="0">
        <Node pos="l" depth="2" NCoef="0"     IVar="2" Cut="     2.049970E+01" cType="1"     res="     0.000000E+00" rms="0.0"     purity="0.00000000E+00" nType="0">
            <Node pos="l" depth="3" NCoef="0"     IVar="-1" Cut="     0.000000E+00" cType="1"     res="    -1.420630E-02" rms="0.0e-00"     purity="0.00000000E+00" nType="-99">
            </Node>
            <Node pos="r" depth="3" NCoef="0"     IVar="-1" Cut="     0.000000E+00" cType="1"     res="     8.214390E-03" rms="0.0e-00"     purity="0.00000000E+00" nType="-99">
            </Node>
        </Node>
        <Node pos="r" depth="2" NCoef="0"     IVar="1" Cut="     2.875000E+00" cType="1"     res="     0.000000E+00" rms="0.0"     purity="0.00000000E+00" nType="0">
            <Node pos="l" depth="3" NCoef="0"     IVar="-1" Cut="     0.000000E+00" cType="1"     res="     1.450810E-02" rms="0.0e-00"     purity="0.00000000E+00" nType="-99">
            </Node>
            <Node pos="r" depth="3" NCoef="0"     IVar="-1" Cut="     0.000000E+00" cType="1"     res="    -1.271070E-03" rms="0.0e-00"     purity="0.00000000E+00" nType="-99">
            </Node>
        </Node>
    </Node>
</BinaryTree>
<BinaryTree type="DecisionTree" boostWeight="0.0" itree="29">
    <Node pos="c" depth="1" NCoef="0"     IVar="3" Cut="     1.627020E+01" cType="1"     res="     0.000000E+00" rms="0.0"     purity="0.00000000E+00" nType="0">
        <Node pos="l" depth="2" NCoef="0"     IVar="2" Cut="     1.324680E+01" cType="1"     res="     0.000000E+00" rms="0.0"     purity="0.00000000E+00" nType="0">
            <Node pos="l" depth="3" NCoef="0"     IVar="-1" Cut="     0.000000E+00" cType="1"     res="    -1.369050E-02" rms="0.0e-00"     purity="0.00000000E+00" nType="-99">
            </Node>
            <Node pos="r" depth="3" NCoef="0"     IVar="-1" Cut="     0.000000E+00" cType="1"     res="     4.499440E-03" rms="0.0e-00"     purity="0.00000000E+00" nType="-99">
            </Node>
        </Node>
        <Node pos="r" depth="2" NCoef="0"     IVar="1" Cut="     8.625000E+00" cType="1"     res="     0.000000E+00" rms="0.0"     purity="0.00000000E+00" nType="0">
            <Node pos="l" depth="3" NCoef="0"     IVar="-1" Cut="     0.000000E+00" cType="1"     res="     1.384450E-02" rms="0.0e-00"     purity="0.00000000E+00" nType="-99">
            </Node>
            <Node pos="r" depth="3" NCoef="0"     IVar="-1" Cut="     0.000000E+00" cType="1"     res="    -6.567040E-03" rms="0.0e-00"     purity="0.00000000E+00" nType="-99">
            </Node>
        </Node>
    </Node>
</BinaryTree>
<BinaryTree type="DecisionTree" boostWeight="0.0" itree="30">
    <Node pos="c" depth="1" NCoef="0"     IVar="3" Cut="     1.169340E+01" cType="1"     res="     0.000000E+00" rms="0.0"     purity="0.00000000E+00" nType="0">
        <Node pos="l" depth="2" NCoef="0"     IVar="2" Cut="     2.049970E+01" cType="1"     res="     0.000000E+00" rms="0.0"     purity="0.00000000E+00" nType="0">
            <Node pos="l" depth="3" NCoef="0"     IVar="-1" Cut="     0.000000E+00" cType="1"     res="    -1.415370E-02" rms="0.0e-00"     purity="0.00000000E+00" nType="-99">
            </Node>
            <Node pos="r" depth="3" NCoef="0"     IVar="-1" Cut="     0.000000E+00" cType="1"     res="     8.037910E-03" rms="0.0e-00"     purity="0.00000000E+00" nType="-99">
            </Node>
        </Node>
        <Node pos="r" depth="2" NCoef="0"     IVar="1" Cut="     2.875000E+00" cType="1"     res="     0.000000E+00" rms="0.0"     purity="0.00000000E+00" nType="0">
            <Node pos="l" depth="3" NCoef="0"     IVar="-1" Cut="     0.000000E+00" cType="1"     res="     1.422010E-02" rms="0.0e-00"     purity="0.00000000E+00" nType="-99">
            </Node>
            <Node pos="r" depth="3" NCoef="0"     IVar="-1" Cut="     0.000000E+00" cType="1"     res="    -1.531010E-03" rms="0.0e-00"     purity="0.00000000E+00" nType="-99">
            </Node>
        </Node>
    </Node>
</BinaryTree>
<BinaryTree type="DecisionTree" boostWeight="0.0" itree="31">
    <Node pos="c" depth="1" NCoef="0"     IVar="3" Cut="     1.627020E+01" cType="1"     res="     0.000000E+00" rms="0.0"     purity="0.00000000E+00" nType="0">
        <Node pos="l" depth="2" NCoef="0"     IVar="2" Cut="     1.324680E+01" cType="1"     res="     0.000000E+00" rms="0.0"     purity="0.00000000E+00" nType="0">
            <Node pos="l" depth="3" NCoef="0"     IVar="-1" Cut="     0.000000E+00" cType="1"     res="    -1.350940E-02" rms="0.0e-00"     purity="0.00000000E+00" nType="-99">
            </Node>
            <Node pos="r" depth="3" NCoef="0"     IVar="-1" Cut="     0.000000E+00" cType="1"     res="     4.410480E-03" rms="0.0e-00"     purity="0.00000000E+00" nType="-99">
            </Node>
        </Node>
        <Node pos="r" depth="2" NCoef="0"     IVar="1" Cut="     8.625000E+00" cType="1"     res="     0.000000E+00" rms="0.0"     purity="0.00000000E+00" nType="0">
            <Node pos="l" depth="3" NCoef="0"     IVar="-1" Cut="     0.000000E+00" cType="1"     res="     1.366450E-02" rms="0.0e-00"     purity="0.00000000E+00" nType="-99">
            </Node>
            <Node pos="r" depth="3" NCoef="0"     IVar="-1" Cut="     0.000000E+00" cType="1"     res="    -6.489090E-03" rms="0.0e-00"     purity="0.00000000E+00" nType="-99">
            </Node>
        </Node>
    </Node>
</BinaryTree>
<BinaryTree type="DecisionTree" boostWeight="0.0" itree="32">
    <Node pos="c" depth="1" NCoef="0"     IVar="3" Cut="     1.627020E+01" cType="1"     res="     0.000000E+00" rms="0.0"     purity="0.00000000E+00" nType="0">
        <Node pos="l" depth="2" NCoef="0"     IVar="2" Cut="     1.324680E+01" cType="1"     res="     0.000000E+00" rms="0.0"     purity="0.00000000E+00" nType="0">
            <Node pos="l" depth="3" NCoef="0"     IVar="-1" Cut="     0.000000E+00" cType="1"     res="    -1.341550E-02" rms="0.0e-00"     purity="0.00000000E+00" nType="-99">
            </Node>
            <Node pos="r" depth="3" NCoef="0"     IVar="-1" Cut="     0.000000E+00" cType="1"     res="     4.368140E-03" rms="0.0e-00"     purity="0.00000000E+00" nType="-99">
            </Node>
        </Node>
        <Node pos="r" depth="2" NCoef="0"     IVar="1" Cut="     8.625000E+00" cType="1"     res="     0.000000E+00" rms="0.0"     purity="0.00000000E+00" nType="0">
            <Node pos="l" depth="3" NCoef="0"     IVar="-1" Cut="     0.000000E+00" cType="1"     res="     1.356920E-02" rms="0.0e-00"     purity="0.00000000E+00" nType="-99">
            </Node>
            <Node pos="r" depth="3" NCoef="0"     IVar="-1" Cut="     0.000000E+00" cType="1"     res="    -6.426750E-03" rms="0.0e-00"     purity="0.00000000E+00" nType="-99">
            </Node>
        </Node>
    </Node>
</BinaryTree>
<BinaryTree type="DecisionTree" boostWeight="0.0" itree="33">
    <Node pos="c" depth="1" NCoef="0"     IVar="3" Cut="     1.169340E+01" cType="1"     res="     0.000000E+00" rms="0.0"     purity="0.00000000E+00" nType="0">
        <Node pos="l" depth="2" NCoef="0"     IVar="2" Cut="     2.174930E+01" cType="1"     res="     0.000000E+00" rms="0.0"     purity="0.00000000E+00" nType="0">
            <Node pos="l" depth="3" NCoef="0"     IVar="-1" Cut="     0.000000E+00" cType="1"     res="    -1.386650E-02" rms="0.0e-00"     purity="0.00000000E+00" nType="-99">
            </Node>
            <Node pos="r" depth="3" NCoef="0"     IVar="-1" Cut="     0.000000E+00" cType="1"     res="     8.305370E-03" rms="0.0e-00"     purity="0.00000000E+00" nType="-99">
            </Node>
        </Node>
        <Node pos="r" depth="2" NCoef="0"     IVar="1" Cut="     2.875000E+00" cType="1"     res="     0.000000E+00" rms="0.0"     purity="0.00000000E+00" nType="0">
            <Node pos="l" depth="3" NCoef="0"     IVar="-1" Cut="     0.000000E+00" cType="1"     res="     1.396770E-02" rms="0.0e-00"     purity="0.00000000E+00" nType="-99">
            </Node>
            <Node pos="r" depth="3" NCoef="0"     IVar="-1" Cut="     0.000000E+00" cType="1"     res="    -1.570950E-03" rms="0.0e-00"     purity="0.00000000E+00" nType="-99">
            </Node>
        </Node>
    </Node>
</BinaryTree>
<BinaryTree type="DecisionTree" boostWeight="0.0" itree="34">
    <Node pos="c" depth="1" NCoef="0"     IVar="3" Cut="     1.627020E+01" cType="1"     res="     0.000000E+00" rms="0.0"     purity="0.00000000E+00" nType="0">
        <Node pos="l" depth="2" NCoef="0"     IVar="2" Cut="     1.324680E+01" cType="1"     res="     0.000000E+00" rms="0.0"     purity="0.00000000E+00" nType="0">
            <Node pos="l" depth="3" NCoef="0"     IVar="-1" Cut="     0.000000E+00" cType="1"     res="    -1.324320E-02" rms="0.0e-00"     purity="0.00000000E+00" nType="-99">
            </Node>
            <Node pos="r" depth="3" NCoef="0"     IVar="-1" Cut="     0.000000E+00" cType="1"     res="     4.283220E-03" rms="0.0e-00"     purity="0.00000000E+00" nType="-99">
            </Node>
        </Node>
        <Node pos="r" depth="2" NCoef="0"     IVar="1" Cut="     7.375000E+00" cType="1"     res="     0.000000E+00" rms="0.0"     purity="0.00000000E+00" nType="0">
            <Node pos="l" depth="3" NCoef="0"     IVar="-1" Cut="     0.000000E+00" cType="1"     res="     1.356260E-02" rms="0.0e-00"     purity="0.00000000E+00" nType="-99">
            </Node>
            <Node pos="r" depth="3" NCoef="0"     IVar="-1" Cut="     0.000000E+00" cType="1"     res="    -5.041250E-03" rms="0.0e-00"     purity="0.00000000E+00" nType="-99">
            </Node>
        </Node>
    </Node>
</BinaryTree>
<BinaryTree type="DecisionTree" boostWeight="0.0" itree="35">
    <Node pos="c" depth="1" NCoef="0"     IVar="3" Cut="     1.169340E+01" cType="1"     res="     0.000000E+00" rms="0.0"     purity="0.00000000E+00" nType="0">
        <Node pos="l" depth="2" NCoef="0"     IVar="2" Cut="     2.049970E+01" cType="1"     res="     0.000000E+00" rms="0.0"     purity="0.00000000E+00" nType="0">
            <Node pos="l" depth="3" NCoef="0"     IVar="-1" Cut="     0.000000E+00" cType="1"     res="    -1.371050E-02" rms="0.0e-00"     purity="0.00000000E+00" nType="-99">
            </Node>
            <Node pos="r" depth="3" NCoef="0"     IVar="-1" Cut="     0.000000E+00" cType="1"     res="     7.777740E-03" rms="0.0e-00"     purity="0.00000000E+00" nType="-99">
            </Node>
        </Node>
        <Node pos="r" depth="2" NCoef="0"     IVar="1" Cut="     2.875000E+00" cType="1"     res="     0.000000E+00" rms="0.0"     purity="0.00000000E+00" nType="0">
            <Node pos="l" depth="3" NCoef="0"     IVar="-1" Cut="     0.000000E+00" cType="1"     res="     1.379970E-02" rms="0.0e-00"     purity="0.00000000E+00" nType="-99">
            </Node>
            <Node pos="r" depth="3" NCoef="0"     IVar="-1" Cut="     0.000000E+00" cType="1"     res="    -1.577630E-03" rms="0.0e-00"     purity="0.00000000E+00" nType="-99">
            </Node>
        </Node>
    </Node>
</BinaryTree>
<BinaryTree type="DecisionTree" boostWeight="0.0" itree="36">
    <Node pos="c" depth="1" NCoef="0"     IVar="3" Cut="     1.627020E+01" cType="1"     res="     0.000000E+00" rms="0.0"     purity="0.00000000E+00" nType="0">
        <Node pos="l" depth="2" NCoef="0"     IVar="2" Cut="     1.324680E+01" cType="1"     res="     0.000000E+00" rms="0.0"     purity="0.00000000E+00" nType="0">
            <Node pos="l" depth="3" NCoef="0"     IVar="-1" Cut="     0.000000E+00" cType="1"     res="    -1.307600E-02" rms="0.0e-00"     purity="0.00000000E+00" nType="-99">
            </Node>
            <Node pos="r" depth="3" NCoef="0"     IVar="-1" Cut="     0.000000E+00" cType="1"     res="     4.198560E-03" rms="0.0e-00"     purity="0.00000000E+00" nType="-99">
            </Node>
        </Node>
        <Node pos="r" depth="2" NCoef="0"     IVar="1" Cut="     4.375000E+00" cType="1"     res="     0.000000E+00" rms="0.0"     purity="0.00000000E+00" nType="0">
            <Node pos="l" depth="3" NCoef="0"     IVar="-1" Cut="     0.000000E+00" cType="1"     res="     1.395970E-02" rms="0.0e-00"     purity="0.00000000E+00" nType="-99">
            </Node>
            <Node pos="r" depth="3" NCoef="0"     IVar="-1" Cut="     0.000000E+00" cType="1"     res="    -1.687620E-03" rms="0.0e-00"     purity="0.00000000E+00" nType="-99">
            </Node>
        </Node>
    </Node>
</BinaryTree>
<BinaryTree type="DecisionTree" boostWeight="0.0" itree="37">
    <Node pos="c" depth="1" NCoef="0"     IVar="3" Cut="     1.169340E+01" cType="1"     res="     0.000000E+00" rms="0.0"     purity="0.00000000E+00" nType="0">
        <Node pos="l" depth="2" NCoef="0"     IVar="2" Cut="     2.274310E+01" cType="1"     res="     0.000000E+00" rms="0.0"     purity="0.00000000E+00" nType="0">
            <Node pos="l" depth="3" NCoef="0"     IVar="-1" Cut="     0.000000E+00" cType="1"     res="    -1.351410E-02" rms="0.0e-00"     purity="0.00000000E+00" nType="-99">
            </Node>
            <Node pos="r" depth="3" NCoef="0"     IVar="-1" Cut="     0.000000E+00" cType="1"     res="     8.328340E-03" rms="0.0e-00"     purity="0.00000000E+00" nType="-99">
            </Node>
        </Node>
        <Node pos="r" depth="2" NCoef="0"     IVar="1" Cut="     2.875000E+00" cType="1"     res="     0.000000E+00" rms="0.0"     purity="0.00000000E+00" nType="0">
            <Node pos="l" depth="3" NCoef="0"     IVar="-1" Cut="     0.000000E+00" cType="1"     res="     1.363380E-02" rms="0.0e-00"     purity="0.00000000E+00" nType="-99">
            </Node>
            <Node pos="r" depth="3" NCoef="0"     IVar="-1" Cut="     0.000000E+00" cType="1"     res="    -1.567400E-03" rms="0.0e-00"     purity="0.00000000E+00" nType="-99">
            </Node>
        </Node>
    </Node>
</BinaryTree>
<BinaryTree type="DecisionTree" boostWeight="0.0" itree="38">
    <Node pos="c" depth="1" NCoef="0"     IVar="3" Cut="     1.627020E+01" cType="1"     res="     0.000000E+00" rms="0.0"     purity="0.00000000E+00" nType="0">
        <Node pos="l" depth="2" NCoef="0"     IVar="2" Cut="     1.324580E+01" cType="1"     res="     0.000000E+00" rms="0.0"     purity="0.00000000E+00" nType="0">
            <Node pos="l" depth="3" NCoef="0"     IVar="-1" Cut="     0.000000E+00" cType="1"     res="    -1.291440E-02" rms="0.0e-00"     purity="0.00000000E+00" nType="-99">
            </Node>
            <Node pos="r" depth="3" NCoef="0"     IVar="-1" Cut="     0.000000E+00" cType="1"     res="     4.115480E-03" rms="0.0e-00"     purity="0.00000000E+00" nType="-99">
            </Node>
        </Node>
        <Node pos="r" depth="2" NCoef="0"     IVar="1" Cut="     8.625000E+00" cType="1"     res="     0.000000E+00" rms="0.0"     purity="0.00000000E+00" nType="0">
            <Node pos="l" depth="3" NCoef="0"     IVar="-1" Cut="     0.000000E+00" cType="1"     res="     1.307930E-02" rms="0.0e-00"     purity="0.00000000E+00" nType="-99">
            </Node>
            <Node pos="r" depth="3" NCoef="0"     IVar="-1" Cut="     0.000000E+00" cType="1"     res="    -6.255620E-03" rms="0.0e-00"     purity="0.00000000E+00" nType="-99">
            </Node>
        </Node>
    </Node>
</BinaryTree>
<BinaryTree type="DecisionTree" boostWeight="0.0" itree="39">
    <Node pos="c" depth="1" NCoef="0"     IVar="3" Cut="     1.627020E+01" cType="1"     res="     0.000000E+00" rms="0.0"     purity="0.00000000E+00" nType="0">
        <Node pos="l" depth="2" NCoef="0"     IVar="2" Cut="     1.324580E+01" cType="1"     res="     0.000000E+00" rms="0.0"     purity="0.00000000E+00" nType="0">
            <Node pos="l" depth="3" NCoef="0"     IVar="-1" Cut="     0.000000E+00" cType="1"     res="    -1.282990E-02" rms="0.0e-00"     purity="0.00000000E+00" nType="-99">
            </Node>
            <Node pos="r" depth="3" NCoef="0"     IVar="-1" Cut="     0.000000E+00" cType="1"     res="     4.076110E-03" rms="0.0e-00"     purity="0.00000000E+00" nType="-99">
            </Node>
        </Node>
        <Node pos="r" depth="2" NCoef="0"     IVar="1" Cut="     4.375000E+00" cType="1"     res="     0.000000E+00" rms="0.0"     purity="0.00000000E+00" nType="0">
            <Node pos="l" depth="3" NCoef="0"     IVar="-1" Cut="     0.000000E+00" cType="1"     res="     1.371450E-02" rms="0.0e-00"     purity="0.00000000E+00" nType="-99">
            </Node>
            <Node pos="r" depth="3" NCoef="0"     IVar="-1" Cut="     0.000000E+00" cType="1"     res="    -1.672800E-03" rms="0.0e-00"     purity="0.00000000E+00" nType="-99">
            </Node>
        </Node>
    </Node>
</BinaryTree>
<BinaryTree type="DecisionTree" boostWeight="0.0" itree="40">
    <Node pos="c" depth="1" NCoef="0"     IVar="3" Cut="     1.169340E+01" cType="1"     res="     0.000000E+00" rms="0.0"     purity="0.00000000E+00" nType="0">
        <Node pos="l" depth="2" NCoef="0"     IVar="2" Cut="     2.274310E+01" cType="1"     res="     0.000000E+00" rms="0.0"     purity="0.00000000E+00" nType="0">
            <Node pos="l" depth="3" NCoef="0"     IVar="-1" Cut="     0.000000E+00" cType="1"     res="    -1.327430E-02" rms="0.0e-00"     purity="0.00000000E+00" nType="-99">
            </Node>
            <Node pos="r" depth="3" NCoef="0"     IVar="-1" Cut="     0.000000E+00" cType="1"     res="     8.180930E-03" rms="0.0e-00"     purity="0.00000000E+00" nType="-99">
            </Node>
        </Node>
        <Node pos="r" depth="2" NCoef="0"     IVar="1" Cut="     2.875000E+00" cType="1"     res="     0.000000E+00" rms="0.0"     purity="0.00000000E+00" nType="0">
            <Node pos="l" depth="3" NCoef="0"     IVar="-1" Cut="     0.000000E+00" cType="1"     res="     1.340580E-02" rms="0.0e-00"     purity="0.00000000E+00" nType="-99">
            </Node>
            <Node pos="r" depth="3" NCoef="0"     IVar="-1" Cut="     0.000000E+00" cType="1"     res="    -1.583570E-03" rms="0.0e-00"     purity="0.00000000E+00" nType="-99">
            </Node>
        </Node>
    </Node>
</BinaryTree>
<BinaryTree type="DecisionTree" boostWeight="0.0" itree="41">
    <Node pos="c" depth="1" NCoef="0"     IVar="3" Cut="     1.627020E+01" cType="1"     res="     0.000000E+00" rms="0.0"     purity="0.00000000E+00" nType="0">
        <Node pos="l" depth="2" NCoef="0"     IVar="2" Cut="     1.324580E+01" cType="1"     res="     0.000000E+00" rms="0.0"     purity="0.00000000E+00" nType="0">
            <Node pos="l" depth="3" NCoef="0"     IVar="-1" Cut="     0.000000E+00" cType="1"     res="    -1.267510E-02" rms="0.0e-00"     purity="0.00000000E+00" nType="-99">
            </Node>
            <Node pos="r" depth="3" NCoef="0"     IVar="-1" Cut="     0.000000E+00" cType="1"     res="     3.997650E-03" rms="0.0e-00"     purity="0.00000000E+00" nType="-99">
            </Node>
        </Node>
        <Node pos="r" depth="2" NCoef="0"     IVar="1" Cut="     8.625000E+00" cType="1"     res="     0.000000E+00" rms="0.0"     purity="0.00000000E+00" nType="0">
            <Node pos="l" depth="3" NCoef="0"     IVar="-1" Cut="     0.000000E+00" cType="1"     res="     1.284630E-02" rms="0.0e-00"     purity="0.00000000E+00" nType="-99">
            </Node>
            <Node pos="r" depth="3" NCoef="0"     IVar="-1" Cut="     0.000000E+00" cType="1"     res="    -6.164870E-03" rms="0.0e-00"     purity="0.00000000E+00" nType="-99">
            </Node>
        </Node>
    </Node>
</BinaryTree>
<BinaryTree type="DecisionTree" boostWeight="0.0" itree="42">
    <Node pos="c" depth="1" NCoef="0"     IVar="3" Cut="     1.169340E+01" cType="1"     res="     0.000000E+00" rms="0.0"     purity="0.00000000E+00" nType="0">
        <Node pos="l" depth="2" NCoef="0"     IVar="2" Cut="     2.274310E+01" cType="1"     res="     0.000000E+00" rms="0.0"     purity="0.00000000E+00" nType="0">
            <Node pos="l" depth="3" NCoef="0"     IVar="-1" Cut="     0.000000E+00" cType="1"     res="    -1.311830E-02" rms="0.0e-00"     purity="0.00000000E+00" nType="-99">
            </Node>
            <Node pos="r" depth="3" NCoef="0"     IVar="-1" Cut="     0.000000E+00" cType="1"     res="     8.072750E-03" rms="0.0e-00"     purity="0.00000000E+00" nType="-99">
            </Node>
        </Node>
        <Node pos="r" depth="2" NCoef="0"     IVar="1" Cut="     2.875000E+00" cType="1"     res="     0.000000E+00" rms="0.0"     purity="0.00000000E+00" nType="0">
            <Node pos="l" depth="3" NCoef="0"     IVar="-1" Cut="     0.000000E+00" cType="1"     res="     1.325650E-02" rms="0.0e-00"     purity="0.00000000E+00" nType="-99">
            </Node>
            <Node pos="r" depth="3" NCoef="0"     IVar="-1" Cut="     0.000000E+00" cType="1"     res="    -1.593730E-03" rms="0.0e-00"     purity="0.00000000E+00" nType="-99">
            </Node>
        </Node>
    </Node>
</BinaryTree>
<BinaryTree type="DecisionTree" boostWeight="0.0" itree="43">
    <Node pos="c" depth="1" NCoef="0"     IVar="3" Cut="     1.627020E+01" cType="1"     res="     0.000000E+00" rms="0.0"     purity="0.00000000E+00" nType="0">
        <Node pos="l" depth="2" NCoef="0"     IVar="2" Cut="     1.324580E+01" cType="1"     res="     0.000000E+00" rms="0.0"     purity="0.00000000E+00" nType="0">
            <Node pos="l" depth="3" NCoef="0"     IVar="-1" Cut="     0.000000E+00" cType="1"     res="    -1.252470E-02" rms="0.0e-00"     purity="0.00000000E+00" nType="-99">
            </Node>
            <Node pos="r" depth="3" NCoef="0"     IVar="-1" Cut="     0.000000E+00" cType="1"     res="     3.920730E-03" rms="0.0e-00"     purity="0.00000000E+00" nType="-99">
            </Node>
        </Node>
        <Node pos="r" depth="2" NCoef="0"     IVar="1" Cut="     8.625000E+00" cType="1"     res="     0.000000E+00" rms="0.0"     purity="0.00000000E+00" nType="0">
            <Node pos="l" depth="3" NCoef="0"     IVar="-1" Cut="     0.000000E+00" cType="1"     res="     1.269650E-02" rms="0.0e-00"     purity="0.00000000E+00" nType="-99">
            </Node>
            <Node pos="r" depth="3" NCoef="0"     IVar="-1" Cut="     0.000000E+00" cType="1"     res="    -6.090990E-03" rms="0.0e-00"     purity="0.00000000E+00" nType="-99">
            </Node>
        </Node>
    </Node>
</BinaryTree>
<BinaryTree type="DecisionTree" boostWeight="0.0" itree="44">
    <Node pos="c" depth="1" NCoef="0"     IVar="3" Cut="     1.627020E+01" cType="1"     res="     0.000000E+00" rms="0.0"     purity="0.00000000E+00" nType="0">
        <Node pos="l" depth="2" NCoef="0"     IVar="2" Cut="     1.249230E+01" cType="1"     res="     0.000000E+00" rms="0.0"     purity="0.00000000E+00" nType="0">
            <Node pos="l" depth="3" NCoef="0"     IVar="-1" Cut="     0.000000E+00" cType="1"     res="    -1.248310E-02" rms="0.0e-00"     purity="0.00000000E+00" nType="-99">
            </Node>
            <Node pos="r" depth="3" NCoef="0"     IVar="-1" Cut="     0.000000E+00" cType="1"     res="     3.561650E-03" rms="0.0e-00"     purity="0.00000000E+00" nType="-99">
            </Node>
        </Node>
        <Node pos="r" depth="2" NCoef="0"     IVar="1" Cut="     4.375000E+00" cType="1"     res="     0.000000E+00" rms="0.0"     purity="0.00000000E+00" nType="0">
            <Node pos="l" depth="3" NCoef="0"     IVar="-1" Cut="     0.000000E+00" cType="1"     res="     1.333450E-02" rms="0.0e-00"     purity="0.00000000E+00" nType="-99">
            </Node>
            <Node pos="r" depth="3" NCoef="0"     IVar="-1" Cut="     0.000000E+00" cType="1"     res="    -1.658850E-03" rms="0.0e-00"     purity="0.00000000E+00" nType="-99">
            </Node>
        </Node>
    </Node>
</BinaryTree>
<BinaryTree type="DecisionTree" boostWeight="0.0" itree="45">
    <Node pos="c" depth="1" NCoef="0"     IVar="3" Cut="     1.169340E+01" cType="1"     res="     0.000000E+00" rms="0.0"     purity="0.00000000E+00" nType="0">
        <Node pos="l" depth="2" NCoef="0"     IVar="2" Cut="     2.274310E+01" cType="1"     res="     0.000000E+00" rms="0.0"     purity="0.00000000E+00" nType="0">
            <Node pos="l" depth="3" NCoef="0"     IVar="-1" Cut="     0.000000E+00" cType="1"     res="    -1.289590E-02" rms="0.0e-00"     purity="0.00000000E+00" nType="-99">
            </Node>
            <Node pos="r" depth="3" NCoef="0"     IVar="-1" Cut="     0.000000E+00" cType="1"     res="     7.935170E-03" rms="0.0e-00"     purity="0.00000000E+00" nType="-99">
            </Node>
        </Node>
        <Node pos="r" depth="2" NCoef="0"     IVar="1" Cut="     2.875000E+00" cType="1"     res="     0.000000E+00" rms="0.0"     purity="0.00000000E+00" nType="0">
            <Node pos="l" depth="3" NCoef="0"     IVar="-1" Cut="     0.000000E+00" cType="1"     res="     1.304580E-02" rms="0.0e-00"     purity="0.00000000E+00" nType="-99">
            </Node>
            <Node pos="r" depth="3" NCoef="0"     IVar="-1" Cut="     0.000000E+00" cType="1"     res="    -1.608620E-03" rms="0.0e-00"     purity="0.00000000E+00" nType="-99">
            </Node>
        </Node>
    </Node>
</BinaryTree>
<BinaryTree type="DecisionTree" boostWeight="0.0" itree="46">
    <Node pos="c" depth="1" NCoef="0"     IVar="3" Cut="     1.627020E+01" cType="1"     res="     0.000000E+00" rms="0.0"     purity="0.00000000E+00" nType="0">
        <Node pos="l" depth="2" NCoef="0"     IVar="2" Cut="     1.249230E+01" cType="1"     res="     0.000000E+00" rms="0.0"     purity="0.00000000E+00" nType="0">
            <Node pos="l" depth="3" NCoef="0"     IVar="-1" Cut="     0.000000E+00" cType="1"     res="    -1.233880E-02" rms="0.0e-00"     purity="0.00000000E+00" nType="-99">
            </Node>
            <Node pos="r" depth="3" NCoef="0"     IVar="-1" Cut="     0.000000E+00" cType="1"     res="     3.493030E-03" rms="0.0e-00"     purity="0.00000000E+00" nType="-99">
            </Node>
        </Node>
        <Node pos="r" depth="2" NCoef="0"     IVar="1" Cut="     8.625000E+00" cType="1"     res="     0.000000E+00" rms="0.0"     purity="0.00000000E+00" nType="0">
            <Node pos="l" depth="3" NCoef="0"     IVar="-1" Cut="     0.000000E+00" cType="1"     res="     1.247950E-02" rms="0.0e-00"     purity="0.00000000E+00" nType="-99">
            </Node>
            <Node pos="r" depth="3" NCoef="0"     IVar="-1" Cut="     0.000000E+00" cType="1"     res="    -6.002070E-03" rms="0.0e-00"     purity="0.00000000E+00" nType="-99">
            </Node>
        </Node>
    </Node>
</BinaryTree>
<BinaryTree type="DecisionTree" boostWeight="0.0" itree="47">
    <Node pos="c" depth="1" NCoef="0"     IVar="3" Cut="     1.169340E+01" cType="1"     res="     0.000000E+00" rms="0.0"     purity="0.00000000E+00" nType="0">
        <Node pos="l" depth="2" NCoef="0"     IVar="2" Cut="     2.049970E+01" cType="1"     res="     0.000000E+00" rms="0.0"     purity="0.00000000E+00" nType="0">
            <Node pos="l" depth="3" NCoef="0"     IVar="-1" Cut="     0.000000E+00" cType="1"     res="    -1.277850E-02" rms="0.0e-00"     purity="0.00000000E+00" nType="-99">
            </Node>
            <Node pos="r" depth="3" NCoef="0"     IVar="-1" Cut="     0.000000E+00" cType="1"     res="     7.216110E-03" rms="0.0e-00"     purity="0.00000000E+00" nType="-99">
            </Node>
        </Node>
        <Node pos="r" depth="2" NCoef="0"     IVar="1" Cut="     2.875000E+00" cType="1"     res="     0.000000E+00" rms="0.0"     purity="0.00000000E+00" nType="0">
            <Node pos="l" depth="3" NCoef="0"     IVar="-1" Cut="     0.000000E+00" cType="1"     res="     1.290720E-02" rms="0.0e-00"     purity="0.00000000E+00" nType="-99">
            </Node>
            <Node pos="r" depth="3" NCoef="0"     IVar="-1" Cut="     0.000000E+00" cType="1"     res="    -1.617910E-03" rms="0.0e-00"     purity="0.00000000E+00" nType="-99">
            </Node>
        </Node>
    </Node>
</BinaryTree>
<BinaryTree type="DecisionTree" boostWeight="0.0" itree="48">
    <Node pos="c" depth="1" NCoef="0"     IVar="3" Cut="     1.627020E+01" cType="1"     res="     0.000000E+00" rms="0.0"     purity="0.00000000E+00" nType="0">
        <Node pos="l" depth="2" NCoef="0"     IVar="2" Cut="     1.324580E+01" cType="1"     res="     0.000000E+00" rms="0.0"     purity="0.00000000E+00" nType="0">
            <Node pos="l" depth="3" NCoef="0"     IVar="-1" Cut="     0.000000E+00" cType="1"     res="    -1.216160E-02" rms="0.0e-00"     purity="0.00000000E+00" nType="-99">
            </Node>
            <Node pos="r" depth="3" NCoef="0"     IVar="-1" Cut="     0.000000E+00" cType="1"     res="     3.738860E-03" rms="0.0e-00"     purity="0.00000000E+00" nType="-99">
            </Node>
        </Node>
        <Node pos="r" depth="2" NCoef="0"     IVar="1" Cut="     4.375000E+00" cType="1"     res="     0.000000E+00" rms="0.0"     purity="0.00000000E+00" nType="0">
            <Node pos="l" depth="3" NCoef="0"     IVar="-1" Cut="     0.000000E+00" cType="1"     res="     1.305080E-02" rms="0.0e-00"     purity="0.00000000E+00" nType="-99">
            </Node>
            <Node pos="r" depth="3" NCoef="0"     IVar="-1" Cut="     0.000000E+00" cType="1"     res="    -1.626990E-03" rms="0.0e-00"     purity="0.00000000E+00" nType="-99">
            </Node>
        </Node>
    </Node>
</BinaryTree>
<BinaryTree type="DecisionTree" boostWeight="0.0" itree="49">
    <Node pos="c" depth="1" NCoef="0"     IVar="3" Cut="     1.627020E+01" cType="1"     res="     0.000000E+00" rms="0.0"     purity="0.00000000E+00" nType="0">
        <Node pos="l" depth="2" NCoef="0"     IVar="2" Cut="     1.524580E+01" cType="1"     res="     0.000000E+00" rms="0.0"     purity="0.00000000E+00" nType="0">
            <Node pos="l" depth="3" NCoef="0"     IVar="-1" Cut="     0.000000E+00" cType="1"     res="    -1.200920E-02" rms="0.0e-00"     purity="0.00000000E+00" nType="-99">
            </Node>
            <Node pos="r" depth="3" NCoef="0"     IVar="-1" Cut="     0.000000E+00" cType="1"     res="     4.435540E-03" rms="0.0e-00"     purity="0.00000000E+00" nType="-99">
            </Node>
        </Node>
        <Node pos="r" depth="2" NCoef="0"     IVar="1" Cut="     8.625000E+00" cType="1"     res="     0.000000E+00" rms="0.0"     purity="0.00000000E+00" nType="0">
            <Node pos="l" depth="3" NCoef="0"     IVar="-1" Cut="     0.000000E+00" cType="1"     res="     1.227130E-02" rms="0.0e-00"     purity="0.00000000E+00" nType="-99">
            </Node>
            <Node pos="r" depth="3" NCoef="0"     IVar="-1" Cut="     0.000000E+00" cType="1"     res="    -5.914400E-03" rms="0.0e-00"     purity="0.00000000E+00" nType="-99">
            </Node>
        </Node>
    </Node>
</BinaryTree>
<BinaryTree type="DecisionTree" boostWeight="0.0" itree="50">
    <Node pos="c" depth="1" NCoef="0"     IVar="3" Cut="     1.169340E+01" cType="1"     res="     0.000000E+00" rms="0.0"     purity="0.00000000E+00" nType="0">
        <Node pos="l" depth="2" NCoef="0"     IVar="2" Cut="     2.299920E+01" cType="1"     res="     0.000000E+00" rms="0.0"     purity="0.00000000E+00" nType="0">
            <Node pos="l" depth="3" NCoef="0"     IVar="-1" Cut="     0.000000E+00" cType="1"     res="    -1.254000E-02" rms="0.0e-00"     purity="0.00000000E+00" nType="-99">
            </Node>
            <Node pos="r" depth="3" NCoef="0"     IVar="-1" Cut="     0.000000E+00" cType="1"     res="     7.791550E-03" rms="0.0e-00"     purity="0.00000000E+00" nType="-99">
            </Node>
        </Node>
        <Node pos="r" depth="2" NCoef="0"     IVar="1" Cut="     2.875000E+00" cType="1"     res="     0.000000E+00" rms="0.0"     purity="0.00000000E+00" nType="0">
            <Node pos="l" depth="3" NCoef="0"     IVar="-1" Cut="     0.000000E+00" cType="1"     res="     1.271200E-02" rms="0.0e-00"     purity="0.00000000E+00" nType="-99">
            </Node>
            <Node pos="r" depth="3" NCoef="0"     IVar="-1" Cut="     0.000000E+00" cType="1"     res="    -1.631240E-03" rms="0.0e-00"     purity="0.00000000E+00" nType="-99">
            </Node>
        </Node>
    </Node>
</BinaryTree>
<BinaryTree type="DecisionTree" boostWeight="0.0" itree="51">
    <Node pos="c" depth="1" NCoef="0"     IVar="3" Cut="     1.636640E+01" cType="1"     res="     0.000000E+00" rms="0.0"     purity="0.00000000E+00" nType="0">
        <Node pos="l" depth="2" NCoef="0"     IVar="2" Cut="     1.049960E+01" cType="1"     res="     0.000000E+00" rms="0.0"     purity="0.00000000E+00" nType="0">
            <Node pos="l" depth="3" NCoef="0"     IVar="-1" Cut="     0.000000E+00" cType="1"     res="    -1.209940E-02" rms="0.0e-00"     purity="0.00000000E+00" nType="-99">
            </Node>
            <Node pos="r" depth="3" NCoef="0"     IVar="-1" Cut="     0.000000E+00" cType="1"     res="     2.488920E-03" rms="0.0e-00"     purity="0.00000000E+00" nType="-99">
            </Node>
        </Node>
        <Node pos="r" depth="2" NCoef="0"     IVar="1" Cut="     4.375000E+00" cType="1"     res="     0.000000E+00" rms="0.0"     purity="0.00000000E+00" nType="0">
            <Node pos="l" depth="3" NCoef="0"     IVar="-1" Cut="     0.000000E+00" cType="1"     res="     1.286030E-02" rms="0.0e-00"     purity="0.00000000E+00" nType="-99">
            </Node>
            <Node pos="r" depth="3" NCoef="0"     IVar="-1" Cut="     0.000000E+00" cType="1"     res="    -1.581010E-03" rms="0.0e-00"     purity="0.00000000E+00" nType="-99">
            </Node>
        </Node>
    </Node>
</BinaryTree>
<BinaryTree type="DecisionTree" boostWeight="0.0" itree="52">
    <Node pos="c" depth="1" NCoef="0"     IVar="3" Cut="     1.169340E+01" cType="1"     res="     0.000000E+00" rms="0.0"     purity="0.00000000E+00" nType="0">
        <Node pos="l" depth="2" NCoef="0"     IVar="2" Cut="     2.325000E+01" cType="1"     res="     0.000000E+00" rms="0.0"     purity="0.00000000E+00" nType="0">
            <Node pos="l" depth="3" NCoef="0"     IVar="-1" Cut="     0.000000E+00" cType="1"     res="    -1.240060E-02" rms="0.0e-00"     purity="0.00000000E+00" nType="-99">
            </Node>
            <Node pos="r" depth="3" NCoef="0"     IVar="-1" Cut="     0.000000E+00" cType="1"     res="     7.795760E-03" rms="0.0e-00"     purity="0.00000000E+00" nType="-99">
            </Node>
        </Node>
        <Node pos="r" depth="2" NCoef="0"     IVar="1" Cut="     2.875000E+00" cType="1"     res="     0.000000E+00" rms="0.0"     purity="0.00000000E+00" nType="0">
            <Node pos="l" depth="3" NCoef="0"     IVar="-1" Cut="     0.000000E+00" cType="1"     res="     1.257940E-02" rms="0.0e-00"     purity="0.00000000E+00" nType="-99">
            </Node>
            <Node pos="r" depth="3" NCoef="0"     IVar="-1" Cut="     0.000000E+00" cType="1"     res="    -1.619850E-03" rms="0.0e-00"     purity="0.00000000E+00" nType="-99">
            </Node>
        </Node>
    </Node>
</BinaryTree>
<BinaryTree type="DecisionTree" boostWeight="0.0" itree="53">
    <Node pos="c" depth="1" NCoef="0"     IVar="3" Cut="     1.636640E+01" cType="1"     res="     0.000000E+00" rms="0.0"     purity="0.00000000E+00" nType="0">
        <Node pos="l" depth="2" NCoef="0"     IVar="2" Cut="     1.049960E+01" cType="1"     res="     0.000000E+00" rms="0.0"     purity="0.00000000E+00" nType="0">
            <Node pos="l" depth="3" NCoef="0"     IVar="-1" Cut="     0.000000E+00" cType="1"     res="    -1.196780E-02" rms="0.0e-00"     purity="0.00000000E+00" nType="-99">
            </Node>
            <Node pos="r" depth="3" NCoef="0"     IVar="-1" Cut="     0.000000E+00" cType="1"     res="     2.444630E-03" rms="0.0e-00"     purity="0.00000000E+00" nType="-99">
            </Node>
        </Node>
        <Node pos="r" depth="2" NCoef="0"     IVar="1" Cut="     8.625000E+00" cType="1"     res="     0.000000E+00" rms="0.0"     purity="0.00000000E+00" nType="0">
            <Node pos="l" depth="3" NCoef="0"     IVar="-1" Cut="     0.000000E+00" cType="1"     res="     1.202910E-02" rms="0.0e-00"     purity="0.00000000E+00" nType="-99">
            </Node>
            <Node pos="r" depth="3" NCoef="0"     IVar="-1" Cut="     0.000000E+00" cType="1"     res="    -5.787930E-03" rms="0.0e-00"     purity="0.00000000E+00" nType="-99">
            </Node>
        </Node>
    </Node>
</BinaryTree>
<BinaryTree type="DecisionTree" boostWeight="0.0" itree="54">
    <Node pos="c" depth="1" NCoef="0"     IVar="3" Cut="     1.169340E+01" cType="1"     res="     0.000000E+00" rms="0.0"     purity="0.00000000E+00" nType="0">
        <Node pos="l" depth="2" NCoef="0"     IVar="2" Cut="     2.299920E+01" cType="1"     res="     0.000000E+00" rms="0.0"     purity="0.00000000E+00" nType="0">
            <Node pos="l" depth="3" NCoef="0"     IVar="-1" Cut="     0.000000E+00" cType="1"     res="    -1.227280E-02" rms="0.0e-00"     purity="0.00000000E+00" nType="-99">
            </Node>
            <Node pos="r" depth="3" NCoef="0"     IVar="-1" Cut="     0.000000E+00" cType="1"     res="     7.614270E-03" rms="0.0e-00"     purity="0.00000000E+00" nType="-99">
            </Node>
        </Node>
        <Node pos="r" depth="2" NCoef="0"     IVar="1" Cut="     2.875000E+00" cType="1"     res="     0.000000E+00" rms="0.0"     purity="0.00000000E+00" nType="0">
            <Node pos="l" depth="3" NCoef="0"     IVar="-1" Cut="     0.000000E+00" cType="1"     res="     1.245380E-02" rms="0.0e-00"     purity="0.00000000E+00" nType="-99">
            </Node>
            <Node pos="r" depth="3" NCoef="0"     IVar="-1" Cut="     0.000000E+00" cType="1"     res="    -1.628150E-03" rms="0.0e-00"     purity="0.00000000E+00" nType="-99">
            </Node>
        </Node>
    </Node>
</BinaryTree>
<BinaryTree type="DecisionTree" boostWeight="0.0" itree="55">
    <Node pos="c" depth="1" NCoef="0"     IVar="3" Cut="     1.715150E+01" cType="1"     res="     0.000000E+00" rms="0.0"     purity="0.00000000E+00" nType="0">
        <Node pos="l" depth="2" NCoef="0"     IVar="2" Cut="     1.049960E+01" cType="1"     res="     0.000000E+00" rms="0.0"     purity="0.00000000E+00" nType="0">
            <Node pos="l" depth="3" NCoef="0"     IVar="-1" Cut="     0.000000E+00" cType="1"     res="    -1.177540E-02" rms="0.0e-00"     purity="0.00000000E+00" nType="-99">
            </Node>
            <Node pos="r" depth="3" NCoef="0"     IVar="-1" Cut="     0.000000E+00" cType="1"     res="     2.446860E-03" rms="0.0e-00"     purity="0.00000000E+00" nType="-99">
            </Node>
        </Node>
        <Node pos="r" depth="2" NCoef="0"     IVar="1" Cut="     8.875000E+00" cType="1"     res="     0.000000E+00" rms="0.0"     purity="0.00000000E+00" nType="0">
            <Node pos="l" depth="3" NCoef="0"     IVar="-1" Cut="     0.000000E+00" cType="1"     res="     1.200450E-02" rms="0.0e-00"     purity="0.00000000E+00" nType="-99">
            </Node>
            <Node pos="r" depth="3" NCoef="0"     IVar="-1" Cut="     0.000000E+00" cType="1"     res="    -5.723350E-03" rms="0.0e-00"     purity="0.00000000E+00" nType="-99">
            </Node>
        </Node>
    </Node>
</BinaryTree>
<BinaryTree type="DecisionTree" boostWeight="0.0" itree="56">
    <Node pos="c" depth="1" NCoef="0"     IVar="3" Cut="     1.715150E+01" cType="1"     res="     0.000000E+00" rms="0.0"     purity="0.00000000E+00" nType="0">
        <Node pos="l" depth="2" NCoef="0"     IVar="2" Cut="     1.049960E+01" cType="1"     res="     0.000000E+00" rms="0.0"     purity="0.00000000E+00" nType="0">
            <Node pos="l" depth="3" NCoef="0"     IVar="-1" Cut="     0.000000E+00" cType="1"     res="    -1.170650E-02" rms="0.0e-00"     purity="0.00000000E+00" nType="-99">
            </Node>
            <Node pos="r" depth="3" NCoef="0"     IVar="-1" Cut="     0.000000E+00" cType="1"     res="     2.422890E-03" rms="0.0e-00"     purity="0.00000000E+00" nType="-99">
            </Node>
        </Node>
        <Node pos="r" depth="2" NCoef="0"     IVar="1" Cut="     8.875000E+00" cType="1"     res="     0.000000E+00" rms="0.0"     purity="0.00000000E+00" nType="0">
            <Node pos="l" depth="3" NCoef="0"     IVar="-1" Cut="     0.000000E+00" cType="1"     res="     1.193480E-02" rms="0.0e-00"     purity="0.00000000E+00" nType="-99">
            </Node>
            <Node pos="r" depth="3" NCoef="0"     IVar="-1" Cut="     0.000000E+00" cType="1"     res="    -5.669370E-03" rms="0.0e-00"     purity="0.00000000E+00" nType="-99">
            </Node>
        </Node>
    </Node>
</BinaryTree>
<BinaryTree type="DecisionTree" boostWeight="0.0" itree="57">
    <Node pos="c" depth="1" NCoef="0"     IVar="3" Cut="     1.169340E+01" cType="1"     res="     0.000000E+00" rms="0.0"     purity="0.00000000E+00" nType="0">
        <Node pos="l" depth="2" NCoef="0"     IVar="2" Cut="     2.049970E+01" cType="1"     res="     0.000000E+00" rms="0.0"     purity="0.00000000E+00" nType="0">
            <Node pos="l" depth="3" NCoef="0"     IVar="-1" Cut="     0.000000E+00" cType="1"     res="    -1.211610E-02" rms="0.0e-00"     purity="0.00000000E+00" nType="-99">
            </Node>
            <Node pos="r" depth="3" NCoef="0"     IVar="-1" Cut="     0.000000E+00" cType="1"     res="     6.826650E-03" rms="0.0e-00"     purity="0.00000000E+00" nType="-99">
            </Node>
        </Node>
        <Node pos="r" depth="2" NCoef="0"     IVar="1" Cut="     2.875000E+00" cType="1"     res="     0.000000E+00" rms="0.0"     purity="0.00000000E+00" nType="0">
            <Node pos="l" depth="3" NCoef="0"     IVar="-1" Cut="     0.000000E+00" cType="1"     res="     1.228060E-02" rms="0.0e-00"     purity="0.00000000E+00" nType="-99">
            </Node>
            <Node pos="r" depth="3" NCoef="0"     IVar="-1" Cut="     0.000000E+00" cType="1"     res="    -1.660130E-03" rms="0.0e-00"     purity="0.00000000E+00" nType="-99">
            </Node>
        </Node>
    </Node>
</BinaryTree>
<BinaryTree type="DecisionTree" boostWeight="0.0" itree="58">
    <Node pos="c" depth="1" NCoef="0"     IVar="3" Cut="     1.715150E+01" cType="1"     res="     0.000000E+00" rms="0.0"     purity="0.00000000E+00" nType="0">
        <Node pos="l" depth="2" NCoef="0"     IVar="2" Cut="     1.049960E+01" cType="1"     res="     0.000000E+00" rms="0.0"     purity="0.00000000E+00" nType="0">
            <Node pos="l" depth="3" NCoef="0"     IVar="-1" Cut="     0.000000E+00" cType="1"     res="    -1.158300E-02" rms="0.0e-00"     purity="0.00000000E+00" nType="-99">
            </Node>
            <Node pos="r" depth="3" NCoef="0"     IVar="-1" Cut="     0.000000E+00" cType="1"     res="     2.375760E-03" rms="0.0e-00"     purity="0.00000000E+00" nType="-99">
            </Node>
        </Node>
        <Node pos="r" depth="2" NCoef="0"     IVar="1" Cut="     8.875000E+00" cType="1"     res="     0.000000E+00" rms="0.0"     purity="0.00000000E+00" nType="0">
            <Node pos="l" depth="3" NCoef="0"     IVar="-1" Cut="     0.000000E+00" cType="1"     res="     1.181160E-02" rms="0.0e-00"     purity="0.00000000E+00" nType="-99">
            </Node>
            <Node pos="r" depth="3" NCoef="0"     IVar="-1" Cut="     0.000000E+00" cType="1"     res="    -5.600340E-03" rms="0.0e-00"     purity="0.00000000E+00" nType="-99">
            </Node>
        </Node>
    </Node>
</BinaryTree>
<BinaryTree type="DecisionTree" boostWeight="0.0" itree="59">
    <Node pos="c" depth="1" NCoef="0"     IVar="3" Cut="     1.169340E+01" cType="1"     res="     0.000000E+00" rms="0.0"     purity="0.00000000E+00" nType="0">
        <Node pos="l" depth="2" NCoef="0"     IVar="2" Cut="     2.325000E+01" cType="1"     res="     0.000000E+00" rms="0.0"     purity="0.00000000E+00" nType="0">
            <Node pos="l" depth="3" NCoef="0"     IVar="-1" Cut="     0.000000E+00" cType="1"     res="    -1.195780E-02" rms="0.0e-00"     purity="0.00000000E+00" nType="-99">
            </Node>
            <Node pos="r" depth="3" NCoef="0"     IVar="-1" Cut="     0.000000E+00" cType="1"     res="     7.519050E-03" rms="0.0e-00"     purity="0.00000000E+00" nType="-99">
            </Node>
        </Node>
        <Node pos="r" depth="2" NCoef="0"     IVar="1" Cut="     2.875000E+00" cType="1"     res="     0.000000E+00" rms="0.0"     purity="0.00000000E+00" nType="0">
            <Node pos="l" depth="3" NCoef="0"     IVar="-1" Cut="     0.000000E+00" cType="1"     res="     1.216320E-02" rms="0.0e-00"     purity="0.00000000E+00" nType="-99">
            </Node>
            <Node pos="r" depth="3" NCoef="0"     IVar="-1" Cut="     0.000000E+00" cType="1"     res="    -1.667470E-03" rms="0.0e-00"     purity="0.00000000E+00" nType="-99">
            </Node>
        </Node>
    </Node>
</BinaryTree>
<BinaryTree type="DecisionTree" boostWeight="0.0" itree="60">
    <Node pos="c" depth="1" NCoef="0"     IVar="3" Cut="     1.738410E+01" cType="1"     res="     0.000000E+00" rms="0.0"     purity="0.00000000E+00" nType="0">
        <Node pos="l" depth="2" NCoef="0"     IVar="2" Cut="     1.324580E+01" cType="1"     res="     0.000000E+00" rms="0.0"     purity="0.00000000E+00" nType="0">
            <Node pos="l" depth="3" NCoef="0"     IVar="-1" Cut="     0.000000E+00" cType="1"     res="    -1.129550E-02" rms="0.0e-00"     purity="0.00000000E+00" nType="-99">
            </Node>
            <Node pos="r" depth="3" NCoef="0"     IVar="-1" Cut="     0.000000E+00" cType="1"     res="     3.425480E-03" rms="0.0e-00"     purity="0.00000000E+00" nType="-99">
            </Node>
        </Node>
        <Node pos="r" depth="2" NCoef="0"     IVar="1" Cut="     4.375000E+00" cType="1"     res="     0.000000E+00" rms="0.0"     purity="0.00000000E+00" nType="0">
            <Node pos="l" depth="3" NCoef="0"     IVar="-1" Cut="     0.000000E+00" cType="1"     res="     1.242370E-02" rms="0.0e-00"     purity="0.00000000E+00" nType="-99">
            </Node>
            <Node pos="r" depth="3" NCoef="0"     IVar="-1" Cut="     0.000000E+00" cType="1"     res="    -1.340980E-03" rms="0.0e-00"     purity="0.00000000E+00" nType="-99">
            </Node>
        </Node>
    </Node>
</BinaryTree>
<BinaryTree type="DecisionTree" boostWeight="0.0" itree="61">
    <Node pos="c" depth="1" NCoef="0"     IVar="3" Cut="     1.738410E+01" cType="1"     res="     0.000000E+00" rms="0.0"     purity="0.00000000E+00" nType="0">
        <Node pos="l" depth="2" NCoef="0"     IVar="2" Cut="     1.049960E+01" cType="1"     res="     0.000000E+00" rms="0.0"     purity="0.00000000E+00" nType="0">
            <Node pos="l" depth="3" NCoef="0"     IVar="-1" Cut="     0.000000E+00" cType="1"     res="    -1.137930E-02" rms="0.0e-00"     purity="0.00000000E+00" nType="-99">
            </Node>
            <Node pos="r" depth="3" NCoef="0"     IVar="-1" Cut="     0.000000E+00" cType="1"     res="     2.325960E-03" rms="0.0e-00"     purity="0.00000000E+00" nType="-99">
            </Node>
        </Node>
        <Node pos="r" depth="2" NCoef="0"     IVar="1" Cut="     2.875000E+00" cType="1"     res="     0.000000E+00" rms="0.0"     purity="0.00000000E+00" nType="0">
            <Node pos="l" depth="3" NCoef="0"     IVar="-1" Cut="     0.000000E+00" cType="1"     res="     1.279430E-02" rms="0.0e-00"     purity="0.00000000E+00" nType="-99">
            </Node>
            <Node pos="r" depth="3" NCoef="0"     IVar="-1" Cut="     0.000000E+00" cType="1"     res="     2.383880E-04" rms="0.0e-00"     purity="0.00000000E+00" nType="-99">
            </Node>
        </Node>
    </Node>
</BinaryTree>
<BinaryTree type="DecisionTree" boostWeight="0.0" itree="62">
    <Node pos="c" depth="1" NCoef="0"     IVar="3" Cut="     1.166860E+01" cType="1"     res="     0.000000E+00" rms="0.0"     purity="0.00000000E+00" nType="0">
        <Node pos="l" depth="2" NCoef="0"     IVar="2" Cut="     2.325000E+01" cType="1"     res="     0.000000E+00" rms="0.0"     purity="0.00000000E+00" nType="0">
            <Node pos="l" depth="3" NCoef="0"     IVar="-1" Cut="     0.000000E+00" cType="1"     res="    -1.178750E-02" rms="0.0e-00"     purity="0.00000000E+00" nType="-99">
            </Node>
            <Node pos="r" depth="3" NCoef="0"     IVar="-1" Cut="     0.000000E+00" cType="1"     res="     7.405700E-03" rms="0.0e-00"     purity="0.00000000E+00" nType="-99">
            </Node>
        </Node>
        <Node pos="r" depth="2" NCoef="0"     IVar="1" Cut="     2.875000E+00" cType="1"     res="     0.000000E+00" rms="0.0"     purity="0.00000000E+00" nType="0">
            <Node pos="l" depth="3" NCoef="0"     IVar="-1" Cut="     0.000000E+00" cType="1"     res="     1.199000E-02" rms="0.0e-00"     purity="0.00000000E+00" nType="-99">
            </Node>
            <Node pos="r" depth="3" NCoef="0"     IVar="-1" Cut="     0.000000E+00" cType="1"     res="    -1.652070E-03" rms="0.0e-00"     purity="0.00000000E+00" nType="-99">
            </Node>
        </Node>
    </Node>
</BinaryTree>
<BinaryTree type="DecisionTree" boostWeight="0.0" itree="63">
    <Node pos="c" depth="1" NCoef="0"     IVar="3" Cut="     2.225780E+01" cType="1"     res="     0.000000E+00" rms="0.0"     purity="0.00000000E+00" nType="0">
        <Node pos="l" depth="2" NCoef="0"     IVar="2" Cut="     9.749560E+00" cType="1"     res="     0.000000E+00" rms="0.0"     purity="0.00000000E+00" nType="0">
            <Node pos="l" depth="3" NCoef="0"     IVar="-1" Cut="     0.000000E+00" cType="1"     res="    -1.094260E-02" rms="0.0e-00"     purity="0.00000000E+00" nType="-99">
            </Node>
            <Node pos="r" depth="3" NCoef="0"     IVar="-1" Cut="     0.000000E+00" cType="1"     res="     1.643270E-03" rms="0.0e-00"     purity="0.00000000E+00" nType="-99">
            </Node>
        </Node>
        <Node pos="r" depth="2" NCoef="0"     IVar="1" Cut="     8.875000E+00" cType="1"     res="     0.000000E+00" rms="0.0"     purity="0.00000000E+00" nType="0">
            <Node pos="l" depth="3" NCoef="0"     IVar="-1" Cut="     0.000000E+00" cType="1"     res="     1.212790E-02" rms="0.0e-00"     purity="0.00000000E+00" nType="-99">
            </Node>
            <Node pos="r" depth="3" NCoef="0"     IVar="-1" Cut="     0.000000E+00" cType="1"     res="    -4.054670E-03" rms="0.0e-00"     purity="0.00000000E+00" nType="-99">
            </Node>
        </Node>
    </Node>
</BinaryTree>
<BinaryTree type="DecisionTree" boostWeight="0.0" itree="64">
    <Node pos="c" depth="1" NCoef="0"     IVar="3" Cut="     2.225780E+01" cType="1"     res="     0.000000E+00" rms="0.0"     purity="0.00000000E+00" nType="0">
        <Node pos="l" depth="2" NCoef="0"     IVar="3" Cut="     9.331920E+00" cType="1"     res="     0.000000E+00" rms="0.0"     purity="0.00000000E+00" nType="0">
            <Node pos="l" depth="3" NCoef="0"     IVar="-1" Cut="     0.000000E+00" cType="1"     res="    -1.175680E-02" rms="0.0e-00"     purity="0.00000000E+00" nType="-99">
            </Node>
            <Node pos="r" depth="3" NCoef="0"     IVar="-1" Cut="     0.000000E+00" cType="1"     res="    -1.290710E-03" rms="0.0e-00"     purity="0.00000000E+00" nType="-99">
            </Node>
        </Node>
        <Node pos="r" depth="2" NCoef="0"     IVar="1" Cut="     4.375000E+00" cType="1"     res="     0.000000E+00" rms="0.0"     purity="0.00000000E+00" nType="0">
            <Node pos="l" depth="3" NCoef="0"     IVar="-1" Cut="     0.000000E+00" cType="1"     res="     1.270800E-02" rms="0.0e-00"     purity="0.00000000E+00" nType="-99">
            </Node>
            <Node pos="r" depth="3" NCoef="0"     IVar="-1" Cut="     0.000000E+00" cType="1"     res="    -5.558700E-05" rms="0.0e-00"     purity="0.00000000E+00" nType="-99">
            </Node>
        </Node>
    </Node>
</BinaryTree>
<BinaryTree type="DecisionTree" boostWeight="0.0" itree="65">
    <Node pos="c" depth="1" NCoef="0"     IVar="3" Cut="     2.225780E+01" cType="1"     res="     0.000000E+00" rms="0.0"     purity="0.00000000E+00" nType="0">
        <Node pos="l" depth="2" NCoef="0"     IVar="3" Cut="     9.331920E+00" cType="1"     res="     0.000000E+00" rms="0.0"     purity="0.00000000E+00" nType="0">
            <Node pos="l" depth="3" NCoef="0"     IVar="-1" Cut="     0.000000E+00" cType="1"     res="    -1.169440E-02" rms="0.0e-00"     purity="0.00000000E+00" nType="-99">
            </Node>
            <Node pos="r" depth="3" NCoef="0"     IVar="-1" Cut="     0.000000E+00" cType="1"     res="    -1.277820E-03" rms="0.0e-00"     purity="0.00000000E+00" nType="-99">
            </Node>
        </Node>
        <Node pos="r" depth="2" NCoef="0"     IVar="1" Cut="     4.375000E+00" cType="1"     res="     0.000000E+00" rms="0.0"     purity="0.00000000E+00" nType="0">
            <Node pos="l" depth="3" NCoef="0"     IVar="-1" Cut="     0.000000E+00" cType="1"     res="     1.264860E-02" rms="0.0e-00"     purity="0.00000000E+00" nType="-99">
            </Node>
            <Node pos="r" depth="3" NCoef="0"     IVar="-1" Cut="     0.000000E+00" cType="1"     res="    -5.503210E-05" rms="0.0e-00"     purity="0.00000000E+00" nType="-99">
            </Node>
        </Node>
    </Node>
</BinaryTree>
<BinaryTree type="DecisionTree" boostWeight="0.0" itree="66">
    <Node pos="c" depth="1" NCoef="0"     IVar="3" Cut="     1.166860E+01" cType="1"     res="     0.000000E+00" rms="0.0"     purity="0.00000000E+00" nType="0">
        <Node pos="l" depth="2" NCoef="0"     IVar="2" Cut="     2.049970E+01" cType="1"     res="     0.000000E+00" rms="0.0"     purity="0.00000000E+00" nType="0">
            <Node pos="l" depth="3" NCoef="0"     IVar="-1" Cut="     0.000000E+00" cType="1"     res="    -1.159830E-02" rms="0.0e-00"     purity="0.00000000E+00" nType="-99">
            </Node>
            <Node pos="r" depth="3" NCoef="0"     IVar="-1" Cut="     0.000000E+00" cType="1"     res="     6.703150E-03" rms="0.0e-00"     purity="0.00000000E+00" nType="-99">
            </Node>
        </Node>
        <Node pos="r" depth="2" NCoef="0"     IVar="1" Cut="     2.875000E+00" cType="1"     res="     0.000000E+00" rms="0.0"     purity="0.00000000E+00" nType="0">
            <Node pos="l" depth="3" NCoef="0"     IVar="-1" Cut="     0.000000E+00" cType="1"     res="     1.178050E-02" rms="0.0e-00"     purity="0.00000000E+00" nType="-99">
            </Node>
            <Node pos="r" depth="3" NCoef="0"     IVar="-1" Cut="     0.000000E+00" cType="1"     res="    -1.693700E-03" rms="0.0e-00"     purity="0.00000000E+00" nType="-99">
            </Node>
        </Node>
    </Node>
</BinaryTree>
<BinaryTree type="DecisionTree" boostWeight="0.0" itree="67">
    <Node pos="c" depth="1" NCoef="0"     IVar="3" Cut="     2.225780E+01" cType="1"     res="     0.000000E+00" rms="0.0"     purity="0.00000000E+00" nType="0">
        <Node pos="l" depth="2" NCoef="0"     IVar="2" Cut="     9.749560E+00" cType="1"     res="     0.000000E+00" rms="0.0"     purity="0.00000000E+00" nType="0">
            <Node pos="l" depth="3" NCoef="0"     IVar="-1" Cut="     0.000000E+00" cType="1"     res="    -1.072450E-02" rms="0.0e-00"     purity="0.00000000E+00" nType="-99">
            </Node>
            <Node pos="r" depth="3" NCoef="0"     IVar="-1" Cut="     0.000000E+00" cType="1"     res="     1.672770E-03" rms="0.0e-00"     purity="0.00000000E+00" nType="-99">
            </Node>
        </Node>
        <Node pos="r" depth="2" NCoef="0"     IVar="1" Cut="     8.875000E+00" cType="1"     res="     0.000000E+00" rms="0.0"     purity="0.00000000E+00" nType="0">
            <Node pos="l" depth="3" NCoef="0"     IVar="-1" Cut="     0.000000E+00" cType="1"     res="     1.190340E-02" rms="0.0e-00"     purity="0.00000000E+00" nType="-99">
            </Node>
            <Node pos="r" depth="3" NCoef="0"     IVar="-1" Cut="     0.000000E+00" cType="1"     res="    -3.998730E-03" rms="0.0e-00"     purity="0.00000000E+00" nType="-99">
            </Node>
        </Node>
    </Node>
</BinaryTree>
<BinaryTree type="DecisionTree" boostWeight="0.0" itree="68">
    <Node pos="c" depth="1" NCoef="0"     IVar="3" Cut="     2.225780E+01" cType="1"     res="     0.000000E+00" rms="0.0"     purity="0.00000000E+00" nType="0">
        <Node pos="l" depth="2" NCoef="0"     IVar="3" Cut="     9.331920E+00" cType="1"     res="     0.000000E+00" rms="0.0"     purity="0.00000000E+00" nType="0">
            <Node pos="l" depth="3" NCoef="0"     IVar="-1" Cut="     0.000000E+00" cType="1"     res="    -1.152900E-02" rms="0.0e-00"     purity="0.00000000E+00" nType="-99">
            </Node>
            <Node pos="r" depth="3" NCoef="0"     IVar="-1" Cut="     0.000000E+00" cType="1"     res="    -1.238870E-03" rms="0.0e-00"     purity="0.00000000E+00" nType="-99">
            </Node>
        </Node>
        <Node pos="r" depth="2" NCoef="0"     IVar="1" Cut="     4.375000E+00" cType="1"     res="     0.000000E+00" rms="0.0"     purity="0.00000000E+00" nType="0">
            <Node pos="l" depth="3" NCoef="0"     IVar="-1" Cut="     0.000000E+00" cType="1"     res="     1.248690E-02" rms="0.0e-00"     purity="0.00000000E+00" nType="-99">
            </Node>
            <Node pos="r" depth="3" NCoef="0"     IVar="-1" Cut="     0.000000E+00" cType="1"     res="    -6.561310E-05" rms="0.0e-00"     purity="0.00000000E+00" nType="-99">
            </Node>
        </Node>
    </Node>
</BinaryTree>
<BinaryTree type="DecisionTree" boostWeight="0.0" itree="69">
    <Node pos="c" depth="1" NCoef="0"     IVar="3" Cut="     2.225780E+01" cType="1"     res="     0.000000E+00" rms="0.0"     purity="0.00000000E+00" nType="0">
